FANN_FLO_2.1
num_layers=3
learning_rate=0.700000
connection_rate=1.000000
network_type=0
learning_momentum=0.000000
training_algorithm=2
train_error_function=1
train_stop_function=0
cascade_output_change_fraction=0.010000
quickprop_decay=-0.000100
quickprop_mu=1.750000
rprop_increase_factor=1.200000
rprop_decrease_factor=0.500000
rprop_delta_min=0.000000
rprop_delta_max=50.000000
rprop_delta_zero=0.100000
cascade_output_stagnation_epochs=12
cascade_candidate_change_fraction=0.010000
cascade_candidate_stagnation_epochs=12
cascade_max_out_epochs=150
cascade_min_out_epochs=50
cascade_max_cand_epochs=150
cascade_min_cand_epochs=50
cascade_num_candidate_groups=2
bit_fail_limit=3.49999994039535522461e-01
cascade_candidate_limit=1.00000000000000000000e+03
cascade_weight_multiplier=4.00000005960464477539e-01
cascade_activation_functions_count=10
cascade_activation_functions=3 5 7 8 10 11 14 15 16 17 
cascade_activation_steepnesses_count=4
cascade_activation_steepnesses=2.50000000000000000000e-01 5.00000000000000000000e-01 7.50000000000000000000e-01 1.00000000000000000000e+00 
layer_sizes=7 21 2 
scale_included=0
neurons (num_inputs, activation_function, activation_steepness)=(0, 0, 0.00000000000000000000e+00) (0, 0, 0.00000000000000000000e+00) (0, 0, 0.00000000000000000000e+00) (0, 0, 0.00000000000000000000e+00) (0, 0, 0.00000000000000000000e+00) (0, 0, 0.00000000000000000000e+00) (0, 0, 0.00000000000000000000e+00) (7, 3, 5.00000000000000000000e-01) (7, 3, 5.00000000000000000000e-01) (7, 3, 5.00000000000000000000e-01) (7, 3, 5.00000000000000000000e-01) (7, 3, 5.00000000000000000000e-01) (7, 3, 5.00000000000000000000e-01) (7, 3, 5.00000000000000000000e-01) (7, 3, 5.00000000000000000000e-01) (7, 3, 5.00000000000000000000e-01) (7, 3, 5.00000000000000000000e-01) (7, 3, 5.00000000000000000000e-01) (7, 3, 5.00000000000000000000e-01) (7, 3, 5.00000000000000000000e-01) (7, 3, 5.00000000000000000000e-01) (7, 3, 5.00000000000000000000e-01) (7, 3, 5.00000000000000000000e-01) (7, 3, 5.00000000000000000000e-01) (7, 3, 5.00000000000000000000e-01) (7, 3, 5.00000000000000000000e-01) (7, 3, 5.00000000000000000000e-01) (0, 3, 5.00000000000000000000e-01) (21, 3, 5.00000000000000000000e-01) (0, 3, 5.00000000000000000000e-01) 
connections (connected_to_neuron, weight)=(0, -4.96975421905517578125e+00) (1, 1.85009407997131347656e+00) (2, -1.61072820425033569336e-01) (3, -4.29671192169189453125e+00) (4, -1.87239646911621093750e+00) (5, 5.87586462497711181641e-01) (6, 4.31063270568847656250e+00) (0, 2.32032823562622070312e+00) (1, -1.20512735843658447266e+00) (2, 1.29086267948150634766e+00) (3, 2.74624109268188476562e+00) (4, 1.19133114814758300781e-01) (5, 5.64013061523437500000e+02) (6, -7.80514180660247802734e-01) (0, 4.79234409332275390625e+00) (1, -1.49739480018615722656e+00) (2, 1.66885232925415039062e+00) (3, -1.19250424206256866455e-01) (4, -8.71999025344848632812e-01) (5, 1.21635229492187500000e+03) (6, -6.43255829811096191406e-01) (0, 3.00859475135803222656e+00) (1, -1.76910042762756347656e+00) (2, 1.68224900960922241211e-01) (3, 1.28131616115570068359e+00) (4, 6.45098164677619934082e-02) (5, 5.64914306640625000000e+02) (6, -1.64057776331901550293e-01) (0, 1.24365739524364471436e-01) (1, 1.40438508987426757812e+00) (2, 1.09253776073455810547e+00) (3, 2.97749447822570800781e+00) (4, 1.44630980491638183594e+00) (5, -1.76652848720550537109e+00) (6, -3.16691088676452636719e+00) (0, 3.27892661094665527344e+00) (1, -7.89619922637939453125e+00) (2, -4.06137046813964843750e+01) (3, 2.33956411480903625488e-01) (4, -5.86426448822021484375e+00) (5, -7.38803672790527343750e+00) (6, 1.26923198699951171875e+01) (0, 1.18014936447143554688e+01) (1, -1.07338037490844726562e+01) (2, 3.08559358119964599609e-01) (3, 2.91236424446105957031e+00) (4, 9.75300490856170654297e-01) (5, -8.58623600006103515625e+00) (6, 8.21358966827392578125e+00) (0, 6.84806966781616210938e+00) (1, -2.63283944129943847656e+00) (2, 4.79408073425292968750e+01) (3, 2.56884515285491943359e-01) (4, -2.78326296806335449219e+00) (5, -8.13855743408203125000e+00) (6, 4.11804199218750000000e+00) (0, 1.83950102329254150391e+00) (1, -1.82846050262451171875e+01) (2, -5.04847478866577148438e+00) (3, 9.97629070281982421875e+00) (4, 5.36399459838867187500e+00) (5, 1.21889416503906250000e+03) (6, 5.59319067001342773438e+00) (0, -1.83149158954620361328e-01) (1, 1.31517422199249267578e+00) (2, -2.36265182495117187500e+00) (3, 3.04565739631652832031e+00) (4, 7.01482236385345458984e-01) (5, -3.19182991981506347656e-01) (6, -1.92205774784088134766e+00) (0, 1.09093666076660156250e+00) (1, 2.46920847892761230469e+00) (2, 5.16515874862670898438e+00) (3, 2.56540083885192871094e+00) (4, -5.24577760696411132812e+00) (5, -4.00165945291519165039e-01) (6, -5.22550761699676513672e-01) (0, -9.63367879390716552734e-01) (1, 1.27688395977020263672e+00) (2, -8.65865647792816162109e-01) (3, 3.63731193542480468750e+00) (4, 4.39400434494018554688e-01) (5, 3.67167592048645019531e-01) (6, -1.06294405460357666016e+00) (0, 9.81591999530792236328e-01) (1, 3.38713586330413818359e-01) (2, 5.00336122512817382812e+00) (3, -8.98699092864990234375e+00) (4, 2.16445899009704589844e+00) (5, -1.03505563735961914062e+00) (6, -1.69359540939331054688e+00) (0, 9.06856298446655273438e-01) (1, -3.05798363685607910156e+00) (2, 2.55850720405578613281e+00) (3, 6.43815374374389648438e+00) (4, 1.46001100540161132812e+00) (5, 1.49930969238281250000e+03) (6, 1.25557255744934082031e+00) (0, -2.22098755836486816406e+00) (1, -1.82138711214065551758e-01) (2, -9.65023756027221679688e-01) (3, 3.37925434112548828125e+00) (4, 3.65180063247680664062e+00) (5, -5.04926204681396484375e-01) (6, -7.40819647908210754395e-02) (0, 2.67343521118164062500e+00) (1, -3.19930219650268554688e+00) (2, 2.06772017478942871094e+00) (3, -2.57956147193908691406e+00) (4, -5.49384117126464843750e-01) (5, -4.77243041992187500000e+00) (6, -2.64234066009521484375e-01) (0, 4.53721195459365844727e-01) (1, -7.48298048973083496094e-01) (2, 2.73129057884216308594e+00) (3, 5.12135982513427734375e-01) (4, -4.46226596832275390625e-01) (5, 5.02176463603973388672e-01) (6, 9.92898821830749511719e-01) (0, 1.42804431915283203125e+00) (1, -5.05032598972320556641e-01) (2, 4.29765164852142333984e-01) (3, 3.10077810287475585938e+00) (4, -8.27436521649360656738e-02) (5, 1.61126495361328125000e+02) (6, -7.33546853065490722656e-01) (0, -3.36629629135131835938e+00) (1, 2.00832390785217285156e+00) (2, 3.40905594825744628906e+00) (3, -1.28044736385345458984e+00) (4, -1.00243234634399414062e+00) (5, -8.43512084960937500000e+02) (6, 7.72794604301452636719e-01) (0, 8.77128183841705322266e-01) (1, -1.04931247234344482422e+00) (2, -1.13434290885925292969e+00) (3, 3.89318490028381347656e+00) (4, 2.57100534439086914062e+00) (5, 1.49930969238281250000e+03) (6, -4.52774167060852050781e-01) (7, -1.37870442867279052734e+00) (8, 4.30717915296554565430e-01) (9, 1.64592075347900390625e+00) (10, 8.20088207721710205078e-01) (11, 3.91324067115783691406e+00) (12, -9.49523091316223144531e-01) (13, -6.43847560882568359375e+00) (14, -4.78274345397949218750e-01) (15, 1.34608113765716552734e+00) (16, 1.59975624084472656250e+00) (17, 1.57998514175415039062e+00) (18, 1.34091067314147949219e+00) (19, -1.71096062660217285156e+00) (20, 8.54059159755706787109e-01) (21, 1.38052618503570556641e+00) (22, 2.33411197662353515625e+01) (23, -4.59268712997436523438e+00) (24, 4.22753840684890747070e-01) (25, -5.56035757064819335938e+00) (26, 7.61229932308197021484e-01) (27, -1.60157775878906250000e+00) 
