FANN_FLO_2.1
num_layers=3
learning_rate=0.700000
connection_rate=1.000000
network_type=0
learning_momentum=0.000000
training_algorithm=2
train_error_function=1
train_stop_function=0
cascade_output_change_fraction=0.010000
quickprop_decay=-0.000100
quickprop_mu=1.750000
rprop_increase_factor=1.200000
rprop_decrease_factor=0.500000
rprop_delta_min=0.000000
rprop_delta_max=50.000000
rprop_delta_zero=0.100000
cascade_output_stagnation_epochs=12
cascade_candidate_change_fraction=0.010000
cascade_candidate_stagnation_epochs=12
cascade_max_out_epochs=150
cascade_max_cand_epochs=150
cascade_num_candidate_groups=2
bit_fail_limit=3.49999994039535522461e-01
cascade_candidate_limit=1.00000000000000000000e+03
cascade_weight_multiplier=4.00000005960464477539e-01
cascade_activation_functions_count=10
cascade_activation_functions=3 5 7 8 10 11 14 15 16 17 
cascade_activation_steepnesses_count=4
cascade_activation_steepnesses=2.50000000000000000000e-01 5.00000000000000000000e-01 7.50000000000000000000e-01 1.00000000000000000000e+00 
layer_sizes=65 17 5 
scale_included=0
neurons (num_inputs, activation_function, activation_steepness)=(0, 0, 0.00000000000000000000e+00) (0, 0, 0.00000000000000000000e+00) (0, 0, 0.00000000000000000000e+00) (0, 0, 0.00000000000000000000e+00) (0, 0, 0.00000000000000000000e+00) (0, 0, 0.00000000000000000000e+00) (0, 0, 0.00000000000000000000e+00) (0, 0, 0.00000000000000000000e+00) (0, 0, 0.00000000000000000000e+00) (0, 0, 0.00000000000000000000e+00) (0, 0, 0.00000000000000000000e+00) (0, 0, 0.00000000000000000000e+00) (0, 0, 0.00000000000000000000e+00) (0, 0, 0.00000000000000000000e+00) (0, 0, 0.00000000000000000000e+00) (0, 0, 0.00000000000000000000e+00) (0, 0, 0.00000000000000000000e+00) (0, 0, 0.00000000000000000000e+00) (0, 0, 0.00000000000000000000e+00) (0, 0, 0.00000000000000000000e+00) (0, 0, 0.00000000000000000000e+00) (0, 0, 0.00000000000000000000e+00) (0, 0, 0.00000000000000000000e+00) (0, 0, 0.00000000000000000000e+00) (0, 0, 0.00000000000000000000e+00) (0, 0, 0.00000000000000000000e+00) (0, 0, 0.00000000000000000000e+00) (0, 0, 0.00000000000000000000e+00) (0, 0, 0.00000000000000000000e+00) (0, 0, 0.00000000000000000000e+00) (0, 0, 0.00000000000000000000e+00) (0, 0, 0.00000000000000000000e+00) (0, 0, 0.00000000000000000000e+00) (0, 0, 0.00000000000000000000e+00) (0, 0, 0.00000000000000000000e+00) (0, 0, 0.00000000000000000000e+00) (0, 0, 0.00000000000000000000e+00) (0, 0, 0.00000000000000000000e+00) (0, 0, 0.00000000000000000000e+00) (0, 0, 0.00000000000000000000e+00) (0, 0, 0.00000000000000000000e+00) (0, 0, 0.00000000000000000000e+00) (0, 0, 0.00000000000000000000e+00) (0, 0, 0.00000000000000000000e+00) (0, 0, 0.00000000000000000000e+00) (0, 0, 0.00000000000000000000e+00) (0, 0, 0.00000000000000000000e+00) (0, 0, 0.00000000000000000000e+00) (0, 0, 0.00000000000000000000e+00) (0, 0, 0.00000000000000000000e+00) (0, 0, 0.00000000000000000000e+00) (0, 0, 0.00000000000000000000e+00) (0, 0, 0.00000000000000000000e+00) (0, 0, 0.00000000000000000000e+00) (0, 0, 0.00000000000000000000e+00) (0, 0, 0.00000000000000000000e+00) (0, 0, 0.00000000000000000000e+00) (0, 0, 0.00000000000000000000e+00) (0, 0, 0.00000000000000000000e+00) (0, 0, 0.00000000000000000000e+00) (0, 0, 0.00000000000000000000e+00) (0, 0, 0.00000000000000000000e+00) (0, 0, 0.00000000000000000000e+00) (0, 0, 0.00000000000000000000e+00) (0, 0, 0.00000000000000000000e+00) (65, 5, 5.00000000000000000000e-01) (65, 5, 5.00000000000000000000e-01) (65, 5, 5.00000000000000000000e-01) (65, 5, 5.00000000000000000000e-01) (65, 5, 5.00000000000000000000e-01) (65, 5, 5.00000000000000000000e-01) (65, 5, 5.00000000000000000000e-01) (65, 5, 5.00000000000000000000e-01) (65, 5, 5.00000000000000000000e-01) (65, 5, 5.00000000000000000000e-01) (65, 5, 5.00000000000000000000e-01) (65, 5, 5.00000000000000000000e-01) (65, 5, 5.00000000000000000000e-01) (65, 5, 5.00000000000000000000e-01) (65, 5, 5.00000000000000000000e-01) (65, 5, 5.00000000000000000000e-01) (0, 5, 5.00000000000000000000e-01) (17, 5, 5.00000000000000000000e-01) (17, 5, 5.00000000000000000000e-01) (17, 5, 5.00000000000000000000e-01) (17, 5, 5.00000000000000000000e-01) (0, 5, 5.00000000000000000000e-01) 
connections (connected_to_neuron, weight)=(0, 3.67740005254745483398e-01) (1, -5.82707405090332031250e-01) (2, -2.52021998167037963867e-02) (3, -5.42169772088527679443e-02) (4, 3.39371889829635620117e-01) (5, 9.53509658575057983398e-02) (6, 1.90081641077995300293e-01) (7, 1.74075081944465637207e-01) (8, 2.06035941839218139648e-01) (9, 1.12680174410343170166e-01) (10, -2.70718149840831756592e-02) (11, 1.73548385500907897949e-01) (12, 8.29889103770256042480e-02) (13, -3.55469733476638793945e-02) (14, 3.21241691708564758301e-02) (15, 6.05553947389125823975e-02) (16, 1.41920655965805053711e-01) (17, 2.97391980886459350586e-01) (18, 3.13200503587722778320e-02) (19, 1.18470214307308197021e-01) (20, 3.54440771043300628662e-02) (21, -1.71388268470764160156e-01) (22, -1.97577089071273803711e-01) (23, -8.43849033117294311523e-02) (24, -1.40552699565887451172e-01) (25, 1.60580605268478393555e-01) (26, 2.16214001178741455078e-01) (27, -5.24586103856563568115e-02) (28, 3.49624156951904296875e-01) (29, 1.29117429256439208984e-01) (30, 2.46840491890907287598e-02) (31, 1.98326930403709411621e-01) (32, -3.91591452062129974365e-02) (33, -9.18968319892883300781e-02) (34, 1.66968539357185363770e-01) (35, 7.38916471600532531738e-02) (36, 1.33614018559455871582e-01) (37, -1.63988366723060607910e-01) (38, -2.07661893218755722046e-02) (39, 1.67409151792526245117e-01) (40, -5.50976917147636413574e-02) (41, 2.55445271730422973633e-01) (42, 3.66012118756771087646e-02) (43, -2.47445791959762573242e-01) (44, -6.20787404477596282959e-03) (45, -8.64407494664192199707e-02) (46, -8.14192816615104675293e-02) (47, 5.13275433331727981567e-03) (48, 6.49261549115180969238e-02) (49, -4.26885224878787994385e-02) (50, 9.80277061462402343750e-02) (51, -1.59196719527244567871e-01) (52, 2.53289844840764999390e-02) (53, -6.19111508131027221680e-02) (54, 3.58062796294689178467e-02) (55, -2.63630509376525878906e-01) (56, 2.76565790176391601562e-01) (57, 1.36588200926780700684e-01) (58, 3.48488651216030120850e-02) (59, 1.99408173561096191406e-01) (60, -6.09157122671604156494e-02) (61, 1.19431331753730773926e-01) (62, 1.64094671607017517090e-01) (63, 8.67358818650245666504e-02) (64, -1.76304236054420471191e-01) (0, -1.17648400366306304932e-01) (1, 1.34888906031847000122e-02) (2, -2.18539535999298095703e-01) (3, 3.74667584896087646484e-01) (4, 1.33445248007774353027e-01) (5, 6.96924850344657897949e-02) (6, 2.41043567657470703125e-01) (7, -3.46581578254699707031e-01) (8, 6.35565578937530517578e-01) (9, 1.01670712232589721680e-01) (10, -2.09247156977653503418e-01) (11, 1.30180060863494873047e-01) (12, 2.69602149724960327148e-01) (13, 4.98130843043327331543e-02) (14, 2.17033460736274719238e-01) (15, -2.91488170623779296875e-01) (16, 5.43379634618759155273e-02) (17, 2.37490348517894744873e-02) (18, -8.80148634314537048340e-02) (19, 9.45684388279914855957e-02) (20, -2.00539797544479370117e-01) (21, 1.44082863698713481426e-04) (22, 1.38388484716415405273e-01) (23, -1.78109601140022277832e-01) (24, -2.18499541282653808594e-01) (25, 2.49061360955238342285e-01) (26, 3.40736538171768188477e-01) (27, -9.46959778666496276855e-02) (28, -6.32713958621025085449e-02) (29, 1.46917149424552917480e-01) (30, -6.59702643752098083496e-02) (31, -3.11839580535888671875e-01) (32, 1.94545537233352661133e-01) (33, 1.82656034827232360840e-01) (34, 4.97295800596475601196e-03) (35, 6.11154586076736450195e-02) (36, 1.56212404370307922363e-01) (37, -3.10560673475265502930e-01) (38, 1.76392555236816406250e-01) (39, 4.96718995273113250732e-02) (40, 1.75136968493461608887e-01) (41, 2.30486124753952026367e-01) (42, 1.74857631325721740723e-01) (43, -8.46692249178886413574e-02) (44, -1.01239435374736785889e-01) (45, 2.43035070598125457764e-02) (46, 1.52074798941612243652e-01) (47, -2.11270041763782501221e-02) (48, 2.12864473462104797363e-01) (49, 1.11089907586574554443e-01) (50, -1.38697639107704162598e-01) (51, 2.15238705277442932129e-01) (52, 1.07438705861568450928e-01) (53, -1.73097863793373107910e-01) (54, -7.11630657315254211426e-02) (55, 2.23115548491477966309e-01) (56, 1.08442045748233795166e-01) (57, 1.15369766950607299805e-01) (58, 2.25578412413597106934e-01) (59, 4.97682273387908935547e-01) (60, 2.64683008193969726562e-01) (61, 2.96220391988754272461e-01) (62, 1.93524137139320373535e-01) (63, 1.29925310611724853516e-01) (64, 7.87587985396385192871e-02) (0, 8.86553153395652770996e-02) (1, 3.24235200881958007812e-01) (2, 4.60653305053710937500e-01) (3, 1.40321254730224609375e-01) (4, 2.20024675130844116211e-01) (5, 4.82605278491973876953e-01) (6, 7.91616141796112060547e-02) (7, 3.19458395242691040039e-01) (8, 1.26698002219200134277e-01) (9, 2.12462712079286575317e-02) (10, 1.42381548881530761719e-01) (11, 1.17100648581981658936e-01) (12, -4.73189428448677062988e-02) (13, 1.99715375900268554688e-01) (14, -7.66643732786178588867e-02) (15, 2.10116252303123474121e-01) (16, 2.15184330940246582031e-01) (17, 4.46041136980056762695e-01) (18, 4.81861919164657592773e-01) (19, 3.97859394550323486328e-01) (20, -1.85417160391807556152e-02) (21, 1.67202487587928771973e-01) (22, 2.05932006239891052246e-01) (23, 5.00227749347686767578e-01) (24, 1.09396028518676757812e+00) (25, 1.24419040977954864502e-01) (26, 2.11801037192344665527e-01) (27, 6.92322194576263427734e-01) (28, 5.23948192596435546875e-01) (29, 3.36137004196643829346e-02) (30, 1.44672825932502746582e-01) (31, 4.59249764680862426758e-01) (32, 2.45462566614151000977e-01) (33, 4.11963403224945068359e-01) (34, 1.73701137304306030273e-01) (35, 2.87922948598861694336e-01) (36, 2.04516481608152389526e-02) (37, 5.08515894412994384766e-01) (38, -3.52438241243362426758e-02) (39, 2.05883800983428955078e-01) (40, 2.02507495880126953125e-01) (41, 2.76573121547698974609e-01) (42, -7.64581188559532165527e-02) (43, 6.21330812573432922363e-02) (44, 2.39944115281105041504e-01) (45, -1.05414085090160369873e-01) (46, -4.01055403053760528564e-02) (47, -8.41869860887527465820e-02) (48, 3.87798875570297241211e-01) (49, 4.55143153667449951172e-01) (50, -1.64534538984298706055e-01) (51, 1.03789664804935455322e-01) (52, 3.82186979055404663086e-01) (53, 3.11782598495483398438e-01) (54, 1.72260090708732604980e-01) (55, -4.83958572149276733398e-02) (56, 3.42414677143096923828e-01) (57, 2.29123026132583618164e-01) (58, -2.11237087845802307129e-01) (59, 1.44994124770164489746e-01) (60, 2.07558304071426391602e-01) (61, 3.53251099586486816406e-01) (62, -2.16160342097282409668e-02) (63, 1.75491288304328918457e-01) (64, 1.81254237890243530273e-01) (0, -1.13534338772296905518e-01) (1, 1.82708024978637695312e-01) (2, -1.50855397805571556091e-02) (3, 2.93447403237223625183e-03) (4, -3.24299782514572143555e-02) (5, 8.31730812788009643555e-02) (6, 1.15918643772602081299e-01) (7, -9.44084674119949340820e-02) (8, 1.76264002919197082520e-01) (9, 3.62966470420360565186e-02) (10, 1.85742855072021484375e-01) (11, 1.57061621546745300293e-01) (12, 2.75394171476364135742e-01) (13, 1.25184446573257446289e-01) (14, 5.76197989284992218018e-02) (15, -1.68233752250671386719e-01) (16, 8.22765752673149108887e-02) (17, -1.42108395695686340332e-01) (18, 5.68938069045543670654e-02) (19, 1.02902039885520935059e-01) (20, -4.93481382727622985840e-03) (21, 1.26253172755241394043e-01) (22, 2.24573388695716857910e-01) (23, -1.44679814577102661133e-01) (24, 7.62146115303039550781e-02) (25, -7.39399716258049011230e-02) (26, -4.70270812511444091797e-02) (27, -2.76624292135238647461e-01) (28, -3.79226170480251312256e-02) (29, -8.69919285178184509277e-02) (30, 9.75695811212062835693e-03) (31, -1.07049502432346343994e-01) (32, 3.03478892892599105835e-02) (33, -4.42749634385108947754e-02) (34, -7.86579027771949768066e-02) (35, -1.46733969449996948242e-01) (36, -6.41100406646728515625e-02) (37, -1.04690931737422943115e-01) (38, 1.77884958684444427490e-02) (39, 1.30138516426086425781e-01) (40, 4.53738346695899963379e-02) (41, -1.01828806102275848389e-01) (42, -6.30193948745727539062e-02) (43, 1.24375417828559875488e-01) (44, -3.80370467901229858398e-02) (45, 3.88119593262672424316e-02) (46, -3.87930497527122497559e-02) (47, -7.77019187808036804199e-02) (48, -7.45607838034629821777e-02) (49, -1.26713022589683532715e-01) (50, -2.46181990951299667358e-02) (51, 3.12505327165126800537e-02) (52, -2.33872383832931518555e-02) (53, -4.12180600687861442566e-03) (54, 3.00289988517761230469e-02) (55, 2.12567225098609924316e-02) (56, -2.16956913471221923828e-01) (57, 4.36411164700984954834e-02) (58, 1.43774002790451049805e-02) (59, 1.00597463548183441162e-01) (60, 4.24718186259269714355e-02) (61, -7.77096627280116081238e-03) (62, 1.67198792099952697754e-01) (63, -8.84109288454055786133e-02) (64, -2.41701751947402954102e-01) (0, 3.06429386138916015625e-01) (1, -7.95068219304084777832e-02) (2, -5.88489286601543426514e-02) (3, -4.81178350746631622314e-02) (4, 1.82461157441139221191e-01) (5, 1.39156267046928405762e-01) (6, 4.51844222843647003174e-02) (7, -1.00739806890487670898e-01) (8, 1.14150069653987884521e-01) (9, 5.38082085549831390381e-02) (10, -1.83325950056314468384e-02) (11, 2.93272376060485839844e-01) (12, 1.87179237604141235352e-01) (13, 1.73705011606216430664e-01) (14, -2.66260534524917602539e-01) (15, -2.46662110090255737305e-01) (16, 1.25994756817817687988e-01) (17, -1.36783525347709655762e-01) (18, -3.94701920449733734131e-02) (19, 6.19086064398288726807e-02) (20, -4.07669767737388610840e-02) (21, -7.05510824918746948242e-02) (22, -1.59120395779609680176e-01) (23, -4.26361352205276489258e-01) (24, -7.41586461663246154785e-02) (25, 1.17225274443626403809e-01) (26, 1.84949740767478942871e-01) (27, -2.11026653647422790527e-01) (28, 2.21394404768943786621e-01) (29, -1.33978262543678283691e-01) (30, -9.05851647257804870605e-02) (31, 5.32422214746475219727e-03) (32, -4.11872453987598419189e-02) (33, -3.63061785697937011719e-01) (34, 9.81162562966346740723e-02) (35, -1.97865635156631469727e-01) (36, 4.40716324374079704285e-03) (37, 2.39184536039829254150e-02) (38, 9.20380055904388427734e-02) (39, 6.86030834913253784180e-02) (40, -1.38406410813331604004e-01) (41, 2.35707715153694152832e-01) (42, -1.94362252950668334961e-02) (43, 5.20842745900154113770e-02) (44, 8.67878720164299011230e-02) (45, -2.10851818323135375977e-01) (46, 3.58747318387031555176e-02) (47, 4.57106828689575195312e-02) (48, -1.54660657048225402832e-01) (49, -4.20548737049102783203e-01) (50, 6.02585859596729278564e-02) (51, -2.51922130584716796875e-01) (52, 1.70830145478248596191e-01) (53, 4.19023213908076286316e-03) (54, 1.55241712927818298340e-01) (55, -2.37354338169097900391e-01) (56, -2.02650561928749084473e-01) (57, 1.33648470044136047363e-01) (58, 3.84869009256362915039e-01) (59, 4.90289121866226196289e-01) (60, -3.16315293312072753906e-01) (61, 2.04718336462974548340e-02) (62, 2.76520967483520507812e-01) (63, -9.86013747751712799072e-03) (64, 1.96237891912460327148e-01) (0, 2.22093746066093444824e-01) (1, 1.74679085612297058105e-01) (2, 2.14633017778396606445e-01) (3, 2.49067261815071105957e-01) (4, 1.61431849002838134766e-01) (5, 1.51727855205535888672e-01) (6, 3.86977046728134155273e-02) (7, 2.53132224082946777344e-01) (8, -9.38771888613700866699e-02) (9, 5.96384555101394653320e-02) (10, -8.96808505058288574219e-02) (11, -1.37881070375442504883e-01) (12, -2.18879520893096923828e-01) (13, 4.48084324598312377930e-02) (14, 1.72487467527389526367e-01) (15, 3.70716452598571777344e-01) (16, -1.34033396840095520020e-01) (17, 1.78835421800613403320e-01) (18, -4.05729301273822784424e-02) (19, -9.39644500613212585449e-02) (20, -2.00498197227716445923e-03) (21, -1.49496048688888549805e-02) (22, -1.43950626254081726074e-01) (23, 3.36697518825531005859e-01) (24, 7.23500968888401985168e-03) (25, -3.40833002701401710510e-03) (26, -4.24428544938564300537e-02) (27, 3.97693723440170288086e-01) (28, -1.23318359255790710449e-01) (29, 9.24877524375915527344e-02) (30, -2.53564994782209396362e-02) (31, 8.21420103311538696289e-02) (32, -1.05299480259418487549e-01) (33, 7.86390081048011779785e-02) (34, -9.13104936480522155762e-02) (35, 1.23896904289722442627e-01) (36, 4.22806367278099060059e-02) (37, 1.70629605650901794434e-01) (38, -9.90272462368011474609e-02) (39, -2.42732703685760498047e-01) (40, -8.61545875668525695801e-02) (41, 5.99980466067790985107e-02) (42, -1.11596472561359405518e-02) (43, -1.46544724702835083008e-01) (44, 3.42150256037712097168e-02) (45, -2.54020113497972488403e-02) (46, 7.63583332300186157227e-02) (47, 9.32415127754211425781e-02) (48, 1.37805849313735961914e-01) (49, 2.72038549184799194336e-01) (50, -5.07931075990200042725e-02) (51, 1.05560630559921264648e-01) (52, 4.61472831666469573975e-02) (53, 1.33827149868011474609e-01) (54, -8.19343142211437225342e-03) (55, 1.68637588620185852051e-01) (56, 3.26825231313705444336e-01) (57, 1.38133848085999488831e-02) (58, -3.11347730457782745361e-02) (59, -1.09819903969764709473e-01) (60, 2.15435802936553955078e-01) (61, 1.72366008162498474121e-01) (62, -2.33329549431800842285e-01) (63, 2.48687759041786193848e-01) (64, -3.27726423740386962891e-01) (0, -1.52654513716697692871e-01) (1, -7.83889144659042358398e-02) (2, -1.66309669613838195801e-01) (3, 4.78747487068176269531e-02) (4, 1.48761019110679626465e-01) (5, 3.38047564029693603516e-01) (6, 2.38339856266975402832e-01) (7, 1.62305578589439392090e-01) (8, 6.69979974627494812012e-02) (9, -2.99835987389087677002e-02) (10, 8.41274634003639221191e-02) (11, 1.89195811748504638672e-01) (12, 2.04524293541908264160e-01) (13, 3.14949125051498413086e-01) (14, 2.69037008285522460938e-01) (15, 3.06343495845794677734e-01) (16, 1.37879461050033569336e-01) (17, 1.06791988015174865723e-01) (18, 9.06316414475440979004e-02) (19, 1.55203893780708312988e-01) (20, 2.11806237697601318359e-01) (21, 3.53812575340270996094e-01) (22, 2.67037212848663330078e-01) (23, 3.58337044715881347656e-01) (24, 1.47725284099578857422e-01) (25, 1.51912361383438110352e-01) (26, 3.09167802333831787109e-01) (27, 2.59018957614898681641e-01) (28, 3.56642961502075195312e-01) (29, 4.05632227659225463867e-01) (30, 4.28019195795059204102e-01) (31, 3.01169723272323608398e-01) (32, 1.04182818904519081116e-02) (33, 3.55969555675983428955e-02) (34, 1.89406070858240127563e-02) (35, 9.08141434192657470703e-02) (36, 2.94385224580764770508e-01) (37, 2.78480708599090576172e-01) (38, 3.86291176080703735352e-01) (39, 3.67078095674514770508e-01) (40, -1.68817341327667236328e-01) (41, 9.10791829228401184082e-02) (42, -1.86682008206844329834e-02) (43, -6.44434913992881774902e-02) (44, 1.12908102571964263916e-01) (45, 5.93989789485931396484e-02) (46, 3.28334242105484008789e-01) (47, 2.73606687784194946289e-01) (48, -1.22372426092624664307e-01) (49, -1.51102364063262939453e-01) (50, -2.22859606146812438965e-01) (51, -7.83553421497344970703e-02) (52, 1.33447617292404174805e-01) (53, 1.67633309960365295410e-01) (54, 1.26672059297561645508e-01) (55, 1.26757293939590454102e-01) (56, -3.02237600088119506836e-01) (57, -2.07913920283317565918e-01) (58, -1.18800379335880279541e-01) (59, 5.11031076312065124512e-02) (60, 2.08622515201568603516e-02) (61, 8.75867679715156555176e-02) (62, -2.51421257853507995605e-02) (63, 1.34760558605194091797e-01) (64, 9.21792089939117431641e-02) (0, -9.19018536806106567383e-02) (1, 3.76668184995651245117e-01) (2, -2.18708202242851257324e-01) (3, 1.75987154245376586914e-01) (4, 3.66701073944568634033e-02) (5, -3.00853401422500610352e-01) (6, 1.25214129686355590820e-01) (7, -2.80299097299575805664e-01) (8, 5.22649705410003662109e-01) (9, 3.78194093704223632812e-01) (10, 1.58110395073890686035e-01) (11, 2.05688431859016418457e-01) (12, 3.65487992763519287109e-01) (13, 2.04359561204910278320e-01) (14, 3.17978024482727050781e-01) (15, -6.34108260273933410645e-02) (16, 3.91446724534034729004e-02) (17, 6.04396909475326538086e-02) (18, 2.47098356485366821289e-02) (19, 1.34787321090698242188e-01) (20, 5.06439246237277984619e-02) (21, 2.12159305810928344727e-01) (22, 2.38845273852348327637e-01) (23, 6.21815510094165802002e-02) (24, -4.57964316010475158691e-02) (25, 3.09192776679992675781e-01) (26, 2.55963295698165893555e-01) (27, -7.46359527111053466797e-02) (28, -1.11547470092773437500e-01) (29, 2.53812015056610107422e-01) (30, 6.30431398749351501465e-02) (31, 1.38927817344665527344e-01) (32, 2.64478892087936401367e-01) (33, 1.80319920182228088379e-01) (34, 1.45219683647155761719e-01) (35, 1.34756892919540405273e-01) (36, 1.72639802098274230957e-01) (37, -1.01678133010864257812e-01) (38, 1.66447892785072326660e-01) (39, -2.77083665132522583008e-02) (40, 1.95668607950210571289e-01) (41, 3.27183187007904052734e-01) (42, -5.12127354741096496582e-02) (43, -2.39367738366127014160e-01) (44, 7.21231400966644287109e-02) (45, 1.92023053765296936035e-01) (46, -6.02450817823410034180e-02) (47, 4.93310578167438507080e-02) (48, 5.31924888491630554199e-02) (49, -6.48225694894790649414e-02) (50, -2.71172136068344116211e-01) (51, 3.01412325352430343628e-02) (52, -2.10833758115768432617e-01) (53, 3.25804948806762695312e-01) (54, 1.53629124164581298828e-01) (55, 1.25151813030242919922e-01) (56, 5.61674199998378753662e-02) (57, -7.46245235204696655273e-02) (58, 1.04761488735675811768e-01) (59, 8.85560512542724609375e-02) (60, 1.29061102867126464844e-01) (61, -3.25221598148345947266e-01) (62, -5.83923339843750000000e-01) (63, 3.05203534662723541260e-02) (64, 1.97417467832565307617e-01) (0, 1.21381469070911407471e-01) (1, 2.37137809395790100098e-01) (2, 3.89928855001926422119e-02) (3, 1.79501503705978393555e-01) (4, -1.00383274257183074951e-01) (5, -1.04392610490322113037e-01) (6, -1.87737256288528442383e-01) (7, -1.00333988666534423828e-01) (8, -1.06874734163284301758e-01) (9, -8.73072296380996704102e-02) (10, -3.04057359695434570312e-01) (11, -1.69900953769683837891e-01) (12, -2.23455369472503662109e-01) (13, -8.83906800299882888794e-03) (14, -1.11846797168254852295e-01) (15, -2.67435982823371887207e-02) (16, -1.33763909339904785156e-01) (17, -1.44413739442825317383e-01) (18, -1.36855095624923706055e-01) (19, -1.47027701139450073242e-01) (20, -2.56332159042358398438e-02) (21, -1.20224453508853912354e-01) (22, -1.41154780983924865723e-01) (23, -4.91929352283477783203e-02) (24, -2.14823901653289794922e-01) (25, 1.55336976051330566406e-01) (26, 6.76718875765800476074e-02) (27, 2.39766821265220642090e-01) (28, -1.51840090751647949219e-01) (29, -3.40536087751388549805e-02) (30, -8.56866016983985900879e-02) (31, -1.05287671089172363281e-01) (32, 7.24532231688499450684e-02) (33, -4.76301014423370361328e-02) (34, 9.98484417796134948730e-02) (35, 3.66088412702083587646e-02) (36, 4.69224639236927032471e-02) (37, 2.38160058856010437012e-01) (38, 7.99900293350219726562e-02) (39, -2.21676915884017944336e-01) (40, 9.09865275025367736816e-03) (41, -1.06140982825309038162e-03) (42, 1.48888766765594482422e-01) (43, 2.03243210911750793457e-01) (44, 7.98070356249809265137e-02) (45, -8.28658640384674072266e-02) (46, 1.86300098896026611328e-01) (47, 8.05882588028907775879e-02) (48, -1.24919295310974121094e-01) (49, -1.67849868535995483398e-01) (50, 1.18728016968816518784e-03) (51, -9.52920224517583847046e-03) (52, 1.03577904403209686279e-01) (53, -1.78040713071823120117e-01) (54, -9.36394855380058288574e-02) (55, 1.12538374960422515869e-01) (56, -1.96169912815093994141e-01) (57, -1.36650577187538146973e-01) (58, 1.83237165212631225586e-01) (59, 1.18732757866382598877e-01) (60, -2.65903174877166748047e-01) (61, -1.07215546071529388428e-01) (62, -4.45300154387950897217e-02) (63, -2.05619130283594131470e-02) (64, -7.28812456130981445312e-01) (0, -1.14852294325828552246e-01) (1, 9.49560105800628662109e-02) (2, 2.56391525268554687500e-01) (3, 4.67875599861145019531e-02) (4, 2.38899022340774536133e-01) (5, 4.13858979940414428711e-01) (6, 9.83051434159278869629e-02) (7, 4.11668002605438232422e-01) (8, 2.64295432716608047485e-02) (9, 4.25316058099269866943e-02) (10, 6.20637908577919006348e-02) (11, 1.90314024686813354492e-01) (12, -2.92139559984207153320e-01) (13, -7.41196423768997192383e-02) (14, 6.92478567361831665039e-03) (15, 5.41938304901123046875e-01) (16, 1.48612827062606811523e-01) (17, 6.00759804248809814453e-01) (18, 4.83040422201156616211e-01) (19, 7.66286477446556091309e-02) (20, 1.43665805459022521973e-01) (21, 3.24148684740066528320e-02) (22, -1.89584746956825256348e-01) (23, 6.23504996299743652344e-01) (24, 5.71609020233154296875e-01) (25, -2.93044764548540115356e-02) (26, 2.50710189342498779297e-01) (27, 5.26313841342926025391e-01) (28, 6.18931949138641357422e-01) (29, 1.68677523732185363770e-01) (30, 1.73860803246498107910e-01) (31, 1.31826296448707580566e-01) (32, 1.26434102654457092285e-01) (33, 2.68872588872909545898e-01) (34, 1.04871776420623064041e-03) (35, 2.25811079144477844238e-01) (36, -6.14502839744091033936e-03) (37, 2.37355068325996398926e-01) (38, 5.42959868907928466797e-02) (39, -1.90407782793045043945e-01) (40, 8.63285064697265625000e-02) (41, 1.71391621232032775879e-01) (42, 7.77212530374526977539e-02) (43, -3.37222427129745483398e-01) (44, 5.00748455524444580078e-02) (45, -1.90745815634727478027e-01) (46, 5.80298760905861854553e-03) (47, -2.85571459680795669556e-02) (48, 5.77623903751373291016e-01) (49, 6.15552544593811035156e-01) (50, -3.25054721906781196594e-03) (51, 1.79875969886779785156e-01) (52, 5.84823131561279296875e-01) (53, 4.07403349876403808594e-01) (54, 1.36553838849067687988e-01) (55, 4.04336377978324890137e-02) (56, 4.48942244052886962891e-01) (57, 2.72759586572647094727e-01) (58, 8.66375043988227844238e-02) (59, 2.08212807774543762207e-01) (60, 4.70583617687225341797e-01) (61, 7.80784934759140014648e-02) (62, -1.73431888222694396973e-01) (63, 3.58126699924468994141e-01) (64, 7.40833342075347900391e-01) (0, -6.44025281071662902832e-02) (1, 1.57200515270233154297e-01) (2, 1.34363576769828796387e-01) (3, -2.51358114182949066162e-02) (4, -1.35826542973518371582e-01) (5, 3.61155532300472259521e-02) (6, -1.30063965916633605957e-01) (7, 1.57168522477149963379e-01) (8, -2.21535623073577880859e-01) (9, -4.45694476366043090820e-02) (10, 2.88435190916061401367e-01) (11, -1.34710922837257385254e-01) (12, -9.76755768060684204102e-02) (13, -6.76093297079205513000e-03) (14, -3.03088203072547912598e-02) (15, 1.85108751058578491211e-01) (16, 1.59399166703224182129e-01) (17, 4.22849506139755249023e-02) (18, 5.20716756582260131836e-02) (19, -1.86462886631488800049e-02) (20, 1.15590013563632965088e-01) (21, 1.25833615660667419434e-01) (22, 7.76144489645957946777e-02) (23, 1.96705192327499389648e-01) (24, 2.52525478601455688477e-01) (25, -5.59374280273914337158e-02) (26, -1.29660397768020629883e-01) (27, 2.12500661611557006836e-01) (28, -1.09023325145244598389e-01) (29, 2.94199446216225624084e-03) (30, 7.98103660345077514648e-02) (31, -2.94402223080396652222e-02) (32, -4.24856357276439666748e-02) (33, 1.64638623595237731934e-01) (34, -3.26472558081150054932e-02) (35, 1.37034747749567031860e-02) (36, -7.64006674289703369141e-02) (37, 4.55431789159774780273e-02) (38, -1.21933922171592712402e-01) (39, -1.21493814513087272644e-02) (40, -3.59965004026889801025e-02) (41, -1.41525074839591979980e-01) (42, -2.95459385961294174194e-02) (43, 5.32524250447750091553e-02) (44, -3.58208119869232177734e-02) (45, 7.24845007061958312988e-03) (46, -2.55976151674985885620e-02) (47, -8.44295248389244079590e-02) (48, 2.67565678805112838745e-02) (49, 2.12563514709472656250e-01) (50, 1.00522199645638465881e-02) (51, 1.14579289220273494720e-03) (52, -1.43655583262443542480e-01) (53, -2.90969442576169967651e-02) (54, -1.25518590211868286133e-01) (55, -6.44599273800849914551e-02) (56, 3.49555350840091705322e-02) (57, -1.41911923885345458984e-01) (58, -2.78597980737686157227e-01) (59, -4.29215371608734130859e-01) (60, -7.40103796124458312988e-02) (61, -2.47464366257190704346e-02) (62, -2.08689138293266296387e-01) (63, -1.80622428655624389648e-01) (64, -2.30049088597297668457e-01) (0, -9.47187617421150207520e-02) (1, 4.14503604173660278320e-01) (2, -1.66876375675201416016e-01) (3, 2.74201601743698120117e-01) (4, -6.29994645714759826660e-02) (5, -1.59796457737684249878e-02) (6, -7.45732430368661880493e-03) (7, -1.16256974637508392334e-01) (8, 3.39672297239303588867e-01) (9, 1.25681385397911071777e-01) (10, 3.61230224370956420898e-01) (11, 5.63430301845073699951e-02) (12, 2.04530522227287292480e-01) (13, 2.13042363524436950684e-01) (14, 1.88577383756637573242e-01) (15, 9.35796648263931274414e-02) (16, 3.50802183151245117188e-01) (17, -2.15427260845899581909e-02) (18, -5.14516942203044891357e-02) (19, 7.70880058407783508301e-02) (20, 1.16083577275276184082e-01) (21, 2.20398828387260437012e-01) (22, 1.99817001819610595703e-01) (23, 8.08969289064407348633e-02) (24, -3.09525360353291034698e-03) (25, 2.97642141580581665039e-01) (26, 2.22193956375122070312e-01) (27, 1.80053099989891052246e-01) (28, -1.25795736908912658691e-01) (29, 2.48941570520401000977e-01) (30, 1.31412401795387268066e-01) (31, -1.15439310669898986816e-01) (32, 1.78160637617111206055e-01) (33, 2.55242973566055297852e-01) (34, 1.84818074107170104980e-01) (35, 7.71089568734169006348e-02) (36, 1.58486828207969665527e-01) (37, -2.78773214668035507202e-02) (38, 1.72617316246032714844e-01) (39, 7.71904140710830688477e-02) (40, 1.26515686511993408203e-01) (41, 3.48374903202056884766e-01) (42, 1.46648019552230834961e-01) (43, -8.40628519654273986816e-04) (44, 1.07488453388214111328e-01) (45, 1.51843816041946411133e-01) (46, 2.79115647077560424805e-01) (47, 5.16662821173667907715e-02) (48, 2.46884018182754516602e-01) (49, 2.73073643445968627930e-01) (50, -6.66781663894653320312e-02) (51, 1.93438023328781127930e-01) (52, 7.33612701296806335449e-02) (53, 2.58127838373184204102e-01) (54, 1.81251466274261474609e-01) (55, 2.76186883449554443359e-01) (56, 2.73413956165313720703e-01) (57, 1.53356408700346946716e-02) (58, 1.89592152833938598633e-01) (59, 2.56303131580352783203e-01) (60, 1.51059791445732116699e-01) (61, 1.72666907310485839844e-01) (62, -2.09843426942825317383e-01) (63, 1.35555833578109741211e-01) (64, 4.36203837394714355469e-01) (0, -1.82397793978452682495e-02) (1, 3.43262523412704467773e-01) (2, -1.14652283489704132080e-01) (3, 1.88904583454132080078e-01) (4, -8.77197533845901489258e-02) (5, 1.90623737871646881104e-02) (6, -5.24759814143180847168e-02) (7, -9.01231467723846435547e-02) (8, 2.80205994844436645508e-01) (9, 5.26637732982635498047e-02) (10, 3.09387385845184326172e-01) (11, 1.72124598175287246704e-02) (12, 1.08365841209888458252e-01) (13, 1.52664706110954284668e-01) (14, 1.69646799564361572266e-01) (15, 9.18295681476593017578e-02) (16, 3.14158707857131958008e-01) (17, -2.48194066807627677917e-03) (18, -1.26421209424734115601e-02) (19, 8.38965475559234619141e-02) (20, 1.07936851680278778076e-01) (21, 1.22883044183254241943e-01) (22, 1.25636994838714599609e-01) (23, 5.48084601759910583496e-02) (24, 2.47309878468513488770e-02) (25, 2.26101264357566833496e-01) (26, 1.43115952610969543457e-01) (27, 1.52859643101692199707e-01) (28, -7.03181028366088867188e-02) (29, 1.78735777735710144043e-01) (30, 1.04740947484970092773e-01) (31, -9.17799770832061767578e-02) (32, 1.42848044633865356445e-01) (33, 1.86229437589645385742e-01) (34, 1.60280391573905944824e-01) (35, 4.16946746408939361572e-02) (36, 1.34265393018722534180e-01) (37, 4.09348905086517333984e-02) (38, 9.10685136914253234863e-02) (39, 6.54100179672241210938e-02) (40, 8.56591984629631042480e-02) (41, 2.54705160856246948242e-01) (42, 1.09563112258911132812e-01) (43, 4.92490455508232116699e-02) (44, 8.24109315872192382812e-02) (45, 8.96084681153297424316e-02) (46, 2.23128035664558410645e-01) (47, -1.38330142945051193237e-02) (48, 1.46531239151954650879e-01) (49, 1.69507950544357299805e-01) (50, -6.83398097753524780273e-02) (51, 1.48017421364784240723e-01) (52, 7.09978118538856506348e-02) (53, 1.58000260591506958008e-01) (54, 1.05920828878879547119e-01) (55, 2.12674722075462341309e-01) (56, 1.79536581039428710938e-01) (57, 1.76197569817304611206e-02) (58, 8.89197066426277160645e-02) (59, 2.30697408318519592285e-01) (60, 1.05908758938312530518e-01) (61, 1.07927821576595306396e-01) (62, -1.66249588131904602051e-01) (63, 7.33860433101654052734e-02) (64, 8.62477838993072509766e-01) (0, -1.16389431059360504150e-01) (1, 6.39783516526222229004e-02) (2, 2.14373216032981872559e-01) (3, 3.12430951744318008423e-02) (4, 2.10069924592971801758e-01) (5, 3.62712055444717407227e-01) (6, 8.50004553794860839844e-02) (7, 3.45402687788009643555e-01) (8, 2.82158106565475463867e-02) (9, 4.38577383756637573242e-02) (10, 5.01413643360137939453e-02) (11, 1.84911459684371948242e-01) (12, -2.54431158304214477539e-01) (13, -8.12771990895271301270e-02) (14, 9.85567574389278888702e-04) (15, 4.72603201866149902344e-01) (16, 1.48674756288528442383e-01) (17, 5.39323866367340087891e-01) (18, 4.49135094881057739258e-01) (19, 8.35654139518737792969e-02) (20, 1.33569672703742980957e-01) (21, 3.75044196844100952148e-02) (22, -1.74505442380905151367e-01) (23, 5.39325773715972900391e-01) (24, 4.90959703922271728516e-01) (25, -4.37571406364440917969e-02) (26, 2.22997471690177917480e-01) (27, 4.43852543830871582031e-01) (28, 5.79800069332122802734e-01) (29, 1.53287991881370544434e-01) (30, 1.56218156218528747559e-01) (31, 1.27478316426277160645e-01) (32, 1.15493170917034149170e-01) (33, 2.30043262243270874023e-01) (34, 4.43609198555350303650e-03) (35, 2.04184234142303466797e-01) (36, -1.38121843338012695312e-02) (37, 2.01823085546493530273e-01) (38, 6.61601200699806213379e-02) (39, -1.56552597880363464355e-01) (40, 6.92718923091888427734e-02) (41, 1.52409866452217102051e-01) (42, 6.10625930130481719971e-02) (43, -3.20875018835067749023e-01) (44, 2.60840300470590591431e-02) (45, -1.63906067609786987305e-01) (46, 1.41212157905101776123e-03) (47, -3.48696932196617126465e-02) (48, 5.11851549148559570312e-01) (49, 5.43067336082458496094e-01) (50, -1.43887735903263092041e-02) (51, 1.48212239146232604980e-01) (52, 5.14381766319274902344e-01) (53, 3.46959352493286132812e-01) (54, 1.15690678358078002930e-01) (55, 1.65567807853221893311e-02) (56, 4.02320057153701782227e-01) (57, 2.36498326063156127930e-01) (58, 7.52099081873893737793e-02) (59, 1.76577717065811157227e-01) (60, 4.16430681943893432617e-01) (61, 6.44119083881378173828e-02) (62, -1.55723527073860168457e-01) (63, 3.11239749193191528320e-01) (64, 7.66199707984924316406e-01) (0, -7.05152824521064758301e-02) (1, -2.22110196948051452637e-01) (2, -3.48976813256740570068e-02) (3, -1.66691899299621582031e-01) (4, 9.16646048426628112793e-02) (5, 7.19591900706291198730e-02) (6, 1.55286848545074462891e-01) (7, 5.60780167579650878906e-02) (8, 9.12716910243034362793e-02) (9, 9.20573770999908447266e-02) (10, 2.67844378948211669922e-01) (11, 1.53103545308113098145e-01) (12, 1.92954361438751220703e-01) (13, -5.85324456915259361267e-03) (14, 9.25071537494659423828e-02) (15, -1.63069870322942733765e-02) (16, 1.22231781482696533203e-01) (17, 1.16975173354148864746e-01) (18, 1.14933282136917114258e-01) (19, 1.39685332775115966797e-01) (20, 1.21532715857028961182e-02) (21, 9.74443331360816955566e-02) (22, 1.32676422595977783203e-01) (23, 4.56274813041090965271e-03) (24, 2.05707386136054992676e-01) (25, -1.19645923376083374023e-01) (26, -6.89579695463180541992e-02) (27, -2.28158265352249145508e-01) (28, 1.27443537116050720215e-01) (29, 2.31249425560235977173e-02) (30, 6.15057349205017089844e-02) (31, 9.67112332582473754883e-02) (32, -6.58426880836486816406e-02) (33, 5.44254668056964874268e-02) (34, -6.71276673674583435059e-02) (35, -1.01458188146352767944e-02) (36, -1.89555063843727111816e-02) (37, -2.03996852040290832520e-01) (38, -5.76437190175056457520e-02) (39, 1.96701541543006896973e-01) (40, -8.12086835503578186035e-03) (41, 3.06179821491241455078e-02) (42, -1.11929900944232940674e-01) (43, -1.50936469435691833496e-01) (44, -6.66088834404945373535e-02) (45, 1.03057980537414550781e-01) (46, -1.61552622914314270020e-01) (47, -4.36266548931598663330e-02) (48, 9.14460644125938415527e-02) (49, 1.39862746000289916992e-01) (50, 2.02399659901857376099e-02) (51, 1.25056691467761993408e-02) (52, -1.30190268158912658691e-01) (53, 1.35396912693977355957e-01) (54, 8.55926796793937683105e-02) (55, -9.27719771862030029297e-02) (56, 1.87187850475311279297e-01) (57, 1.36534959077835083008e-01) (58, -1.59945026040077209473e-01) (59, -1.26566246151924133301e-01) (60, 2.27156773209571838379e-01) (61, 8.72332751750946044922e-02) (62, 4.39188927412033081055e-02) (63, -1.52595005929470062256e-02) (64, 1.49784421920776367188e+00) (0, 8.76490473747253417969e-02) (1, 2.21077781170606613159e-02) (2, 6.69919773936271667480e-02) (3, -6.64205029606819152832e-02) (4, -6.57908758148550987244e-03) (5, 3.11539173126220703125e-02) (6, -4.31815944612026214600e-02) (7, -4.01824191212654113770e-02) (8, -1.74620784819126129150e-02) (9, 7.10590705275535583496e-02) (10, 4.07859720289707183838e-02) (11, 2.09642145782709121704e-02) (12, -3.88415623456239700317e-03) (13, 8.09613429009914398193e-03) (14, -4.14402261376380920410e-02) (15, -3.17351557314395904541e-02) (16, -9.66259685810655355453e-04) (17, 1.21939696371555328369e-01) (18, 5.29973879456520080566e-02) (19, -3.45438085496425628662e-02) (20, 1.21775325387716293335e-02) (21, 1.60947944968938827515e-02) (22, -9.75930020213127136230e-02) (23, -9.90054477006196975708e-03) (24, 1.82533591985702514648e-01) (25, 5.00423014163970947266e-02) (26, 7.45728760957717895508e-02) (27, 5.32991290092468261719e-02) (28, -2.58748698979616165161e-02) (29, -1.06787560507655143738e-02) (30, 9.88865271210670471191e-03) (31, -6.18598312139511108398e-02) (32, 8.31975340843200683594e-02) (33, 6.37067779898643493652e-02) (34, -6.28346055746078491211e-02) (35, -4.12342324852943420410e-03) (36, 5.93230128288269042969e-02) (37, 3.72598841786384582520e-02) (38, -8.07774811983108520508e-02) (39, -5.59924058616161346436e-02) (40, 9.69626456499099731445e-02) (41, 1.89930833876132965088e-02) (42, 6.84060230851173400879e-02) (43, 1.05049923062324523926e-01) (44, 5.65904378890991210938e-02) (45, -3.92535552382469177246e-02) (46, -3.04859839379787445068e-02) (47, 2.89237592369318008423e-02) (48, 1.03163361549377441406e-01) (49, 8.13707560300827026367e-02) (50, 1.59640625119209289551e-01) (51, 7.91713595390319824219e-02) (52, 4.95454221963882446289e-02) (53, 7.47078061103820800781e-02) (54, -6.32754340767860412598e-02) (55, -3.98294404149055480957e-02) (56, -2.50297388993203639984e-03) (57, 1.56011492013931274414e-01) (58, 9.82516556978225708008e-02) (59, 2.92882346548140048981e-03) (60, 1.28619596362113952637e-01) (61, 8.71570222079753875732e-03) (62, 8.18132422864437103271e-03) (63, 7.48084578663110733032e-03) (64, 1.75498485565185546875e+00) (65, 2.06912130117416381836e-01) (66, -1.34439438581466674805e-01) (67, 4.35365922749042510986e-02) (68, 3.76701891422271728516e-01) (69, -1.70431435108184814453e-01) (70, 5.06159886717796325684e-02) (71, 2.38690525293350219727e-02) (72, -5.24020791053771972656e-02) (73, 5.95378816127777099609e-01) (74, -3.41097414493560791016e-01) (75, -1.40464246273040771484e-01) (76, 3.84783446788787841797e-01) (77, -3.42313975095748901367e-01) (78, 4.06714498996734619141e-01) (79, 5.95829427242279052734e-01) (80, 1.85964375734329223633e-01) (81, -1.95934772491455078125e-01) (65, 6.95918351411819458008e-02) (66, 1.16597197949886322021e-01) (67, 1.90189089626073837280e-02) (68, -2.31093894690275192261e-02) (69, 9.89353209733963012695e-02) (70, -6.45299404859542846680e-02) (71, -1.70150309801101684570e-01) (72, 1.12727090716361999512e-01) (73, 3.37871551513671875000e-01) (74, -3.85876178741455078125e-01) (75, 2.93476700782775878906e-01) (76, -1.75301313400268554688e-01) (77, 2.03491434454917907715e-01) (78, 5.01327574253082275391e-01) (79, 3.78357648849487304688e-01) (80, 3.56089204549789428711e-01) (81, -4.55865472555160522461e-01) (65, 2.35699340701103210449e-01) (66, 5.76004423201084136963e-02) (67, -3.88699844479560852051e-02) (68, 4.71977800130844116211e-01) (69, 5.73640353977680206299e-02) (70, 1.79253175854682922363e-01) (71, 3.21683846414089202881e-02) (72, 1.63762196898460388184e-01) (73, 2.56260424852371215820e-01) (74, -3.44542898237705230713e-02) (75, 4.30808842182159423828e-01) (76, -2.13036894798278808594e-01) (77, -1.04384087026119232178e-02) (78, 1.16191722452640533447e-01) (79, -6.14128727465867996216e-03) (80, -2.55357742309570312500e-01) (81, 4.21719759702682495117e-01) (65, 5.56953959167003631592e-02) (66, -2.61751096695661544800e-02) (67, -5.05078658461570739746e-02) (68, 3.34511071443557739258e-01) (69, 4.84281219542026519775e-02) (70, 2.51338273286819458008e-01) (71, -9.97626706957817077637e-02) (72, -5.30533604323863983154e-02) (73, -1.87660336494445800781e-01) (74, 3.50081443786621093750e-01) (75, -5.23416399955749511719e-02) (76, 1.36366307735443115234e-01) (77, -1.50996640324592590332e-01) (78, -3.45893859863281250000e-01) (79, -2.69260466098785400391e-01) (80, -1.65863022208213806152e-01) (81, 3.45506906509399414062e-01) 
