FANN_FLO_2.1
num_layers=3
learning_rate=0.200000
connection_rate=1.000000
network_type=0
learning_momentum=0.000000
training_algorithm=2
train_error_function=1
train_stop_function=0
cascade_output_change_fraction=0.010000
quickprop_decay=-0.000100
quickprop_mu=1.750000
rprop_increase_factor=1.200000
rprop_decrease_factor=0.500000
rprop_delta_min=0.000000
rprop_delta_max=50.000000
rprop_delta_zero=0.100000
cascade_output_stagnation_epochs=12
cascade_candidate_change_fraction=0.010000
cascade_candidate_stagnation_epochs=12
cascade_max_out_epochs=150
cascade_min_out_epochs=50
cascade_max_cand_epochs=150
cascade_min_cand_epochs=50
cascade_num_candidate_groups=2
bit_fail_limit=3.49999994039535522461e-01
cascade_candidate_limit=1.00000000000000000000e+03
cascade_weight_multiplier=4.00000005960464477539e-01
cascade_activation_functions_count=10
cascade_activation_functions=3 5 7 8 10 11 14 15 16 17 
cascade_activation_steepnesses_count=4
cascade_activation_steepnesses=2.50000000000000000000e-01 5.00000000000000000000e-01 7.50000000000000000000e-01 1.00000000000000000000e+00 
layer_sizes=785 16 11 
scale_included=0
neurons (num_inputs, activation_function, activation_steepness)=(0, 0, 0.00000000000000000000e+00) (0, 0, 0.00000000000000000000e+00) (0, 0, 0.00000000000000000000e+00) (0, 0, 0.00000000000000000000e+00) (0, 0, 0.00000000000000000000e+00) (0, 0, 0.00000000000000000000e+00) (0, 0, 0.00000000000000000000e+00) (0, 0, 0.00000000000000000000e+00) (0, 0, 0.00000000000000000000e+00) (0, 0, 0.00000000000000000000e+00) (0, 0, 0.00000000000000000000e+00) (0, 0, 0.00000000000000000000e+00) (0, 0, 0.00000000000000000000e+00) (0, 0, 0.00000000000000000000e+00) (0, 0, 0.00000000000000000000e+00) (0, 0, 0.00000000000000000000e+00) (0, 0, 0.00000000000000000000e+00) (0, 0, 0.00000000000000000000e+00) (0, 0, 0.00000000000000000000e+00) (0, 0, 0.00000000000000000000e+00) (0, 0, 0.00000000000000000000e+00) (0, 0, 0.00000000000000000000e+00) (0, 0, 0.00000000000000000000e+00) (0, 0, 0.00000000000000000000e+00) (0, 0, 0.00000000000000000000e+00) (0, 0, 0.00000000000000000000e+00) (0, 0, 0.00000000000000000000e+00) (0, 0, 0.00000000000000000000e+00) (0, 0, 0.00000000000000000000e+00) (0, 0, 0.00000000000000000000e+00) (0, 0, 0.00000000000000000000e+00) (0, 0, 0.00000000000000000000e+00) (0, 0, 0.00000000000000000000e+00) (0, 0, 0.00000000000000000000e+00) (0, 0, 0.00000000000000000000e+00) (0, 0, 0.00000000000000000000e+00) (0, 0, 0.00000000000000000000e+00) (0, 0, 0.00000000000000000000e+00) (0, 0, 0.00000000000000000000e+00) (0, 0, 0.00000000000000000000e+00) (0, 0, 0.00000000000000000000e+00) (0, 0, 0.00000000000000000000e+00) (0, 0, 0.00000000000000000000e+00) (0, 0, 0.00000000000000000000e+00) (0, 0, 0.00000000000000000000e+00) (0, 0, 0.00000000000000000000e+00) (0, 0, 0.00000000000000000000e+00) (0, 0, 0.00000000000000000000e+00) (0, 0, 0.00000000000000000000e+00) (0, 0, 0.00000000000000000000e+00) (0, 0, 0.00000000000000000000e+00) (0, 0, 0.00000000000000000000e+00) (0, 0, 0.00000000000000000000e+00) (0, 0, 0.00000000000000000000e+00) (0, 0, 0.00000000000000000000e+00) (0, 0, 0.00000000000000000000e+00) (0, 0, 0.00000000000000000000e+00) (0, 0, 0.00000000000000000000e+00) (0, 0, 0.00000000000000000000e+00) (0, 0, 0.00000000000000000000e+00) (0, 0, 0.00000000000000000000e+00) (0, 0, 0.00000000000000000000e+00) (0, 0, 0.00000000000000000000e+00) (0, 0, 0.00000000000000000000e+00) (0, 0, 0.00000000000000000000e+00) (0, 0, 0.00000000000000000000e+00) (0, 0, 0.00000000000000000000e+00) (0, 0, 0.00000000000000000000e+00) (0, 0, 0.00000000000000000000e+00) (0, 0, 0.00000000000000000000e+00) (0, 0, 0.00000000000000000000e+00) (0, 0, 0.00000000000000000000e+00) (0, 0, 0.00000000000000000000e+00) (0, 0, 0.00000000000000000000e+00) (0, 0, 0.00000000000000000000e+00) (0, 0, 0.00000000000000000000e+00) (0, 0, 0.00000000000000000000e+00) (0, 0, 0.00000000000000000000e+00) (0, 0, 0.00000000000000000000e+00) (0, 0, 0.00000000000000000000e+00) (0, 0, 0.00000000000000000000e+00) (0, 0, 0.00000000000000000000e+00) (0, 0, 0.00000000000000000000e+00) (0, 0, 0.00000000000000000000e+00) (0, 0, 0.00000000000000000000e+00) (0, 0, 0.00000000000000000000e+00) (0, 0, 0.00000000000000000000e+00) (0, 0, 0.00000000000000000000e+00) (0, 0, 0.00000000000000000000e+00) (0, 0, 0.00000000000000000000e+00) (0, 0, 0.00000000000000000000e+00) (0, 0, 0.00000000000000000000e+00) (0, 0, 0.00000000000000000000e+00) (0, 0, 0.00000000000000000000e+00) (0, 0, 0.00000000000000000000e+00) (0, 0, 0.00000000000000000000e+00) (0, 0, 0.00000000000000000000e+00) (0, 0, 0.00000000000000000000e+00) (0, 0, 0.00000000000000000000e+00) (0, 0, 0.00000000000000000000e+00) (0, 0, 0.00000000000000000000e+00) (0, 0, 0.00000000000000000000e+00) (0, 0, 0.00000000000000000000e+00) (0, 0, 0.00000000000000000000e+00) (0, 0, 0.00000000000000000000e+00) (0, 0, 0.00000000000000000000e+00) (0, 0, 0.00000000000000000000e+00) (0, 0, 0.00000000000000000000e+00) (0, 0, 0.00000000000000000000e+00) (0, 0, 0.00000000000000000000e+00) (0, 0, 0.00000000000000000000e+00) (0, 0, 0.00000000000000000000e+00) (0, 0, 0.00000000000000000000e+00) (0, 0, 0.00000000000000000000e+00) (0, 0, 0.00000000000000000000e+00) (0, 0, 0.00000000000000000000e+00) (0, 0, 0.00000000000000000000e+00) (0, 0, 0.00000000000000000000e+00) (0, 0, 0.00000000000000000000e+00) (0, 0, 0.00000000000000000000e+00) (0, 0, 0.00000000000000000000e+00) (0, 0, 0.00000000000000000000e+00) (0, 0, 0.00000000000000000000e+00) (0, 0, 0.00000000000000000000e+00) (0, 0, 0.00000000000000000000e+00) (0, 0, 0.00000000000000000000e+00) (0, 0, 0.00000000000000000000e+00) (0, 0, 0.00000000000000000000e+00) (0, 0, 0.00000000000000000000e+00) (0, 0, 0.00000000000000000000e+00) (0, 0, 0.00000000000000000000e+00) (0, 0, 0.00000000000000000000e+00) (0, 0, 0.00000000000000000000e+00) (0, 0, 0.00000000000000000000e+00) (0, 0, 0.00000000000000000000e+00) (0, 0, 0.00000000000000000000e+00) (0, 0, 0.00000000000000000000e+00) (0, 0, 0.00000000000000000000e+00) (0, 0, 0.00000000000000000000e+00) (0, 0, 0.00000000000000000000e+00) (0, 0, 0.00000000000000000000e+00) (0, 0, 0.00000000000000000000e+00) (0, 0, 0.00000000000000000000e+00) (0, 0, 0.00000000000000000000e+00) (0, 0, 0.00000000000000000000e+00) (0, 0, 0.00000000000000000000e+00) (0, 0, 0.00000000000000000000e+00) (0, 0, 0.00000000000000000000e+00) (0, 0, 0.00000000000000000000e+00) (0, 0, 0.00000000000000000000e+00) (0, 0, 0.00000000000000000000e+00) (0, 0, 0.00000000000000000000e+00) (0, 0, 0.00000000000000000000e+00) (0, 0, 0.00000000000000000000e+00) (0, 0, 0.00000000000000000000e+00) (0, 0, 0.00000000000000000000e+00) (0, 0, 0.00000000000000000000e+00) (0, 0, 0.00000000000000000000e+00) (0, 0, 0.00000000000000000000e+00) (0, 0, 0.00000000000000000000e+00) (0, 0, 0.00000000000000000000e+00) (0, 0, 0.00000000000000000000e+00) (0, 0, 0.00000000000000000000e+00) (0, 0, 0.00000000000000000000e+00) (0, 0, 0.00000000000000000000e+00) (0, 0, 0.00000000000000000000e+00) (0, 0, 0.00000000000000000000e+00) (0, 0, 0.00000000000000000000e+00) (0, 0, 0.00000000000000000000e+00) (0, 0, 0.00000000000000000000e+00) (0, 0, 0.00000000000000000000e+00) (0, 0, 0.00000000000000000000e+00) (0, 0, 0.00000000000000000000e+00) (0, 0, 0.00000000000000000000e+00) (0, 0, 0.00000000000000000000e+00) (0, 0, 0.00000000000000000000e+00) (0, 0, 0.00000000000000000000e+00) (0, 0, 0.00000000000000000000e+00) (0, 0, 0.00000000000000000000e+00) (0, 0, 0.00000000000000000000e+00) (0, 0, 0.00000000000000000000e+00) (0, 0, 0.00000000000000000000e+00) (0, 0, 0.00000000000000000000e+00) (0, 0, 0.00000000000000000000e+00) (0, 0, 0.00000000000000000000e+00) (0, 0, 0.00000000000000000000e+00) (0, 0, 0.00000000000000000000e+00) (0, 0, 0.00000000000000000000e+00) (0, 0, 0.00000000000000000000e+00) (0, 0, 0.00000000000000000000e+00) (0, 0, 0.00000000000000000000e+00) (0, 0, 0.00000000000000000000e+00) (0, 0, 0.00000000000000000000e+00) (0, 0, 0.00000000000000000000e+00) (0, 0, 0.00000000000000000000e+00) (0, 0, 0.00000000000000000000e+00) (0, 0, 0.00000000000000000000e+00) (0, 0, 0.00000000000000000000e+00) (0, 0, 0.00000000000000000000e+00) (0, 0, 0.00000000000000000000e+00) (0, 0, 0.00000000000000000000e+00) (0, 0, 0.00000000000000000000e+00) (0, 0, 0.00000000000000000000e+00) (0, 0, 0.00000000000000000000e+00) (0, 0, 0.00000000000000000000e+00) (0, 0, 0.00000000000000000000e+00) (0, 0, 0.00000000000000000000e+00) (0, 0, 0.00000000000000000000e+00) (0, 0, 0.00000000000000000000e+00) (0, 0, 0.00000000000000000000e+00) (0, 0, 0.00000000000000000000e+00) (0, 0, 0.00000000000000000000e+00) (0, 0, 0.00000000000000000000e+00) (0, 0, 0.00000000000000000000e+00) (0, 0, 0.00000000000000000000e+00) (0, 0, 0.00000000000000000000e+00) (0, 0, 0.00000000000000000000e+00) (0, 0, 0.00000000000000000000e+00) (0, 0, 0.00000000000000000000e+00) (0, 0, 0.00000000000000000000e+00) (0, 0, 0.00000000000000000000e+00) (0, 0, 0.00000000000000000000e+00) (0, 0, 0.00000000000000000000e+00) (0, 0, 0.00000000000000000000e+00) (0, 0, 0.00000000000000000000e+00) (0, 0, 0.00000000000000000000e+00) (0, 0, 0.00000000000000000000e+00) (0, 0, 0.00000000000000000000e+00) (0, 0, 0.00000000000000000000e+00) (0, 0, 0.00000000000000000000e+00) (0, 0, 0.00000000000000000000e+00) (0, 0, 0.00000000000000000000e+00) (0, 0, 0.00000000000000000000e+00) (0, 0, 0.00000000000000000000e+00) (0, 0, 0.00000000000000000000e+00) (0, 0, 0.00000000000000000000e+00) (0, 0, 0.00000000000000000000e+00) (0, 0, 0.00000000000000000000e+00) (0, 0, 0.00000000000000000000e+00) (0, 0, 0.00000000000000000000e+00) (0, 0, 0.00000000000000000000e+00) (0, 0, 0.00000000000000000000e+00) (0, 0, 0.00000000000000000000e+00) (0, 0, 0.00000000000000000000e+00) (0, 0, 0.00000000000000000000e+00) (0, 0, 0.00000000000000000000e+00) (0, 0, 0.00000000000000000000e+00) (0, 0, 0.00000000000000000000e+00) (0, 0, 0.00000000000000000000e+00) (0, 0, 0.00000000000000000000e+00) (0, 0, 0.00000000000000000000e+00) (0, 0, 0.00000000000000000000e+00) (0, 0, 0.00000000000000000000e+00) (0, 0, 0.00000000000000000000e+00) (0, 0, 0.00000000000000000000e+00) (0, 0, 0.00000000000000000000e+00) (0, 0, 0.00000000000000000000e+00) (0, 0, 0.00000000000000000000e+00) (0, 0, 0.00000000000000000000e+00) (0, 0, 0.00000000000000000000e+00) (0, 0, 0.00000000000000000000e+00) (0, 0, 0.00000000000000000000e+00) (0, 0, 0.00000000000000000000e+00) (0, 0, 0.00000000000000000000e+00) (0, 0, 0.00000000000000000000e+00) (0, 0, 0.00000000000000000000e+00) (0, 0, 0.00000000000000000000e+00) (0, 0, 0.00000000000000000000e+00) (0, 0, 0.00000000000000000000e+00) (0, 0, 0.00000000000000000000e+00) (0, 0, 0.00000000000000000000e+00) (0, 0, 0.00000000000000000000e+00) (0, 0, 0.00000000000000000000e+00) (0, 0, 0.00000000000000000000e+00) (0, 0, 0.00000000000000000000e+00) (0, 0, 0.00000000000000000000e+00) (0, 0, 0.00000000000000000000e+00) (0, 0, 0.00000000000000000000e+00) (0, 0, 0.00000000000000000000e+00) (0, 0, 0.00000000000000000000e+00) (0, 0, 0.00000000000000000000e+00) (0, 0, 0.00000000000000000000e+00) (0, 0, 0.00000000000000000000e+00) (0, 0, 0.00000000000000000000e+00) (0, 0, 0.00000000000000000000e+00) (0, 0, 0.00000000000000000000e+00) (0, 0, 0.00000000000000000000e+00) (0, 0, 0.00000000000000000000e+00) (0, 0, 0.00000000000000000000e+00) (0, 0, 0.00000000000000000000e+00) (0, 0, 0.00000000000000000000e+00) (0, 0, 0.00000000000000000000e+00) (0, 0, 0.00000000000000000000e+00) (0, 0, 0.00000000000000000000e+00) (0, 0, 0.00000000000000000000e+00) (0, 0, 0.00000000000000000000e+00) (0, 0, 0.00000000000000000000e+00) (0, 0, 0.00000000000000000000e+00) (0, 0, 0.00000000000000000000e+00) (0, 0, 0.00000000000000000000e+00) (0, 0, 0.00000000000000000000e+00) (0, 0, 0.00000000000000000000e+00) (0, 0, 0.00000000000000000000e+00) (0, 0, 0.00000000000000000000e+00) (0, 0, 0.00000000000000000000e+00) (0, 0, 0.00000000000000000000e+00) (0, 0, 0.00000000000000000000e+00) (0, 0, 0.00000000000000000000e+00) (0, 0, 0.00000000000000000000e+00) (0, 0, 0.00000000000000000000e+00) (0, 0, 0.00000000000000000000e+00) (0, 0, 0.00000000000000000000e+00) (0, 0, 0.00000000000000000000e+00) (0, 0, 0.00000000000000000000e+00) (0, 0, 0.00000000000000000000e+00) (0, 0, 0.00000000000000000000e+00) (0, 0, 0.00000000000000000000e+00) (0, 0, 0.00000000000000000000e+00) (0, 0, 0.00000000000000000000e+00) (0, 0, 0.00000000000000000000e+00) (0, 0, 0.00000000000000000000e+00) (0, 0, 0.00000000000000000000e+00) (0, 0, 0.00000000000000000000e+00) (0, 0, 0.00000000000000000000e+00) (0, 0, 0.00000000000000000000e+00) (0, 0, 0.00000000000000000000e+00) (0, 0, 0.00000000000000000000e+00) (0, 0, 0.00000000000000000000e+00) (0, 0, 0.00000000000000000000e+00) (0, 0, 0.00000000000000000000e+00) (0, 0, 0.00000000000000000000e+00) (0, 0, 0.00000000000000000000e+00) (0, 0, 0.00000000000000000000e+00) (0, 0, 0.00000000000000000000e+00) (0, 0, 0.00000000000000000000e+00) (0, 0, 0.00000000000000000000e+00) (0, 0, 0.00000000000000000000e+00) (0, 0, 0.00000000000000000000e+00) (0, 0, 0.00000000000000000000e+00) (0, 0, 0.00000000000000000000e+00) (0, 0, 0.00000000000000000000e+00) (0, 0, 0.00000000000000000000e+00) (0, 0, 0.00000000000000000000e+00) (0, 0, 0.00000000000000000000e+00) (0, 0, 0.00000000000000000000e+00) (0, 0, 0.00000000000000000000e+00) (0, 0, 0.00000000000000000000e+00) (0, 0, 0.00000000000000000000e+00) (0, 0, 0.00000000000000000000e+00) (0, 0, 0.00000000000000000000e+00) (0, 0, 0.00000000000000000000e+00) (0, 0, 0.00000000000000000000e+00) (0, 0, 0.00000000000000000000e+00) (0, 0, 0.00000000000000000000e+00) (0, 0, 0.00000000000000000000e+00) (0, 0, 0.00000000000000000000e+00) (0, 0, 0.00000000000000000000e+00) (0, 0, 0.00000000000000000000e+00) (0, 0, 0.00000000000000000000e+00) (0, 0, 0.00000000000000000000e+00) (0, 0, 0.00000000000000000000e+00) (0, 0, 0.00000000000000000000e+00) (0, 0, 0.00000000000000000000e+00) (0, 0, 0.00000000000000000000e+00) (0, 0, 0.00000000000000000000e+00) (0, 0, 0.00000000000000000000e+00) (0, 0, 0.00000000000000000000e+00) (0, 0, 0.00000000000000000000e+00) (0, 0, 0.00000000000000000000e+00) (0, 0, 0.00000000000000000000e+00) (0, 0, 0.00000000000000000000e+00) (0, 0, 0.00000000000000000000e+00) (0, 0, 0.00000000000000000000e+00) (0, 0, 0.00000000000000000000e+00) (0, 0, 0.00000000000000000000e+00) (0, 0, 0.00000000000000000000e+00) (0, 0, 0.00000000000000000000e+00) (0, 0, 0.00000000000000000000e+00) (0, 0, 0.00000000000000000000e+00) (0, 0, 0.00000000000000000000e+00) (0, 0, 0.00000000000000000000e+00) (0, 0, 0.00000000000000000000e+00) (0, 0, 0.00000000000000000000e+00) (0, 0, 0.00000000000000000000e+00) (0, 0, 0.00000000000000000000e+00) (0, 0, 0.00000000000000000000e+00) (0, 0, 0.00000000000000000000e+00) (0, 0, 0.00000000000000000000e+00) (0, 0, 0.00000000000000000000e+00) (0, 0, 0.00000000000000000000e+00) (0, 0, 0.00000000000000000000e+00) (0, 0, 0.00000000000000000000e+00) (0, 0, 0.00000000000000000000e+00) (0, 0, 0.00000000000000000000e+00) (0, 0, 0.00000000000000000000e+00) (0, 0, 0.00000000000000000000e+00) (0, 0, 0.00000000000000000000e+00) (0, 0, 0.00000000000000000000e+00) (0, 0, 0.00000000000000000000e+00) (0, 0, 0.00000000000000000000e+00) (0, 0, 0.00000000000000000000e+00) (0, 0, 0.00000000000000000000e+00) (0, 0, 0.00000000000000000000e+00) (0, 0, 0.00000000000000000000e+00) (0, 0, 0.00000000000000000000e+00) (0, 0, 0.00000000000000000000e+00) (0, 0, 0.00000000000000000000e+00) (0, 0, 0.00000000000000000000e+00) (0, 0, 0.00000000000000000000e+00) (0, 0, 0.00000000000000000000e+00) (0, 0, 0.00000000000000000000e+00) (0, 0, 0.00000000000000000000e+00) (0, 0, 0.00000000000000000000e+00) (0, 0, 0.00000000000000000000e+00) (0, 0, 0.00000000000000000000e+00) (0, 0, 0.00000000000000000000e+00) (0, 0, 0.00000000000000000000e+00) (0, 0, 0.00000000000000000000e+00) (0, 0, 0.00000000000000000000e+00) (0, 0, 0.00000000000000000000e+00) (0, 0, 0.00000000000000000000e+00) (0, 0, 0.00000000000000000000e+00) (0, 0, 0.00000000000000000000e+00) (0, 0, 0.00000000000000000000e+00) (0, 0, 0.00000000000000000000e+00) (0, 0, 0.00000000000000000000e+00) (0, 0, 0.00000000000000000000e+00) (0, 0, 0.00000000000000000000e+00) (0, 0, 0.00000000000000000000e+00) (0, 0, 0.00000000000000000000e+00) (0, 0, 0.00000000000000000000e+00) (0, 0, 0.00000000000000000000e+00) (0, 0, 0.00000000000000000000e+00) (0, 0, 0.00000000000000000000e+00) (0, 0, 0.00000000000000000000e+00) (0, 0, 0.00000000000000000000e+00) (0, 0, 0.00000000000000000000e+00) (0, 0, 0.00000000000000000000e+00) (0, 0, 0.00000000000000000000e+00) (0, 0, 0.00000000000000000000e+00) (0, 0, 0.00000000000000000000e+00) (0, 0, 0.00000000000000000000e+00) (0, 0, 0.00000000000000000000e+00) (0, 0, 0.00000000000000000000e+00) (0, 0, 0.00000000000000000000e+00) (0, 0, 0.00000000000000000000e+00) (0, 0, 0.00000000000000000000e+00) (0, 0, 0.00000000000000000000e+00) (0, 0, 0.00000000000000000000e+00) (0, 0, 0.00000000000000000000e+00) (0, 0, 0.00000000000000000000e+00) (0, 0, 0.00000000000000000000e+00) (0, 0, 0.00000000000000000000e+00) (0, 0, 0.00000000000000000000e+00) (0, 0, 0.00000000000000000000e+00) (0, 0, 0.00000000000000000000e+00) (0, 0, 0.00000000000000000000e+00) (0, 0, 0.00000000000000000000e+00) (0, 0, 0.00000000000000000000e+00) (0, 0, 0.00000000000000000000e+00) (0, 0, 0.00000000000000000000e+00) (0, 0, 0.00000000000000000000e+00) (0, 0, 0.00000000000000000000e+00) (0, 0, 0.00000000000000000000e+00) (0, 0, 0.00000000000000000000e+00) (0, 0, 0.00000000000000000000e+00) (0, 0, 0.00000000000000000000e+00) (0, 0, 0.00000000000000000000e+00) (0, 0, 0.00000000000000000000e+00) (0, 0, 0.00000000000000000000e+00) (0, 0, 0.00000000000000000000e+00) (0, 0, 0.00000000000000000000e+00) (0, 0, 0.00000000000000000000e+00) (0, 0, 0.00000000000000000000e+00) (0, 0, 0.00000000000000000000e+00) (0, 0, 0.00000000000000000000e+00) (0, 0, 0.00000000000000000000e+00) (0, 0, 0.00000000000000000000e+00) (0, 0, 0.00000000000000000000e+00) (0, 0, 0.00000000000000000000e+00) (0, 0, 0.00000000000000000000e+00) (0, 0, 0.00000000000000000000e+00) (0, 0, 0.00000000000000000000e+00) (0, 0, 0.00000000000000000000e+00) (0, 0, 0.00000000000000000000e+00) (0, 0, 0.00000000000000000000e+00) (0, 0, 0.00000000000000000000e+00) (0, 0, 0.00000000000000000000e+00) (0, 0, 0.00000000000000000000e+00) (0, 0, 0.00000000000000000000e+00) (0, 0, 0.00000000000000000000e+00) (0, 0, 0.00000000000000000000e+00) (0, 0, 0.00000000000000000000e+00) (0, 0, 0.00000000000000000000e+00) (0, 0, 0.00000000000000000000e+00) (0, 0, 0.00000000000000000000e+00) (0, 0, 0.00000000000000000000e+00) (0, 0, 0.00000000000000000000e+00) (0, 0, 0.00000000000000000000e+00) (0, 0, 0.00000000000000000000e+00) (0, 0, 0.00000000000000000000e+00) (0, 0, 0.00000000000000000000e+00) (0, 0, 0.00000000000000000000e+00) (0, 0, 0.00000000000000000000e+00) (0, 0, 0.00000000000000000000e+00) (0, 0, 0.00000000000000000000e+00) (0, 0, 0.00000000000000000000e+00) (0, 0, 0.00000000000000000000e+00) (0, 0, 0.00000000000000000000e+00) (0, 0, 0.00000000000000000000e+00) (0, 0, 0.00000000000000000000e+00) (0, 0, 0.00000000000000000000e+00) (0, 0, 0.00000000000000000000e+00) (0, 0, 0.00000000000000000000e+00) (0, 0, 0.00000000000000000000e+00) (0, 0, 0.00000000000000000000e+00) (0, 0, 0.00000000000000000000e+00) (0, 0, 0.00000000000000000000e+00) (0, 0, 0.00000000000000000000e+00) (0, 0, 0.00000000000000000000e+00) (0, 0, 0.00000000000000000000e+00) (0, 0, 0.00000000000000000000e+00) (0, 0, 0.00000000000000000000e+00) (0, 0, 0.00000000000000000000e+00) (0, 0, 0.00000000000000000000e+00) (0, 0, 0.00000000000000000000e+00) (0, 0, 0.00000000000000000000e+00) (0, 0, 0.00000000000000000000e+00) (0, 0, 0.00000000000000000000e+00) (0, 0, 0.00000000000000000000e+00) (0, 0, 0.00000000000000000000e+00) (0, 0, 0.00000000000000000000e+00) (0, 0, 0.00000000000000000000e+00) (0, 0, 0.00000000000000000000e+00) (0, 0, 0.00000000000000000000e+00) (0, 0, 0.00000000000000000000e+00) (0, 0, 0.00000000000000000000e+00) (0, 0, 0.00000000000000000000e+00) (0, 0, 0.00000000000000000000e+00) (0, 0, 0.00000000000000000000e+00) (0, 0, 0.00000000000000000000e+00) (0, 0, 0.00000000000000000000e+00) (0, 0, 0.00000000000000000000e+00) (0, 0, 0.00000000000000000000e+00) (0, 0, 0.00000000000000000000e+00) (0, 0, 0.00000000000000000000e+00) (0, 0, 0.00000000000000000000e+00) (0, 0, 0.00000000000000000000e+00) (0, 0, 0.00000000000000000000e+00) (0, 0, 0.00000000000000000000e+00) (0, 0, 0.00000000000000000000e+00) (0, 0, 0.00000000000000000000e+00) (0, 0, 0.00000000000000000000e+00) (0, 0, 0.00000000000000000000e+00) (0, 0, 0.00000000000000000000e+00) (0, 0, 0.00000000000000000000e+00) (0, 0, 0.00000000000000000000e+00) (0, 0, 0.00000000000000000000e+00) (0, 0, 0.00000000000000000000e+00) (0, 0, 0.00000000000000000000e+00) (0, 0, 0.00000000000000000000e+00) (0, 0, 0.00000000000000000000e+00) (0, 0, 0.00000000000000000000e+00) (0, 0, 0.00000000000000000000e+00) (0, 0, 0.00000000000000000000e+00) (0, 0, 0.00000000000000000000e+00) (0, 0, 0.00000000000000000000e+00) (0, 0, 0.00000000000000000000e+00) (0, 0, 0.00000000000000000000e+00) (0, 0, 0.00000000000000000000e+00) (0, 0, 0.00000000000000000000e+00) (0, 0, 0.00000000000000000000e+00) (0, 0, 0.00000000000000000000e+00) (0, 0, 0.00000000000000000000e+00) (0, 0, 0.00000000000000000000e+00) (0, 0, 0.00000000000000000000e+00) (0, 0, 0.00000000000000000000e+00) (0, 0, 0.00000000000000000000e+00) (0, 0, 0.00000000000000000000e+00) (0, 0, 0.00000000000000000000e+00) (0, 0, 0.00000000000000000000e+00) (0, 0, 0.00000000000000000000e+00) (0, 0, 0.00000000000000000000e+00) (0, 0, 0.00000000000000000000e+00) (0, 0, 0.00000000000000000000e+00) (0, 0, 0.00000000000000000000e+00) (0, 0, 0.00000000000000000000e+00) (0, 0, 0.00000000000000000000e+00) (0, 0, 0.00000000000000000000e+00) (0, 0, 0.00000000000000000000e+00) (0, 0, 0.00000000000000000000e+00) (0, 0, 0.00000000000000000000e+00) (0, 0, 0.00000000000000000000e+00) (0, 0, 0.00000000000000000000e+00) (0, 0, 0.00000000000000000000e+00) (0, 0, 0.00000000000000000000e+00) (0, 0, 0.00000000000000000000e+00) (0, 0, 0.00000000000000000000e+00) (0, 0, 0.00000000000000000000e+00) (0, 0, 0.00000000000000000000e+00) (0, 0, 0.00000000000000000000e+00) (0, 0, 0.00000000000000000000e+00) (0, 0, 0.00000000000000000000e+00) (0, 0, 0.00000000000000000000e+00) (0, 0, 0.00000000000000000000e+00) (0, 0, 0.00000000000000000000e+00) (0, 0, 0.00000000000000000000e+00) (0, 0, 0.00000000000000000000e+00) (0, 0, 0.00000000000000000000e+00) (0, 0, 0.00000000000000000000e+00) (0, 0, 0.00000000000000000000e+00) (0, 0, 0.00000000000000000000e+00) (0, 0, 0.00000000000000000000e+00) (0, 0, 0.00000000000000000000e+00) (0, 0, 0.00000000000000000000e+00) (0, 0, 0.00000000000000000000e+00) (0, 0, 0.00000000000000000000e+00) (0, 0, 0.00000000000000000000e+00) (0, 0, 0.00000000000000000000e+00) (0, 0, 0.00000000000000000000e+00) (0, 0, 0.00000000000000000000e+00) (0, 0, 0.00000000000000000000e+00) (0, 0, 0.00000000000000000000e+00) (0, 0, 0.00000000000000000000e+00) (0, 0, 0.00000000000000000000e+00) (0, 0, 0.00000000000000000000e+00) (0, 0, 0.00000000000000000000e+00) (0, 0, 0.00000000000000000000e+00) (0, 0, 0.00000000000000000000e+00) (0, 0, 0.00000000000000000000e+00) (0, 0, 0.00000000000000000000e+00) (0, 0, 0.00000000000000000000e+00) (0, 0, 0.00000000000000000000e+00) (0, 0, 0.00000000000000000000e+00) (0, 0, 0.00000000000000000000e+00) (0, 0, 0.00000000000000000000e+00) (0, 0, 0.00000000000000000000e+00) (0, 0, 0.00000000000000000000e+00) (0, 0, 0.00000000000000000000e+00) (0, 0, 0.00000000000000000000e+00) (0, 0, 0.00000000000000000000e+00) (0, 0, 0.00000000000000000000e+00) (0, 0, 0.00000000000000000000e+00) (0, 0, 0.00000000000000000000e+00) (0, 0, 0.00000000000000000000e+00) (0, 0, 0.00000000000000000000e+00) (0, 0, 0.00000000000000000000e+00) (0, 0, 0.00000000000000000000e+00) (0, 0, 0.00000000000000000000e+00) (0, 0, 0.00000000000000000000e+00) (0, 0, 0.00000000000000000000e+00) (0, 0, 0.00000000000000000000e+00) (0, 0, 0.00000000000000000000e+00) (0, 0, 0.00000000000000000000e+00) (0, 0, 0.00000000000000000000e+00) (0, 0, 0.00000000000000000000e+00) (0, 0, 0.00000000000000000000e+00) (0, 0, 0.00000000000000000000e+00) (0, 0, 0.00000000000000000000e+00) (0, 0, 0.00000000000000000000e+00) (0, 0, 0.00000000000000000000e+00) (0, 0, 0.00000000000000000000e+00) (0, 0, 0.00000000000000000000e+00) (0, 0, 0.00000000000000000000e+00) (0, 0, 0.00000000000000000000e+00) (0, 0, 0.00000000000000000000e+00) (0, 0, 0.00000000000000000000e+00) (0, 0, 0.00000000000000000000e+00) (0, 0, 0.00000000000000000000e+00) (0, 0, 0.00000000000000000000e+00) (0, 0, 0.00000000000000000000e+00) (0, 0, 0.00000000000000000000e+00) (0, 0, 0.00000000000000000000e+00) (0, 0, 0.00000000000000000000e+00) (0, 0, 0.00000000000000000000e+00) (0, 0, 0.00000000000000000000e+00) (0, 0, 0.00000000000000000000e+00) (0, 0, 0.00000000000000000000e+00) (0, 0, 0.00000000000000000000e+00) (0, 0, 0.00000000000000000000e+00) (0, 0, 0.00000000000000000000e+00) (0, 0, 0.00000000000000000000e+00) (0, 0, 0.00000000000000000000e+00) (0, 0, 0.00000000000000000000e+00) (0, 0, 0.00000000000000000000e+00) (0, 0, 0.00000000000000000000e+00) (0, 0, 0.00000000000000000000e+00) (0, 0, 0.00000000000000000000e+00) (0, 0, 0.00000000000000000000e+00) (0, 0, 0.00000000000000000000e+00) (0, 0, 0.00000000000000000000e+00) (0, 0, 0.00000000000000000000e+00) (0, 0, 0.00000000000000000000e+00) (0, 0, 0.00000000000000000000e+00) (0, 0, 0.00000000000000000000e+00) (0, 0, 0.00000000000000000000e+00) (0, 0, 0.00000000000000000000e+00) (0, 0, 0.00000000000000000000e+00) (0, 0, 0.00000000000000000000e+00) (0, 0, 0.00000000000000000000e+00) (0, 0, 0.00000000000000000000e+00) (0, 0, 0.00000000000000000000e+00) (0, 0, 0.00000000000000000000e+00) (0, 0, 0.00000000000000000000e+00) (0, 0, 0.00000000000000000000e+00) (0, 0, 0.00000000000000000000e+00) (0, 0, 0.00000000000000000000e+00) (0, 0, 0.00000000000000000000e+00) (0, 0, 0.00000000000000000000e+00) (0, 0, 0.00000000000000000000e+00) (0, 0, 0.00000000000000000000e+00) (0, 0, 0.00000000000000000000e+00) (0, 0, 0.00000000000000000000e+00) (0, 0, 0.00000000000000000000e+00) (0, 0, 0.00000000000000000000e+00) (0, 0, 0.00000000000000000000e+00) (0, 0, 0.00000000000000000000e+00) (0, 0, 0.00000000000000000000e+00) (0, 0, 0.00000000000000000000e+00) (0, 0, 0.00000000000000000000e+00) (0, 0, 0.00000000000000000000e+00) (0, 0, 0.00000000000000000000e+00) (0, 0, 0.00000000000000000000e+00) (0, 0, 0.00000000000000000000e+00) (0, 0, 0.00000000000000000000e+00) (0, 0, 0.00000000000000000000e+00) (0, 0, 0.00000000000000000000e+00) (0, 0, 0.00000000000000000000e+00) (0, 0, 0.00000000000000000000e+00) (0, 0, 0.00000000000000000000e+00) (0, 0, 0.00000000000000000000e+00) (0, 0, 0.00000000000000000000e+00) (0, 0, 0.00000000000000000000e+00) (0, 0, 0.00000000000000000000e+00) (0, 0, 0.00000000000000000000e+00) (0, 0, 0.00000000000000000000e+00) (0, 0, 0.00000000000000000000e+00) (0, 0, 0.00000000000000000000e+00) (0, 0, 0.00000000000000000000e+00) (0, 0, 0.00000000000000000000e+00) (0, 0, 0.00000000000000000000e+00) (0, 0, 0.00000000000000000000e+00) (0, 0, 0.00000000000000000000e+00) (0, 0, 0.00000000000000000000e+00) (0, 0, 0.00000000000000000000e+00) (0, 0, 0.00000000000000000000e+00) (0, 0, 0.00000000000000000000e+00) (0, 0, 0.00000000000000000000e+00) (0, 0, 0.00000000000000000000e+00) (0, 0, 0.00000000000000000000e+00) (0, 0, 0.00000000000000000000e+00) (0, 0, 0.00000000000000000000e+00) (0, 0, 0.00000000000000000000e+00) (0, 0, 0.00000000000000000000e+00) (0, 0, 0.00000000000000000000e+00) (0, 0, 0.00000000000000000000e+00) (0, 0, 0.00000000000000000000e+00) (0, 0, 0.00000000000000000000e+00) (0, 0, 0.00000000000000000000e+00) (0, 0, 0.00000000000000000000e+00) (0, 0, 0.00000000000000000000e+00) (0, 0, 0.00000000000000000000e+00) (0, 0, 0.00000000000000000000e+00) (0, 0, 0.00000000000000000000e+00) (0, 0, 0.00000000000000000000e+00) (0, 0, 0.00000000000000000000e+00) (0, 0, 0.00000000000000000000e+00) (0, 0, 0.00000000000000000000e+00) (0, 0, 0.00000000000000000000e+00) (0, 0, 0.00000000000000000000e+00) (0, 0, 0.00000000000000000000e+00) (0, 0, 0.00000000000000000000e+00) (0, 0, 0.00000000000000000000e+00) (0, 0, 0.00000000000000000000e+00) (0, 0, 0.00000000000000000000e+00) (0, 0, 0.00000000000000000000e+00) (0, 0, 0.00000000000000000000e+00) (0, 0, 0.00000000000000000000e+00) (0, 0, 0.00000000000000000000e+00) (0, 0, 0.00000000000000000000e+00) (0, 0, 0.00000000000000000000e+00) (0, 0, 0.00000000000000000000e+00) (0, 0, 0.00000000000000000000e+00) (0, 0, 0.00000000000000000000e+00) (0, 0, 0.00000000000000000000e+00) (785, 5, 1.00000000000000000000e+00) (785, 5, 1.00000000000000000000e+00) (785, 5, 1.00000000000000000000e+00) (785, 5, 1.00000000000000000000e+00) (785, 5, 1.00000000000000000000e+00) (785, 5, 1.00000000000000000000e+00) (785, 5, 1.00000000000000000000e+00) (785, 5, 1.00000000000000000000e+00) (785, 5, 1.00000000000000000000e+00) (785, 5, 1.00000000000000000000e+00) (785, 5, 1.00000000000000000000e+00) (785, 5, 1.00000000000000000000e+00) (785, 5, 1.00000000000000000000e+00) (785, 5, 1.00000000000000000000e+00) (785, 5, 1.00000000000000000000e+00) (0, 5, 1.00000000000000000000e+00) (16, 5, 1.00000000000000000000e+00) (16, 5, 1.00000000000000000000e+00) (16, 5, 1.00000000000000000000e+00) (16, 5, 1.00000000000000000000e+00) (16, 5, 1.00000000000000000000e+00) (16, 5, 1.00000000000000000000e+00) (16, 5, 1.00000000000000000000e+00) (16, 5, 1.00000000000000000000e+00) (16, 5, 1.00000000000000000000e+00) (16, 5, 1.00000000000000000000e+00) (0, 5, 1.00000000000000000000e+00) 
connections (connected_to_neuron, weight)=(0, 1.00000000000000000000e+00) (1, 1.00000000000000000000e+00) (2, 1.00000000000000000000e+00) (3, 1.00000000000000000000e+00) (4, 1.00000000000000000000e+00) (5, 1.00000000000000000000e+00) (6, 1.00000000000000000000e+00) (7, 1.00000000000000000000e+00) (8, 1.00000000000000000000e+00) (9, 1.00000000000000000000e+00) (10, 1.00000000000000000000e+00) (11, 1.00000000000000000000e+00) (12, -1.00000000000000000000e+00) (13, 1.00000000000000000000e+00) (14, 1.00000000000000000000e+00) (15, 1.00000000000000000000e+00) (16, 1.00000000000000000000e+00) (17, 1.00000000000000000000e+00) (18, 1.00000000000000000000e+00) (19, 1.00000000000000000000e+00) (20, 1.00000000000000000000e+00) (21, 1.00000000000000000000e+00) (22, 1.00000000000000000000e+00) (23, 1.00000000000000000000e+00) (24, 1.00000000000000000000e+00) (25, 1.00000000000000000000e+00) (26, 1.00000000000000000000e+00) (27, 1.00000000000000000000e+00) (28, 1.00000000000000000000e+00) (29, 1.00000000000000000000e+00) (30, 1.00000000000000000000e+00) (31, 1.00000000000000000000e+00) (32, -1.00000000000000000000e+00) (33, -1.00000000000000000000e+00) (34, -1.00000000000000000000e+00) (35, -1.00000000000000000000e+00) (36, 8.17428767681121826172e-01) (37, 7.22539901733398437500e-01) (38, -1.00000000000000000000e+00) (39, -1.00000000000000000000e+00) (40, -1.00000000000000000000e+00) (41, -1.00000000000000000000e+00) (42, -4.42609667778015136719e-01) (43, -1.00000000000000000000e+00) (44, -7.11699128150939941406e-01) (45, -1.00000000000000000000e+00) (46, -1.00000000000000000000e+00) (47, -1.00000000000000000000e+00) (48, -1.00000000000000000000e+00) (49, -1.00000000000000000000e+00) (50, -1.00000000000000000000e+00) (51, -1.00000000000000000000e+00) (52, 1.00000000000000000000e+00) (53, 1.00000000000000000000e+00) (54, 1.00000000000000000000e+00) (55, 1.00000000000000000000e+00) (56, 1.00000000000000000000e+00) (57, 1.00000000000000000000e+00) (58, 1.00000000000000000000e+00) (59, -1.00000000000000000000e+00) (60, -1.00000000000000000000e+00) (61, 1.00000000000000000000e+00) (62, 1.00000000000000000000e+00) (63, 1.00000000000000000000e+00) (64, 1.00000000000000000000e+00) (65, 1.00000000000000000000e+00) (66, 1.00000000000000000000e+00) (67, 1.00000000000000000000e+00) (68, 1.00000000000000000000e+00) (69, -1.00000000000000000000e+00) (70, 2.92378604412078857422e-01) (71, -1.00000000000000000000e+00) (72, -1.00000000000000000000e+00) (73, -1.00000000000000000000e+00) (74, -1.00000000000000000000e+00) (75, -1.00000000000000000000e+00) (76, -1.00000000000000000000e+00) (77, -1.00000000000000000000e+00) (78, -1.00000000000000000000e+00) (79, -1.00000000000000000000e+00) (80, -1.00000000000000000000e+00) (81, 1.00000000000000000000e+00) (82, 1.00000000000000000000e+00) (83, 1.00000000000000000000e+00) (84, 1.00000000000000000000e+00) (85, 1.00000000000000000000e+00) (86, 1.00000000000000000000e+00) (87, -7.41321265697479248047e-01) (88, 1.00000000000000000000e+00) (89, 1.00000000000000000000e+00) (90, 1.00000000000000000000e+00) (91, 1.00000000000000000000e+00) (92, 1.00000000000000000000e+00) (93, 1.00000000000000000000e+00) (94, 1.00000000000000000000e+00) (95, 1.00000000000000000000e+00) (96, 1.00000000000000000000e+00) (97, 1.00000000000000000000e+00) (98, 1.00000000000000000000e+00) (99, 1.00000000000000000000e+00) (100, 1.00000000000000000000e+00) (101, 8.45914721488952636719e-01) (102, -1.00000000000000000000e+00) (103, -1.00000000000000000000e+00) (104, -1.00000000000000000000e+00) (105, -1.00000000000000000000e+00) (106, -1.00000000000000000000e+00) (107, -1.00000000000000000000e+00) (108, -1.00000000000000000000e+00) (109, 8.96211385726928710938e-01) (110, -1.00000000000000000000e+00) (111, 1.00000000000000000000e+00) (112, 1.00000000000000000000e+00) (113, -1.00000000000000000000e+00) (114, -1.00000000000000000000e+00) (115, -1.00000000000000000000e+00) (116, 9.94675099849700927734e-01) (117, 1.00000000000000000000e+00) (118, 1.00000000000000000000e+00) (119, 1.00000000000000000000e+00) (120, 1.00000000000000000000e+00) (121, 1.00000000000000000000e+00) (122, 1.00000000000000000000e+00) (123, 1.71295210719108581543e-01) (124, 1.50568395853042602539e-01) (125, 7.04311251640319824219e-01) (126, 9.91468250751495361328e-01) (127, 9.04028952121734619141e-01) (128, -3.55335414409637451172e-01) (129, -9.93867814540863037109e-01) (130, -9.96489346027374267578e-01) (131, -5.24909675121307373047e-01) (132, 1.71659320592880249023e-01) (133, 6.48989260196685791016e-01) (134, 1.00000000000000000000e+00) (135, 9.88673746585845947266e-01) (136, 1.00000000000000000000e+00) (137, -1.00000000000000000000e+00) (138, -1.00000000000000000000e+00) (139, 9.44000363349914550781e-01) (140, 1.00000000000000000000e+00) (141, 1.00000000000000000000e+00) (142, -1.00000000000000000000e+00) (143, -1.00000000000000000000e+00) (144, 9.97582614421844482422e-01) (145, 1.00000000000000000000e+00) (146, 1.00000000000000000000e+00) (147, 1.00000000000000000000e+00) (148, 1.00000000000000000000e+00) (149, 9.55157220363616943359e-01) (150, 5.76494693756103515625e-01) (151, -4.05601441860198974609e-01) (152, -9.38728690147399902344e-01) (153, 1.27440705895423889160e-01) (154, 5.45498490333557128906e-01) (155, 5.31841022893786430359e-03) (156, 6.51777625083923339844e-01) (157, -1.13644294440746307373e-01) (158, -4.00325894355773925781e-01) (159, 4.48619686067104339600e-02) (160, 8.87294650077819824219e-01) (161, 8.76660168170928955078e-01) (162, 8.52321684360504150391e-01) (163, 7.08317935466766357422e-01) (164, -5.70776045322418212891e-01) (165, -1.00000000000000000000e+00) (166, -1.00000000000000000000e+00) (167, 1.00000000000000000000e+00) (168, 1.00000000000000000000e+00) (169, -1.00000000000000000000e+00) (170, -1.00000000000000000000e+00) (171, -1.00000000000000000000e+00) (172, -1.00000000000000000000e+00) (173, 1.00000000000000000000e+00) (174, 4.85830567777156829834e-02) (175, 1.00000000000000000000e+00) (176, 9.92304086685180664062e-01) (177, 1.00000000000000000000e+00) (178, -3.33092778921127319336e-01) (179, -2.63189852237701416016e-01) (180, -5.08360803127288818359e-01) (181, 1.60191208124160766602e-01) (182, 7.76970088481903076172e-02) (183, 7.99485564231872558594e-01) (184, 9.57714140415191650391e-01) (185, 9.39631342887878417969e-01) (186, 2.30727214366197586060e-02) (187, -2.11920768022537231445e-01) (188, 6.00462555885314941406e-01) (189, 8.28020572662353515625e-01) (190, 3.28734028153121471405e-03) (191, -7.53531873226165771484e-01) (192, -1.00000000000000000000e+00) (193, -1.00000000000000000000e+00) (194, 1.00000000000000000000e+00) (195, 1.00000000000000000000e+00) (196, -1.00000000000000000000e+00) (197, 1.00000000000000000000e+00) (198, -1.00000000000000000000e+00) (199, -1.00000000000000000000e+00) (200, -5.13935983180999755859e-01) (201, -8.56565117835998535156e-01) (202, -1.00000000000000000000e+00) (203, 6.94521546363830566406e-01) (204, 9.99379992485046386719e-01) (205, -4.77501153945922851562e-01) (206, -5.64638555049896240234e-01) (207, -4.51388098299503326416e-02) (208, -2.37714633345603942871e-01) (209, 7.99571126699447631836e-02) (210, 9.39174592494964599609e-01) (211, 9.64946925640106201172e-01) (212, 5.84596872329711914062e-01) (213, 7.28590190410614013672e-01) (214, 3.89195978641510009766e-01) (215, 4.13509577512741088867e-01) (216, 7.67175778746604919434e-02) (217, -3.35286825895309448242e-01) (218, 1.32825061678886413574e-01) (219, -6.49355769157409667969e-01) (220, 6.96144342422485351562e-01) (221, 1.00000000000000000000e+00) (222, 1.00000000000000000000e+00) (223, -1.00000000000000000000e+00) (224, -1.00000000000000000000e+00) (225, 1.00000000000000000000e+00) (226, -1.00000000000000000000e+00) (227, -1.00000000000000000000e+00) (228, -1.00000000000000000000e+00) (229, -7.22761690616607666016e-01) (230, -1.00000000000000000000e+00) (231, -9.04550552368164062500e-01) (232, -2.43447512388229370117e-01) (233, -1.56987190246582031250e-01) (234, -4.92508351802825927734e-01) (235, -5.26997566223144531250e-01) (236, -1.00000000000000000000e+00) (237, 8.04678261280059814453e-01) (238, 9.98412489891052246094e-01) (239, 9.98730182647705078125e-01) (240, 6.74021065235137939453e-01) (241, -7.56557703018188476562e-01) (242, 5.06893813610076904297e-01) (243, -4.04156655073165893555e-01) (244, -2.01379135251045227051e-01) (245, 9.15337875485420227051e-02) (246, -6.19657158851623535156e-01) (247, -1.00000000000000000000e+00) (248, -1.49693101644515991211e-01) (249, 1.00000000000000000000e+00) (250, 1.00000000000000000000e+00) (251, -1.00000000000000000000e+00) (252, -1.00000000000000000000e+00) (253, 9.96957898139953613281e-01) (254, -1.00000000000000000000e+00) (255, -2.69359469413757324219e-01) (256, -8.60660016536712646484e-01) (257, -7.43992686271667480469e-01) (258, -9.77023899555206298828e-01) (259, -4.53232079744338989258e-02) (260, -3.33369880914688110352e-01) (261, -3.70314747095108032227e-01) (262, 3.01972031593322753906e-01) (263, -2.61295109987258911133e-01) (264, 2.98208415508270263672e-01) (265, 9.93653178215026855469e-01) (266, 1.00000000000000000000e+00) (267, 1.00000000000000000000e+00) (268, 1.89633101224899291992e-01) (269, 1.44292026758193969727e-01) (270, -2.47743487358093261719e-01) (271, -8.65687549114227294922e-01) (272, -3.77529799938201904297e-01) (273, -5.80497026443481445312e-01) (274, -3.52576434612274169922e-01) (275, 7.23487744107842445374e-03) (276, 9.05925929546356201172e-01) (277, 1.00000000000000000000e+00) (278, 1.00000000000000000000e+00) (279, -1.00000000000000000000e+00) (280, -1.00000000000000000000e+00) (281, -1.00000000000000000000e+00) (282, -1.00000000000000000000e+00) (283, -1.00000000000000000000e+00) (284, -1.00000000000000000000e+00) (285, -1.00000000000000000000e+00) (286, -5.67454516887664794922e-01) (287, 1.00000000000000000000e+00) (288, 5.68008780479431152344e-01) (289, -3.91177739948034286499e-03) (290, 4.64950688183307647705e-02) (291, 4.73793655633926391602e-01) (292, 2.13101640343666076660e-01) (293, 9.90100800991058349609e-01) (294, 1.00000000000000000000e+00) (295, 1.00000000000000000000e+00) (296, -1.67591750621795654297e-01) (297, -5.01822471618652343750e-01) (298, -2.12355330586433410645e-01) (299, -5.42288422584533691406e-01) (300, -5.32161533832550048828e-01) (301, -7.26803302764892578125e-01) (302, 6.67360305786132812500e-01) (303, 1.00000000000000000000e+00) (304, 1.00000000000000000000e+00) (305, 1.00000000000000000000e+00) (306, 1.00000000000000000000e+00) (307, -1.00000000000000000000e+00) (308, -1.00000000000000000000e+00) (309, -1.00000000000000000000e+00) (310, -1.00000000000000000000e+00) (311, -1.00000000000000000000e+00) (312, -9.14455652236938476562e-01) (313, 1.00000000000000000000e+00) (314, 1.00000000000000000000e+00) (315, 1.00000000000000000000e+00) (316, 1.00000000000000000000e+00) (317, 1.00000000000000000000e+00) (318, 1.00000000000000000000e+00) (319, 9.66790914535522460938e-01) (320, 1.20806381106376647949e-01) (321, 2.73196846246719360352e-01) (322, 1.00000000000000000000e+00) (323, 1.00000000000000000000e+00) (324, 1.00000000000000000000e+00) (325, 1.00000000000000000000e+00) (326, -1.03249445557594299316e-01) (327, -5.77721774578094482422e-01) (328, -6.07897520065307617188e-01) (329, 1.00000000000000000000e+00) (330, 1.00000000000000000000e+00) (331, 1.00000000000000000000e+00) (332, 1.00000000000000000000e+00) (333, 1.00000000000000000000e+00) (334, 1.00000000000000000000e+00) (335, -1.00000000000000000000e+00) (336, -1.00000000000000000000e+00) (337, -1.00000000000000000000e+00) (338, -1.00000000000000000000e+00) (339, -1.00000000000000000000e+00) (340, 1.00000000000000000000e+00) (341, 1.00000000000000000000e+00) (342, 1.00000000000000000000e+00) (343, 1.00000000000000000000e+00) (344, 1.00000000000000000000e+00) (345, 1.00000000000000000000e+00) (346, 9.98526751995086669922e-01) (347, 8.82430136203765869141e-01) (348, -1.00000000000000000000e+00) (349, -1.00000000000000000000e+00) (350, 8.48032295703887939453e-01) (351, 1.00000000000000000000e+00) (352, -1.62794321775436401367e-01) (353, 4.89169172942638397217e-02) (354, -7.87439465522766113281e-01) (355, -3.38430732488632202148e-01) (356, 1.00000000000000000000e+00) (357, 1.00000000000000000000e+00) (358, 1.00000000000000000000e+00) (359, 1.00000000000000000000e+00) (360, 1.00000000000000000000e+00) (361, 1.00000000000000000000e+00) (362, 1.00000000000000000000e+00) (363, -1.00000000000000000000e+00) (364, 1.00000000000000000000e+00) (365, -1.00000000000000000000e+00) (366, -1.00000000000000000000e+00) (367, -1.00000000000000000000e+00) (368, 1.00000000000000000000e+00) (369, 1.00000000000000000000e+00) (370, 1.00000000000000000000e+00) (371, 1.00000000000000000000e+00) (372, 1.00000000000000000000e+00) (373, 1.00000000000000000000e+00) (374, 1.00000000000000000000e+00) (375, 7.73625224828720092773e-02) (376, -1.00000000000000000000e+00) (377, -1.00000000000000000000e+00) (378, 8.05526971817016601562e-01) (379, 7.28433191776275634766e-01) (380, 2.97244668006896972656e-01) (381, -2.94948909431695938110e-02) (382, 3.73594403266906738281e-01) (383, 9.98242974281311035156e-01) (384, 1.00000000000000000000e+00) (385, 1.00000000000000000000e+00) (386, 1.00000000000000000000e+00) (387, 1.00000000000000000000e+00) (388, 1.00000000000000000000e+00) (389, 1.00000000000000000000e+00) (390, 1.00000000000000000000e+00) (391, 1.00000000000000000000e+00) (392, -1.00000000000000000000e+00) (393, -1.00000000000000000000e+00) (394, -1.00000000000000000000e+00) (395, -1.00000000000000000000e+00) (396, 1.00000000000000000000e+00) (397, 1.00000000000000000000e+00) (398, 1.00000000000000000000e+00) (399, 1.00000000000000000000e+00) (400, 1.00000000000000000000e+00) (401, 1.00000000000000000000e+00) (402, 1.00000000000000000000e+00) (403, -3.29021334648132324219e-01) (404, -1.00000000000000000000e+00) (405, 7.96049714088439941406e-01) (406, 6.82235881686210632324e-02) (407, 3.56233865022659301758e-01) (408, -3.86426150798797607422e-02) (409, 1.21293505653738975525e-02) (410, 9.68475043773651123047e-01) (411, 9.69897806644439697266e-01) (412, 1.00000000000000000000e+00) (413, 1.00000000000000000000e+00) (414, 1.00000000000000000000e+00) (415, 1.00000000000000000000e+00) (416, 1.00000000000000000000e+00) (417, 1.00000000000000000000e+00) (418, 1.00000000000000000000e+00) (419, 1.00000000000000000000e+00) (420, -1.00000000000000000000e+00) (421, -1.00000000000000000000e+00) (422, -1.00000000000000000000e+00) (423, -1.00000000000000000000e+00) (424, 1.00000000000000000000e+00) (425, 1.00000000000000000000e+00) (426, 1.00000000000000000000e+00) (427, 1.00000000000000000000e+00) (428, 1.00000000000000000000e+00) (429, 1.00000000000000000000e+00) (430, 1.00000000000000000000e+00) (431, 3.17463219165802001953e-01) (432, -1.86268165707588195801e-01) (433, 7.28545129299163818359e-01) (434, 7.02662944793701171875e-01) (435, 5.16696214675903320312e-01) (436, 2.21018463373184204102e-01) (437, 8.74157428741455078125e-01) (438, 9.83111202716827392578e-01) (439, 6.34828507900238037109e-01) (440, 6.36046469211578369141e-01) (441, 1.00000000000000000000e+00) (442, 1.00000000000000000000e+00) (443, 1.00000000000000000000e+00) (444, 1.00000000000000000000e+00) (445, 1.00000000000000000000e+00) (446, 1.00000000000000000000e+00) (447, -1.00000000000000000000e+00) (448, -1.00000000000000000000e+00) (449, -1.00000000000000000000e+00) (450, -1.00000000000000000000e+00) (451, -1.00000000000000000000e+00) (452, 1.00000000000000000000e+00) (453, 1.00000000000000000000e+00) (454, 1.00000000000000000000e+00) (455, 1.00000000000000000000e+00) (456, 1.00000000000000000000e+00) (457, 1.00000000000000000000e+00) (458, 1.00000000000000000000e+00) (459, -6.92264080047607421875e-01) (460, -2.51340597867965698242e-01) (461, 9.94696199893951416016e-01) (462, 9.59447026252746582031e-01) (463, 4.47335779666900634766e-01) (464, 1.93216037005186080933e-02) (465, 2.64600574970245361328e-01) (466, 9.99736011028289794922e-01) (467, 9.25566017627716064453e-01) (468, 6.74887001514434814453e-01) (469, 9.68815982341766357422e-01) (470, 1.00000000000000000000e+00) (471, 1.00000000000000000000e+00) (472, 1.00000000000000000000e+00) (473, 1.00000000000000000000e+00) (474, 1.00000000000000000000e+00) (475, 1.00000000000000000000e+00) (476, 1.00000000000000000000e+00) (477, -1.00000000000000000000e+00) (478, -1.00000000000000000000e+00) (479, -1.00000000000000000000e+00) (480, 1.00000000000000000000e+00) (481, 1.00000000000000000000e+00) (482, 1.00000000000000000000e+00) (483, 1.00000000000000000000e+00) (484, 1.00000000000000000000e+00) (485, 1.00000000000000000000e+00) (486, -8.69925677776336669922e-01) (487, 4.54524666070938110352e-01) (488, 5.75347006320953369141e-01) (489, 1.00000000000000000000e+00) (490, 1.00000000000000000000e+00) (491, 9.95067775249481201172e-01) (492, 8.91671597957611083984e-01) (493, 9.45862293243408203125e-01) (494, 3.44453394412994384766e-01) (495, 9.99131381511688232422e-01) (496, 9.63042318820953369141e-01) (497, 8.46690833568572998047e-01) (498, 1.00000000000000000000e+00) (499, 1.00000000000000000000e+00) (500, 1.00000000000000000000e+00) (501, 1.00000000000000000000e+00) (502, 1.00000000000000000000e+00) (503, -1.00000000000000000000e+00) (504, -1.00000000000000000000e+00) (505, -1.00000000000000000000e+00) (506, -1.00000000000000000000e+00) (507, -1.00000000000000000000e+00) (508, 1.00000000000000000000e+00) (509, 1.00000000000000000000e+00) (510, 1.00000000000000000000e+00) (511, 1.00000000000000000000e+00) (512, 7.30120062828063964844e-01) (513, 8.68534803390502929688e-01) (514, -2.18845099210739135742e-01) (515, 3.14183980226516723633e-01) (516, 9.94289636611938476562e-01) (517, 1.00000000000000000000e+00) (518, 1.00000000000000000000e+00) (519, 9.98321413993835449219e-01) (520, 3.70425820350646972656e-01) (521, 6.54438138008117675781e-01) (522, 5.37230551242828369141e-01) (523, 9.99203205108642578125e-01) (524, 1.00000000000000000000e+00) (525, 1.00000000000000000000e+00) (526, 1.00000000000000000000e+00) (527, 1.00000000000000000000e+00) (528, 1.00000000000000000000e+00) (529, 1.00000000000000000000e+00) (530, 1.00000000000000000000e+00) (531, 1.00000000000000000000e+00) (532, 1.00000000000000000000e+00) (533, -1.00000000000000000000e+00) (534, -1.00000000000000000000e+00) (535, 7.21782445907592773438e-01) (536, 1.52223646640777587891e-01) (537, 1.00000000000000000000e+00) (538, 1.00000000000000000000e+00) (539, 8.99205625057220458984e-01) (540, 5.38407981395721435547e-01) (541, 5.18168985843658447266e-01) (542, -4.16726291179656982422e-01) (543, 9.98808383941650390625e-01) (544, 9.98382627964019775391e-01) (545, 1.00000000000000000000e+00) (546, 1.00000000000000000000e+00) (547, 9.91777122020721435547e-01) (548, 7.59654939174652099609e-01) (549, 3.51211786270141601562e-01) (550, 9.99131381511688232422e-01) (551, 9.99388217926025390625e-01) (552, 1.00000000000000000000e+00) (553, 1.00000000000000000000e+00) (554, 1.00000000000000000000e+00) (555, 1.00000000000000000000e+00) (556, 1.00000000000000000000e+00) (557, 1.00000000000000000000e+00) (558, 1.00000000000000000000e+00) (559, 1.00000000000000000000e+00) (560, 1.00000000000000000000e+00) (561, -1.00000000000000000000e+00) (562, -1.00000000000000000000e+00) (563, -1.00000000000000000000e+00) (564, 1.00000000000000000000e+00) (565, 2.53102511167526245117e-01) (566, 7.00368046760559082031e-01) (567, 7.26165175437927246094e-01) (568, 6.76126480102539062500e-01) (569, 8.38509082794189453125e-01) (570, 2.17508584260940551758e-01) (571, 9.66811835765838623047e-01) (572, 9.98026013374328613281e-01) (573, 9.99355852603912353516e-01) (574, 9.59063827991485595703e-01) (575, 9.95136022567749023438e-01) (576, 9.72922503948211669922e-01) (577, 9.99131381511688232422e-01) (578, 9.99388217926025390625e-01) (579, 1.00000000000000000000e+00) (580, 1.00000000000000000000e+00) (581, 1.00000000000000000000e+00) (582, 1.00000000000000000000e+00) (583, 1.00000000000000000000e+00) (584, 1.00000000000000000000e+00) (585, 1.00000000000000000000e+00) (586, 1.00000000000000000000e+00) (587, 1.00000000000000000000e+00) (588, 1.00000000000000000000e+00) (589, -1.00000000000000000000e+00) (590, -1.00000000000000000000e+00) (591, -1.00000000000000000000e+00) (592, 9.90761518478393554688e-01) (593, 9.70134079456329345703e-01) (594, 8.39628577232360839844e-01) (595, -8.83319258689880371094e-01) (596, 4.48191195726394653320e-01) (597, -8.75483751296997070312e-02) (598, -1.50762170553207397461e-01) (599, -4.84543085098266601562e-01) (600, 5.86708664894104003906e-01) (601, 7.67611920833587646484e-01) (602, 8.28858673572540283203e-01) (603, 5.66090881824493408203e-01) (604, 5.82382917404174804688e-01) (605, 7.82477676868438720703e-01) (606, 1.81126117706298828125e-01) (607, 1.97967410087585449219e-01) (608, 1.00000000000000000000e+00) (609, 1.00000000000000000000e+00) (610, 1.00000000000000000000e+00) (611, 1.00000000000000000000e+00) (612, 1.00000000000000000000e+00) (613, 1.00000000000000000000e+00) (614, 1.00000000000000000000e+00) (615, 1.00000000000000000000e+00) (616, 1.00000000000000000000e+00) (617, -1.00000000000000000000e+00) (618, -1.00000000000000000000e+00) (619, -1.00000000000000000000e+00) (620, 7.84147799015045166016e-01) (621, 1.20741128921508789062e-01) (622, -8.83834123611450195312e-01) (623, -1.00000000000000000000e+00) (624, -8.17549765110015869141e-01) (625, -1.00000000000000000000e+00) (626, -1.00000000000000000000e+00) (627, -1.00000000000000000000e+00) (628, -1.00000000000000000000e+00) (629, -1.00000000000000000000e+00) (630, -8.06320726871490478516e-01) (631, 5.97026981413364410400e-02) (632, 4.19682323932647705078e-01) (633, 1.59036517143249511719e-01) (634, 7.98333704471588134766e-01) (635, 1.00000000000000000000e+00) (636, 1.00000000000000000000e+00) (637, 1.00000000000000000000e+00) (638, 1.00000000000000000000e+00) (639, 1.00000000000000000000e+00) (640, 1.00000000000000000000e+00) (641, 1.00000000000000000000e+00) (642, 1.00000000000000000000e+00) (643, 1.00000000000000000000e+00) (644, 1.00000000000000000000e+00) (645, 1.00000000000000000000e+00) (646, -1.00000000000000000000e+00) (647, -1.00000000000000000000e+00) (648, 9.86897885799407958984e-01) (649, 1.00000000000000000000e+00) (650, 6.22918903827667236328e-02) (651, -9.99836564064025878906e-01) (652, -1.00000000000000000000e+00) (653, -9.78491365909576416016e-01) (654, -1.00000000000000000000e+00) (655, -1.00000000000000000000e+00) (656, -1.00000000000000000000e+00) (657, -1.00000000000000000000e+00) (658, -1.00000000000000000000e+00) (659, -1.00000000000000000000e+00) (660, -1.80386956781148910522e-02) (661, 1.00000000000000000000e+00) (662, 1.00000000000000000000e+00) (663, 1.00000000000000000000e+00) (664, 1.00000000000000000000e+00) (665, 1.00000000000000000000e+00) (666, 1.00000000000000000000e+00) (667, 1.00000000000000000000e+00) (668, 1.00000000000000000000e+00) (669, 1.00000000000000000000e+00) (670, 1.00000000000000000000e+00) (671, 1.00000000000000000000e+00) (672, 1.00000000000000000000e+00) (673, 1.00000000000000000000e+00) (674, -1.00000000000000000000e+00) (675, -1.00000000000000000000e+00) (676, -1.00000000000000000000e+00) (677, 8.67828905582427978516e-01) (678, -2.05358982086181640625e-01) (679, -3.75316053628921508789e-01) (680, -3.05946856737136840820e-01) (681, -8.39102149009704589844e-01) (682, -9.01152789592742919922e-01) (683, -9.65794682502746582031e-01) (684, -9.35714423656463623047e-01) (685, -7.72020518779754638672e-01) (686, -9.62124645709991455078e-01) (687, -9.97475087642669677734e-01) (688, 6.24145030975341796875e-01) (689, 1.00000000000000000000e+00) (690, 1.00000000000000000000e+00) (691, 1.00000000000000000000e+00) (692, 1.00000000000000000000e+00) (693, 1.00000000000000000000e+00) (694, 1.00000000000000000000e+00) (695, 1.00000000000000000000e+00) (696, 1.00000000000000000000e+00) (697, 1.00000000000000000000e+00) (698, 1.00000000000000000000e+00) (699, 1.00000000000000000000e+00) (700, 1.00000000000000000000e+00) (701, 1.00000000000000000000e+00) (702, 9.85239028930664062500e-01) (703, -1.00000000000000000000e+00) (704, 7.77477622032165527344e-01) (705, -1.00000000000000000000e+00) (706, -1.00000000000000000000e+00) (707, -1.00000000000000000000e+00) (708, -5.39421796798706054688e-01) (709, -2.03800261020660400391e-01) (710, 9.40310895442962646484e-01) (711, 5.29239654541015625000e-01) (712, 6.84959232807159423828e-01) (713, 8.73596549034118652344e-01) (714, 3.48555266857147216797e-01) (715, 8.25397968292236328125e-01) (716, 1.00000000000000000000e+00) (717, 1.00000000000000000000e+00) (718, 1.00000000000000000000e+00) (719, 1.00000000000000000000e+00) (720, 1.00000000000000000000e+00) (721, 1.00000000000000000000e+00) (722, 1.00000000000000000000e+00) (723, 1.00000000000000000000e+00) (724, 1.00000000000000000000e+00) (725, 1.00000000000000000000e+00) (726, 1.00000000000000000000e+00) (727, 1.00000000000000000000e+00) (728, 1.00000000000000000000e+00) (729, 1.00000000000000000000e+00) (730, 1.00000000000000000000e+00) (731, 1.00000000000000000000e+00) (732, 1.00000000000000000000e+00) (733, 9.63172316551208496094e-01) (734, -1.00000000000000000000e+00) (735, -1.00000000000000000000e+00) (736, -4.00631159543991088867e-01) (737, -9.49293494224548339844e-01) (738, -9.76030945777893066406e-01) (739, -1.00000000000000000000e+00) (740, -1.00000000000000000000e+00) (741, -1.00000000000000000000e+00) (742, -8.52479100227355957031e-01) (743, -1.00000000000000000000e+00) (744, -1.00000000000000000000e+00) (745, -1.00000000000000000000e+00) (746, -5.95136761665344238281e-01) (747, 1.00000000000000000000e+00) (748, 1.00000000000000000000e+00) (749, 1.00000000000000000000e+00) (750, 8.23039829730987548828e-01) (751, 1.00000000000000000000e+00) (752, 1.00000000000000000000e+00) (753, -1.00000000000000000000e+00) (754, 1.00000000000000000000e+00) (755, 1.00000000000000000000e+00) (756, 1.00000000000000000000e+00) (757, 1.00000000000000000000e+00) (758, 1.00000000000000000000e+00) (759, 1.00000000000000000000e+00) (760, -1.00000000000000000000e+00) (761, -1.00000000000000000000e+00) (762, -1.00000000000000000000e+00) (763, -1.00000000000000000000e+00) (764, -1.00000000000000000000e+00) (765, -1.00000000000000000000e+00) (766, -1.00000000000000000000e+00) (767, -1.00000000000000000000e+00) (768, -2.34759926795959472656e-01) (769, -3.07599399238824844360e-02) (770, -9.90753293037414550781e-01) (771, -1.00000000000000000000e+00) (772, -1.00000000000000000000e+00) (773, -1.00000000000000000000e+00) (774, -1.00000000000000000000e+00) (775, -1.00000000000000000000e+00) (776, -1.00000000000000000000e+00) (777, -1.00000000000000000000e+00) (778, -1.00000000000000000000e+00) (779, -1.00000000000000000000e+00) (780, 1.00000000000000000000e+00) (781, 1.00000000000000000000e+00) (782, 1.00000000000000000000e+00) (783, 1.00000000000000000000e+00) (784, 1.00000000000000000000e+00) (0, 1.00000000000000000000e+00) (1, 1.00000000000000000000e+00) (2, 1.00000000000000000000e+00) (3, 1.00000000000000000000e+00) (4, 1.00000000000000000000e+00) (5, 1.00000000000000000000e+00) (6, 1.00000000000000000000e+00) (7, 1.00000000000000000000e+00) (8, 1.00000000000000000000e+00) (9, 1.00000000000000000000e+00) (10, 1.00000000000000000000e+00) (11, 1.00000000000000000000e+00) (12, 1.00000000000000000000e+00) (13, -1.00000000000000000000e+00) (14, -1.00000000000000000000e+00) (15, -1.00000000000000000000e+00) (16, 1.00000000000000000000e+00) (17, 1.00000000000000000000e+00) (18, 1.00000000000000000000e+00) (19, 1.00000000000000000000e+00) (20, 1.00000000000000000000e+00) (21, 1.00000000000000000000e+00) (22, 1.00000000000000000000e+00) (23, 1.00000000000000000000e+00) (24, 1.00000000000000000000e+00) (25, 1.00000000000000000000e+00) (26, 1.00000000000000000000e+00) (27, 1.00000000000000000000e+00) (28, 1.00000000000000000000e+00) (29, 1.00000000000000000000e+00) (30, 1.00000000000000000000e+00) (31, 1.00000000000000000000e+00) (32, 1.00000000000000000000e+00) (33, 1.00000000000000000000e+00) (34, 1.00000000000000000000e+00) (35, 1.00000000000000000000e+00) (36, 1.00000000000000000000e+00) (37, 1.00000000000000000000e+00) (38, 1.00000000000000000000e+00) (39, 1.00000000000000000000e+00) (40, 1.00000000000000000000e+00) (41, 1.00000000000000000000e+00) (42, 1.00000000000000000000e+00) (43, 1.00000000000000000000e+00) (44, 2.57106244564056396484e-01) (45, 1.00000000000000000000e+00) (46, 1.00000000000000000000e+00) (47, 1.00000000000000000000e+00) (48, 1.00000000000000000000e+00) (49, 1.00000000000000000000e+00) (50, 1.00000000000000000000e+00) (51, 1.00000000000000000000e+00) (52, 1.00000000000000000000e+00) (53, 1.00000000000000000000e+00) (54, 1.00000000000000000000e+00) (55, 1.00000000000000000000e+00) (56, 1.00000000000000000000e+00) (57, 1.00000000000000000000e+00) (58, 1.00000000000000000000e+00) (59, -1.00000000000000000000e+00) (60, 1.00000000000000000000e+00) (61, 1.00000000000000000000e+00) (62, 1.00000000000000000000e+00) (63, 1.00000000000000000000e+00) (64, 1.00000000000000000000e+00) (65, 9.99980688095092773438e-01) (66, 9.93860781192779541016e-01) (67, 1.00000000000000000000e+00) (68, 1.00000000000000000000e+00) (69, 1.00000000000000000000e+00) (70, 1.00000000000000000000e+00) (71, 1.00000000000000000000e+00) (72, 1.00000000000000000000e+00) (73, 1.00000000000000000000e+00) (74, 1.00000000000000000000e+00) (75, 1.00000000000000000000e+00) (76, 1.00000000000000000000e+00) (77, 1.00000000000000000000e+00) (78, 1.00000000000000000000e+00) (79, 1.00000000000000000000e+00) (80, -1.00000000000000000000e+00) (81, -1.00000000000000000000e+00) (82, 1.00000000000000000000e+00) (83, 1.00000000000000000000e+00) (84, 1.00000000000000000000e+00) (85, 1.00000000000000000000e+00) (86, -1.00000000000000000000e+00) (87, -1.00000000000000000000e+00) (88, -8.73828589916229248047e-01) (89, -1.00000000000000000000e+00) (90, -6.22955679893493652344e-01) (91, -8.95690739154815673828e-01) (92, -7.04029738903045654297e-01) (93, -1.60247579216957092285e-01) (94, -9.99939978122711181641e-01) (95, -9.90237116813659667969e-01) (96, -5.48636078834533691406e-01) (97, 3.84280979633331298828e-01) (98, -9.97539341449737548828e-01) (99, -9.94304060935974121094e-01) (100, -9.70858573913574218750e-01) (101, 6.71409130096435546875e-01) (102, 9.14655804634094238281e-01) (103, 1.00000000000000000000e+00) (104, 1.00000000000000000000e+00) (105, 1.00000000000000000000e+00) (106, 1.00000000000000000000e+00) (107, 1.00000000000000000000e+00) (108, 1.00000000000000000000e+00) (109, -1.00000000000000000000e+00) (110, -1.00000000000000000000e+00) (111, 1.00000000000000000000e+00) (112, 1.00000000000000000000e+00) (113, -1.00000000000000000000e+00) (114, -1.00000000000000000000e+00) (115, 1.00000000000000000000e+00) (116, -5.25362610816955566406e-01) (117, -1.00000000000000000000e+00) (118, -8.90594720840454101562e-01) (119, -9.72206771373748779297e-01) (120, -9.67748999595642089844e-01) (121, -9.40269649028778076172e-01) (122, -9.75939512252807617188e-01) (123, -5.36740660667419433594e-01) (124, -9.98491406440734863281e-01) (125, -4.32806313037872314453e-01) (126, -4.35559272766113281250e-01) (127, 7.60496482253074645996e-02) (128, -9.99910414218902587891e-01) (129, 1.56069844961166381836e-01) (130, 5.57685017585754394531e-01) (131, -6.82047426700592041016e-01) (132, -5.99167406558990478516e-01) (133, 9.99307632446289062500e-01) (134, 9.98912036418914794922e-01) (135, 1.00000000000000000000e+00) (136, 8.71832370758056640625e-01) (137, -1.00000000000000000000e+00) (138, -1.00000000000000000000e+00) (139, 1.00000000000000000000e+00) (140, 1.00000000000000000000e+00) (141, 1.00000000000000000000e+00) (142, 1.00000000000000000000e+00) (143, -1.00000000000000000000e+00) (144, 1.56372897326946258545e-02) (145, -4.91978794336318969727e-01) (146, -9.47583377361297607422e-01) (147, -1.67097359895706176758e-01) (148, -6.87786757946014404297e-01) (149, -5.49158573150634765625e-01) (150, -9.91310358047485351562e-01) (151, 1.00000000000000000000e+00) (152, -9.22899305820465087891e-01) (153, -5.49098014831542968750e-01) (154, 2.20251649618148803711e-01) (155, -3.77668946981430053711e-01) (156, 7.72021934390068054199e-02) (157, 4.48594212532043457031e-01) (158, 7.55886375904083251953e-01) (159, 4.16067838668823242188e-02) (160, -5.91426253318786621094e-01) (161, 1.82512685656547546387e-01) (162, 9.99307632446289062500e-01) (163, 8.16941857337951660156e-01) (164, -2.35346317291259765625e-01) (165, -1.00000000000000000000e+00) (166, -1.00000000000000000000e+00) (167, -1.00000000000000000000e+00) (168, 1.00000000000000000000e+00) (169, -1.00000000000000000000e+00) (170, 1.00000000000000000000e+00) (171, -1.00000000000000000000e+00) (172, 1.00000000000000000000e+00) (173, -5.25281071662902832031e-01) (174, -6.84834122657775878906e-01) (175, -6.01907193660736083984e-01) (176, -9.54782307147979736328e-01) (177, 6.94637596607208251953e-01) (178, -8.84633302688598632812e-01) (179, -8.71940493583679199219e-01) (180, -2.83962607383728027344e-01) (181, 9.99853670597076416016e-01) (182, 9.98278975486755371094e-01) (183, 9.76206958293914794922e-01) (184, 9.95869338512420654297e-01) (185, 9.99264001846313476562e-01) (186, 9.98775184154510498047e-01) (187, 9.98775184154510498047e-01) (188, 9.98775184154510498047e-01) (189, 9.98188614845275878906e-01) (190, 9.98416006565093994141e-01) (191, 9.99335110187530517578e-01) (192, 4.20239232480525970459e-02) (193, -1.00000000000000000000e+00) (194, -1.00000000000000000000e+00) (195, -1.00000000000000000000e+00) (196, -1.00000000000000000000e+00) (197, -1.00000000000000000000e+00) (198, -1.00000000000000000000e+00) (199, -5.61617463827133178711e-02) (200, -1.84248000383377075195e-01) (201, -3.15864205360412597656e-01) (202, -9.85704839229583740234e-01) (203, -9.77918088436126708984e-01) (204, -9.94166612625122070312e-01) (205, -9.67929601669311523438e-01) (206, 2.18773767352104187012e-01) (207, 9.99853670597076416016e-01) (208, 7.52059519290924072266e-01) (209, 9.96900320053100585938e-01) (210, 9.94833827018737792969e-01) (211, 9.93991494178771972656e-01) (212, 9.98708426952362060547e-01) (213, 9.99978542327880859375e-01) (214, 1.00000000000000000000e+00) (215, 1.00000000000000000000e+00) (216, 9.99868035316467285156e-01) (217, 9.99206840991973876953e-01) (218, 9.52650606632232666016e-01) (219, 9.97830271720886230469e-01) (220, 9.60066318511962890625e-01) (221, -7.01433300971984863281e-01) (222, -8.33732008934020996094e-01) (223, -1.00000000000000000000e+00) (224, 1.00000000000000000000e+00) (225, -1.00000000000000000000e+00) (226, -1.00000000000000000000e+00) (227, 9.68591749668121337891e-01) (228, -7.42808759212493896484e-01) (229, -3.77506703138351440430e-01) (230, -9.80580508708953857422e-01) (231, -9.50834035873413085938e-01) (232, -9.17949020862579345703e-01) (233, 9.75465953350067138672e-01) (234, 1.00000000000000000000e+00) (235, 9.99461770057678222656e-01) (236, 9.97496366500854492188e-01) (237, 9.93991494178771972656e-01) (238, 9.97847437858581542969e-01) (239, 9.97847437858581542969e-01) (240, 9.99974012374877929688e-01) (241, 1.00000000000000000000e+00) (242, 5.61365485191345214844e-01) (243, 1.00000000000000000000e+00) (244, 1.00000000000000000000e+00) (245, 9.72031593322753906250e-01) (246, 8.34196448326110839844e-01) (247, 1.00000000000000000000e+00) (248, 1.00000000000000000000e+00) (249, -5.43230712413787841797e-01) (250, -1.00000000000000000000e+00) (251, -1.00000000000000000000e+00) (252, 1.00000000000000000000e+00) (253, 1.00000000000000000000e+00) (254, -1.00000000000000000000e+00) (255, -1.00000000000000000000e+00) (256, 1.00000000000000000000e+00) (257, -1.60191714763641357422e-01) (258, 1.19360588490962982178e-01) (259, -8.87224256992340087891e-01) (260, 9.97156083583831787109e-01) (261, 1.00000000000000000000e+00) (262, 9.98708426952362060547e-01) (263, 9.95827376842498779297e-01) (264, 9.95827376842498779297e-01) (265, 1.00000000000000000000e+00) (266, 9.99286055564880371094e-01) (267, 1.00000000000000000000e+00) (268, 6.81935727596282958984e-01) (269, -2.89541453123092651367e-01) (270, -3.30777764320373535156e-02) (271, -8.60272943973541259766e-01) (272, 1.00000000000000000000e+00) (273, 8.65813732147216796875e-01) (274, -9.96249496936798095703e-01) (275, 1.00000000000000000000e+00) (276, 1.00000000000000000000e+00) (277, -5.61097264289855957031e-01) (278, -1.00000000000000000000e+00) (279, 9.96770203113555908203e-01) (280, 1.00000000000000000000e+00) (281, 1.00000000000000000000e+00) (282, 1.29087626934051513672e-01) (283, 7.76994228363037109375e-03) (284, 2.09324002265930175781e-01) (285, -9.24194991588592529297e-01) (286, -8.38016033172607421875e-01) (287, 1.00000000000000000000e+00) (288, 9.99775707721710205078e-01) (289, 9.93991494178771972656e-01) (290, 9.89985823631286621094e-01) (291, 1.00000000000000000000e+00) (292, 1.00000000000000000000e+00) (293, 1.00000000000000000000e+00) (294, 8.91885221004486083984e-01) (295, -9.50991511344909667969e-01) (296, -9.80500876903533935547e-01) (297, -9.82769250869750976562e-01) (298, -9.87115025520324707031e-01) (299, -6.25104665756225585938e-01) (300, 9.87806737422943115234e-01) (301, -8.90955388545989990234e-01) (302, 9.56969678401947021484e-01) (303, 1.00000000000000000000e+00) (304, 1.00000000000000000000e+00) (305, -5.40485680103302001953e-01) (306, -1.00000000000000000000e+00) (307, -1.00000000000000000000e+00) (308, 1.00000000000000000000e+00) (309, 1.00000000000000000000e+00) (310, -8.78334522247314453125e-01) (311, -9.19278502464294433594e-01) (312, -5.75399398803710937500e-03) (313, -8.44678103923797607422e-01) (314, 1.00000000000000000000e+00) (315, 1.00000000000000000000e+00) (316, 9.93991494178771972656e-01) (317, 9.89985823631286621094e-01) (318, 1.00000000000000000000e+00) (319, 1.00000000000000000000e+00) (320, 1.00000000000000000000e+00) (321, 8.68726611137390136719e-01) (322, -9.72074091434478759766e-01) (323, -9.79243934154510498047e-01) (324, -8.22783470153808593750e-01) (325, -9.82527256011962890625e-01) (326, -9.97070252895355224609e-01) (327, -7.21912324428558349609e-01) (328, 1.00000000000000000000e+00) (329, 1.00000000000000000000e+00) (330, 1.00000000000000000000e+00) (331, 1.00000000000000000000e+00) (332, 1.00000000000000000000e+00) (333, -1.00000000000000000000e+00) (334, -1.00000000000000000000e+00) (335, 8.38329792022705078125e-01) (336, -1.00000000000000000000e+00) (337, 1.00000000000000000000e+00) (338, 9.67078566551208496094e-01) (339, -4.85449612140655517578e-01) (340, 2.64587819576263427734e-01) (341, 1.00000000000000000000e+00) (342, 1.00000000000000000000e+00) (343, 1.00000000000000000000e+00) (344, 9.89985823631286621094e-01) (345, 1.00000000000000000000e+00) (346, 1.00000000000000000000e+00) (347, 1.00000000000000000000e+00) (348, 1.00000000000000000000e+00) (349, -1.31697073578834533691e-01) (350, -9.61792230606079101562e-01) (351, -9.78872776031494140625e-01) (352, -9.52014684677124023438e-01) (353, -9.85425651073455810547e-01) (354, -9.95069324970245361328e-01) (355, -3.45197647809982299805e-01) (356, 1.00000000000000000000e+00) (357, 1.00000000000000000000e+00) (358, 1.00000000000000000000e+00) (359, 1.00000000000000000000e+00) (360, 1.00000000000000000000e+00) (361, -7.02766239643096923828e-01) (362, -1.00000000000000000000e+00) (363, -1.00000000000000000000e+00) (364, 1.00000000000000000000e+00) (365, 1.00000000000000000000e+00) (366, -1.51144102215766906738e-01) (367, -9.98460948467254638672e-01) (368, 1.00000000000000000000e+00) (369, 1.00000000000000000000e+00) (370, 1.00000000000000000000e+00) (371, 1.00000000000000000000e+00) (372, 1.00000000000000000000e+00) (373, 1.00000000000000000000e+00) (374, 1.00000000000000000000e+00) (375, 1.00000000000000000000e+00) (376, -9.26928281784057617188e-01) (377, -9.96501266956329345703e-01) (378, -9.94974851608276367188e-01) (379, 1.38070702552795410156e-01) (380, -2.54145920276641845703e-01) (381, -9.84316706657409667969e-01) (382, -9.88289833068847656250e-01) (383, 1.00000000000000000000e+00) (384, 1.00000000000000000000e+00) (385, 1.00000000000000000000e+00) (386, 1.00000000000000000000e+00) (387, 1.00000000000000000000e+00) (388, 1.00000000000000000000e+00) (389, 8.40375602245330810547e-01) (390, -1.00000000000000000000e+00) (391, -1.00000000000000000000e+00) (392, -1.00000000000000000000e+00) (393, 1.00000000000000000000e+00) (394, 5.34449994564056396484e-01) (395, -9.99690651893615722656e-01) (396, 1.00000000000000000000e+00) (397, 1.00000000000000000000e+00) (398, 1.00000000000000000000e+00) (399, 1.00000000000000000000e+00) (400, 1.00000000000000000000e+00) (401, 1.00000000000000000000e+00) (402, 1.00000000000000000000e+00) (403, 1.00000000000000000000e+00) (404, -8.37755799293518066406e-01) (405, -5.88679730892181396484e-01) (406, -3.02119940519332885742e-01) (407, -3.26687365770339965820e-01) (408, -5.96872746944427490234e-01) (409, -7.86637365818023681641e-01) (410, -9.82098460197448730469e-01) (411, 1.00000000000000000000e+00) (412, 1.00000000000000000000e+00) (413, 1.00000000000000000000e+00) (414, 1.00000000000000000000e+00) (415, 1.00000000000000000000e+00) (416, 1.00000000000000000000e+00) (417, 8.57778549194335937500e-01) (418, -1.00000000000000000000e+00) (419, -1.00000000000000000000e+00) (420, -1.00000000000000000000e+00) (421, 1.00000000000000000000e+00) (422, 1.00000000000000000000e+00) (423, -1.00000000000000000000e+00) (424, 1.00000000000000000000e+00) (425, 1.00000000000000000000e+00) (426, 1.00000000000000000000e+00) (427, 1.00000000000000000000e+00) (428, 1.00000000000000000000e+00) (429, 1.00000000000000000000e+00) (430, 9.93146598339080810547e-01) (431, 8.53931963443756103516e-01) (432, 9.70323905348777770996e-02) (433, -2.35719755291938781738e-01) (434, -1.19289215654134750366e-02) (435, 3.16328525543212890625e-01) (436, -5.42022526264190673828e-01) (437, -9.83145058155059814453e-01) (438, 5.29131710529327392578e-01) (439, 1.00000000000000000000e+00) (440, 1.00000000000000000000e+00) (441, 1.00000000000000000000e+00) (442, 1.00000000000000000000e+00) (443, 1.00000000000000000000e+00) (444, 1.00000000000000000000e+00) (445, -1.00000000000000000000e+00) (446, -1.00000000000000000000e+00) (447, -1.00000000000000000000e+00) (448, -1.00000000000000000000e+00) (449, 1.00000000000000000000e+00) (450, 1.00000000000000000000e+00) (451, -1.00000000000000000000e+00) (452, 8.94020318984985351562e-01) (453, 1.00000000000000000000e+00) (454, 1.00000000000000000000e+00) (455, 1.00000000000000000000e+00) (456, 1.00000000000000000000e+00) (457, 1.00000000000000000000e+00) (458, -5.36426186561584472656e-01) (459, 5.86065530776977539062e-01) (460, -4.05813664197921752930e-01) (461, -1.29802972078323364258e-01) (462, -2.03073948621749877930e-01) (463, -7.25306510925292968750e-01) (464, -9.97714221477508544922e-01) (465, -9.84905421733856201172e-01) (466, 8.91088724136352539062e-01) (467, 1.00000000000000000000e+00) (468, 1.00000000000000000000e+00) (469, 1.00000000000000000000e+00) (470, 1.00000000000000000000e+00) (471, 1.00000000000000000000e+00) (472, 9.90457177162170410156e-01) (473, -1.00000000000000000000e+00) (474, -1.00000000000000000000e+00) (475, -1.00000000000000000000e+00) (476, 1.00000000000000000000e+00) (477, -1.00000000000000000000e+00) (478, -1.00000000000000000000e+00) (479, -1.00000000000000000000e+00) (480, 8.56485962867736816406e-01) (481, 9.95925188064575195312e-01) (482, 1.00000000000000000000e+00) (483, 1.00000000000000000000e+00) (484, 1.00000000000000000000e+00) (485, 1.00000000000000000000e+00) (486, -3.76635879278182983398e-01) (487, 2.08191379904747009277e-01) (488, 1.94403529167175292969e-01) (489, 2.55667001008987426758e-01) (490, 2.81638383865356445312e-01) (491, -6.72720789909362792969e-01) (492, -6.61744713783264160156e-01) (493, 3.42315018177032470703e-01) (494, 1.00000000000000000000e+00) (495, 1.00000000000000000000e+00) (496, 1.00000000000000000000e+00) (497, 9.97496366500854492188e-01) (498, 9.99793469905853271484e-01) (499, 9.71095979213714599609e-01) (500, -1.00000000000000000000e+00) (501, -1.00000000000000000000e+00) (502, -1.00000000000000000000e+00) (503, 1.00000000000000000000e+00) (504, -1.00000000000000000000e+00) (505, -1.00000000000000000000e+00) (506, 1.00000000000000000000e+00) (507, -1.00000000000000000000e+00) (508, -1.00000000000000000000e+00) (509, 9.80240643024444580078e-01) (510, 9.92271959781646728516e-01) (511, 1.00000000000000000000e+00) (512, 1.00000000000000000000e+00) (513, 1.00000000000000000000e+00) (514, 9.19735908508300781250e-01) (515, 1.88030675053596496582e-01) (516, 1.97243601083755493164e-01) (517, 1.80707558989524841309e-01) (518, -2.50176399946212768555e-01) (519, 4.11666363477706909180e-01) (520, 3.47819119691848754883e-01) (521, 9.05701994895935058594e-01) (522, 9.99948322772979736328e-01) (523, 9.95887994766235351562e-01) (524, 9.99876081943511962891e-01) (525, 9.99529719352722167969e-01) (526, 8.84210646152496337891e-01) (527, -1.00000000000000000000e+00) (528, -1.00000000000000000000e+00) (529, -1.00000000000000000000e+00) (530, -1.00000000000000000000e+00) (531, -1.00000000000000000000e+00) (532, 1.00000000000000000000e+00) (533, 1.00000000000000000000e+00) (534, -9.39937353134155273438e-01) (535, 1.00000000000000000000e+00) (536, -1.00000000000000000000e+00) (537, -9.71176922321319580078e-01) (538, 4.69483733177185058594e-01) (539, 4.91571396589279174805e-01) (540, 8.75324428081512451172e-01) (541, 6.96731865406036376953e-01) (542, 8.40583324432373046875e-01) (543, 9.70379114151000976562e-01) (544, 5.24865090847015380859e-01) (545, -7.83374428749084472656e-01) (546, 1.00000000000000000000e+00) (547, 1.00000000000000000000e+00) (548, 1.00000000000000000000e+00) (549, 9.99876081943511962891e-01) (550, 9.99948322772979736328e-01) (551, 1.00000000000000000000e+00) (552, 9.90954637527465820312e-01) (553, 7.04482972621917724609e-01) (554, 1.00000000000000000000e+00) (555, 1.00000000000000000000e+00) (556, -1.00000000000000000000e+00) (557, 1.00000000000000000000e+00) (558, -1.00000000000000000000e+00) (559, -1.00000000000000000000e+00) (560, 1.00000000000000000000e+00) (561, 1.00000000000000000000e+00) (562, -4.83973324298858642578e-01) (563, 1.00000000000000000000e+00) (564, 1.00000000000000000000e+00) (565, -9.29464519023895263672e-01) (566, -6.20995461940765380859e-01) (567, 7.81436786055564880371e-02) (568, 6.31698071956634521484e-01) (569, 3.41316759586334228516e-01) (570, 1.00000000000000000000e+00) (571, 9.96222734451293945312e-01) (572, 1.00000000000000000000e+00) (573, 1.00000000000000000000e+00) (574, 9.99948322772979736328e-01) (575, 9.99286055564880371094e-01) (576, 9.99876081943511962891e-01) (577, 9.99461770057678222656e-01) (578, 9.99282777309417724609e-01) (579, 9.99529719352722167969e-01) (580, 5.74326038360595703125e-01) (581, -6.18970036506652832031e-01) (582, 1.00000000000000000000e+00) (583, 1.00000000000000000000e+00) (584, -9.65128302574157714844e-01) (585, -8.81919562816619873047e-01) (586, -9.90847408771514892578e-01) (587, -1.00000000000000000000e+00) (588, 1.00000000000000000000e+00) (589, -1.00000000000000000000e+00) (590, -2.68962204456329345703e-01) (591, 1.00000000000000000000e+00) (592, 1.00000000000000000000e+00) (593, 1.00000000000000000000e+00) (594, -1.50490179657936096191e-01) (595, 5.89135348796844482422e-01) (596, 9.99156713485717773438e-01) (597, 9.99264001846313476562e-01) (598, -1.13984651863574981689e-01) (599, 1.00000000000000000000e+00) (600, 9.99876081943511962891e-01) (601, 9.97847437858581542969e-01) (602, 9.97496366500854492188e-01) (603, 9.97496366500854492188e-01) (604, 9.98708426952362060547e-01) (605, 8.34310889244079589844e-01) (606, 4.48134005069732666016e-01) (607, 7.06955552101135253906e-01) (608, -8.63690257072448730469e-01) (609, -9.59357619285583496094e-01) (610, -9.72720503807067871094e-01) (611, -7.05008864402770996094e-01) (612, -3.93984287977218627930e-01) (613, 2.92082458734512329102e-01) (614, 1.00000000000000000000e+00) (615, 1.00000000000000000000e+00) (616, 1.00000000000000000000e+00) (617, 1.00000000000000000000e+00) (618, -1.17789320647716522217e-01) (619, 1.00000000000000000000e+00) (620, 1.00000000000000000000e+00) (621, 1.00000000000000000000e+00) (622, -5.92099308967590332031e-01) (623, -9.49084639549255371094e-01) (624, 3.37016761302947998047e-01) (625, 9.98775184154510498047e-01) (626, 9.99264001846313476562e-01) (627, 9.99264001846313476562e-01) (628, 9.99790847301483154297e-01) (629, 9.98794734477996826172e-01) (630, 9.99136924743652343750e-01) (631, 9.03590202331542968750e-01) (632, 9.83262121677398681641e-01) (633, 9.93025898933410644531e-01) (634, 6.66706442832946777344e-01) (635, -1.00512556731700897217e-01) (636, -7.52873897552490234375e-01) (637, -9.52658772468566894531e-01) (638, -5.82782566547393798828e-01) (639, -1.21704936027526855469e-01) (640, 4.97513175010681152344e-01) (641, -7.94504582881927490234e-01) (642, 1.00000000000000000000e+00) (643, 1.00000000000000000000e+00) (644, 1.00000000000000000000e+00) (645, 1.00000000000000000000e+00) (646, -1.00000000000000000000e+00) (647, -9.02322173118591308594e-01) (648, 6.56750202178955078125e-01) (649, -2.63939380645751953125e-01) (650, -4.18465733528137207031e-01) (651, 8.44305455684661865234e-01) (652, -7.82351732254028320312e-01) (653, 9.98650372028350830078e-01) (654, 9.99264001846313476562e-01) (655, 9.66524422168731689453e-01) (656, 5.37233173847198486328e-01) (657, 4.44679737091064453125e-01) (658, 9.03590202331542968750e-01) (659, 9.83262121677398681641e-01) (660, 9.97094094753265380859e-01) (661, 9.99799132347106933594e-01) (662, 9.98982131481170654297e-01) (663, 9.97828066349029541016e-01) (664, 9.77755606174468994141e-01) (665, -8.95077109336853027344e-01) (666, 6.17006301879882812500e-01) (667, 1.00000000000000000000e+00) (668, 7.30628371238708496094e-01) (669, -1.00000000000000000000e+00) (670, -1.00000000000000000000e+00) (671, 1.00000000000000000000e+00) (672, 1.00000000000000000000e+00) (673, 1.00000000000000000000e+00) (674, -1.00000000000000000000e+00) (675, 1.00000000000000000000e+00) (676, -8.64297688007354736328e-01) (677, 2.29152351617813110352e-01) (678, -4.70132470130920410156e-01) (679, -6.21939301490783691406e-01) (680, -1.00000000000000000000e+00) (681, -8.03587198257446289062e-01) (682, -1.57835781574249267578e-01) (683, -1.24507576227188110352e-01) (684, -4.01601731777191162109e-01) (685, -8.07197570800781250000e-01) (686, 1.96833238005638122559e-01) (687, 6.70365810394287109375e-01) (688, 1.00000000000000000000e+00) (689, 9.99937653541564941406e-01) (690, 9.95028614997863769531e-01) (691, 1.00000000000000000000e+00) (692, 1.00000000000000000000e+00) (693, 1.00000000000000000000e+00) (694, 8.67999672889709472656e-01) (695, 1.00000000000000000000e+00) (696, -9.61796045303344726562e-01) (697, -1.00000000000000000000e+00) (698, -1.00000000000000000000e+00) (699, 1.00000000000000000000e+00) (700, 1.00000000000000000000e+00) (701, 1.00000000000000000000e+00) (702, -8.12231361865997314453e-01) (703, 1.00000000000000000000e+00) (704, 1.00000000000000000000e+00) (705, -1.00000000000000000000e+00) (706, -1.00000000000000000000e+00) (707, -1.00000000000000000000e+00) (708, -1.00000000000000000000e+00) (709, -1.00000000000000000000e+00) (710, -1.60191714763641357422e-01) (711, -1.60191714763641357422e-01) (712, -9.59523618221282958984e-01) (713, -8.86879920959472656250e-01) (714, -8.28578114509582519531e-01) (715, -1.71974197030067443848e-01) (716, 7.42092669010162353516e-01) (717, 1.00000000000000000000e+00) (718, 1.00000000000000000000e+00) (719, 1.00000000000000000000e+00) (720, 1.00000000000000000000e+00) (721, 1.00000000000000000000e+00) (722, 1.00000000000000000000e+00) (723, 1.00000000000000000000e+00) (724, 1.00000000000000000000e+00) (725, 7.84742712974548339844e-01) (726, -1.00000000000000000000e+00) (727, 1.00000000000000000000e+00) (728, 1.00000000000000000000e+00) (729, 1.00000000000000000000e+00) (730, 1.00000000000000000000e+00) (731, 1.00000000000000000000e+00) (732, 4.88548725843429565430e-01) (733, -1.00000000000000000000e+00) (734, -1.00000000000000000000e+00) (735, -1.00000000000000000000e+00) (736, -1.00000000000000000000e+00) (737, -1.00000000000000000000e+00) (738, -1.00000000000000000000e+00) (739, 1.00000000000000000000e+00) (740, 1.00000000000000000000e+00) (741, 1.00000000000000000000e+00) (742, 1.00000000000000000000e+00) (743, -1.00000000000000000000e+00) (744, -1.00000000000000000000e+00) (745, -1.00000000000000000000e+00) (746, -1.00000000000000000000e+00) (747, 8.95880997180938720703e-01) (748, 1.00000000000000000000e+00) (749, -7.98868656158447265625e-01) (750, -1.00000000000000000000e+00) (751, -1.00000000000000000000e+00) (752, 1.00000000000000000000e+00) (753, -1.00000000000000000000e+00) (754, 1.00000000000000000000e+00) (755, 1.00000000000000000000e+00) (756, 1.00000000000000000000e+00) (757, 1.00000000000000000000e+00) (758, 1.00000000000000000000e+00) (759, 1.00000000000000000000e+00) (760, -1.00000000000000000000e+00) (761, -1.00000000000000000000e+00) (762, -1.00000000000000000000e+00) (763, -1.00000000000000000000e+00) (764, -1.00000000000000000000e+00) (765, -1.00000000000000000000e+00) (766, -3.46696794033050537109e-01) (767, 1.00000000000000000000e+00) (768, 1.00000000000000000000e+00) (769, 1.00000000000000000000e+00) (770, -1.00000000000000000000e+00) (771, -1.00000000000000000000e+00) (772, -1.00000000000000000000e+00) (773, -1.00000000000000000000e+00) (774, -1.00000000000000000000e+00) (775, -1.00000000000000000000e+00) (776, -9.84954714775085449219e-01) (777, -1.00000000000000000000e+00) (778, -1.00000000000000000000e+00) (779, -1.00000000000000000000e+00) (780, 1.00000000000000000000e+00) (781, 1.00000000000000000000e+00) (782, 1.00000000000000000000e+00) (783, 1.00000000000000000000e+00) (784, 1.00000000000000000000e+00) (0, 1.00000000000000000000e+00) (1, 1.00000000000000000000e+00) (2, 1.00000000000000000000e+00) (3, 1.00000000000000000000e+00) (4, 1.00000000000000000000e+00) (5, 1.00000000000000000000e+00) (6, 1.00000000000000000000e+00) (7, 1.00000000000000000000e+00) (8, 1.00000000000000000000e+00) (9, 1.00000000000000000000e+00) (10, 1.00000000000000000000e+00) (11, 1.00000000000000000000e+00) (12, -1.00000000000000000000e+00) (13, 1.00000000000000000000e+00) (14, 1.00000000000000000000e+00) (15, 1.00000000000000000000e+00) (16, 1.00000000000000000000e+00) (17, 1.00000000000000000000e+00) (18, 1.00000000000000000000e+00) (19, 1.00000000000000000000e+00) (20, 1.00000000000000000000e+00) (21, 1.00000000000000000000e+00) (22, 1.00000000000000000000e+00) (23, 1.00000000000000000000e+00) (24, 1.00000000000000000000e+00) (25, 1.00000000000000000000e+00) (26, 1.00000000000000000000e+00) (27, 1.00000000000000000000e+00) (28, 1.00000000000000000000e+00) (29, 1.00000000000000000000e+00) (30, 1.00000000000000000000e+00) (31, 1.00000000000000000000e+00) (32, -1.00000000000000000000e+00) (33, -1.00000000000000000000e+00) (34, -1.00000000000000000000e+00) (35, -1.00000000000000000000e+00) (36, -1.00000000000000000000e+00) (37, -1.00000000000000000000e+00) (38, -1.00000000000000000000e+00) (39, -1.00000000000000000000e+00) (40, -1.00000000000000000000e+00) (41, -1.00000000000000000000e+00) (42, -1.00000000000000000000e+00) (43, -1.00000000000000000000e+00) (44, 1.19771905243396759033e-01) (45, -1.00000000000000000000e+00) (46, -1.00000000000000000000e+00) (47, -1.00000000000000000000e+00) (48, -1.00000000000000000000e+00) (49, -1.00000000000000000000e+00) (50, -1.00000000000000000000e+00) (51, -1.00000000000000000000e+00) (52, 1.00000000000000000000e+00) (53, 1.00000000000000000000e+00) (54, 1.00000000000000000000e+00) (55, 1.00000000000000000000e+00) (56, 1.00000000000000000000e+00) (57, 1.00000000000000000000e+00) (58, -1.00000000000000000000e+00) (59, -1.00000000000000000000e+00) (60, -1.00000000000000000000e+00) (61, -1.00000000000000000000e+00) (62, -1.00000000000000000000e+00) (63, -1.00000000000000000000e+00) (64, -1.00000000000000000000e+00) (65, -1.00000000000000000000e+00) (66, -1.00000000000000000000e+00) (67, -8.52814555168151855469e-01) (68, -1.00000000000000000000e+00) (69, -1.00000000000000000000e+00) (70, -1.00000000000000000000e+00) (71, -1.00000000000000000000e+00) (72, -1.00000000000000000000e+00) (73, -1.00000000000000000000e+00) (74, -1.00000000000000000000e+00) (75, -1.00000000000000000000e+00) (76, -1.00000000000000000000e+00) (77, -1.00000000000000000000e+00) (78, -1.00000000000000000000e+00) (79, -1.00000000000000000000e+00) (80, 5.18730878829956054688e-01) (81, 1.00000000000000000000e+00) (82, 1.00000000000000000000e+00) (83, 1.00000000000000000000e+00) (84, 1.00000000000000000000e+00) (85, 1.00000000000000000000e+00) (86, 1.00000000000000000000e+00) (87, -9.41969037055969238281e-01) (88, 8.13666701316833496094e-01) (89, -1.00000000000000000000e+00) (90, -1.00000000000000000000e+00) (91, 6.17722690105438232422e-01) (92, -1.00000000000000000000e+00) (93, -1.00000000000000000000e+00) (94, -9.71103191375732421875e-01) (95, -3.74956011772155761719e-01) (96, -2.11345821619033813477e-01) (97, 4.18406397104263305664e-01) (98, -8.22840094566345214844e-01) (99, -8.75326633453369140625e-01) (100, -5.93844175338745117188e-01) (101, -1.00000000000000000000e+00) (102, -1.00000000000000000000e+00) (103, -1.00000000000000000000e+00) (104, -1.00000000000000000000e+00) (105, -1.00000000000000000000e+00) (106, -1.00000000000000000000e+00) (107, -1.00000000000000000000e+00) (108, -1.00000000000000000000e+00) (109, -1.00000000000000000000e+00) (110, -1.00000000000000000000e+00) (111, 1.00000000000000000000e+00) (112, 1.00000000000000000000e+00) (113, -1.00000000000000000000e+00) (114, 1.00000000000000000000e+00) (115, -1.00000000000000000000e+00) (116, -6.73756182193756103516e-01) (117, -9.93744134902954101562e-01) (118, 1.72202527523040771484e-01) (119, -9.12141680717468261719e-01) (120, 9.93633449077606201172e-01) (121, 5.23324429988861083984e-01) (122, 1.00000000000000000000e+00) (123, 4.87027913331985473633e-01) (124, 9.02895748615264892578e-01) (125, 8.30993771553039550781e-01) (126, -3.05869817733764648438e-01) (127, 9.75809633731842041016e-01) (128, 2.83160060644149780273e-01) (129, 4.06704604625701904297e-01) (130, -1.72850638628005981445e-01) (131, 1.90366860479116439819e-02) (132, -3.43327552080154418945e-01) (133, -1.00000000000000000000e+00) (134, -5.08254408836364746094e-01) (135, -9.90022242069244384766e-01) (136, -1.00000000000000000000e+00) (137, 6.62434920668601989746e-02) (138, 5.83202660083770751953e-01) (139, -1.00000000000000000000e+00) (140, 1.00000000000000000000e+00) (141, 1.00000000000000000000e+00) (142, -1.00000000000000000000e+00) (143, 7.79124081134796142578e-01) (144, 9.20457243919372558594e-01) (145, 9.97085392475128173828e-01) (146, 3.76120895147323608398e-01) (147, 3.24660778045654296875e-01) (148, 5.59755027294158935547e-01) (149, 9.69745814800262451172e-01) (150, 9.94665443897247314453e-01) (151, 7.42712438106536865234e-01) (152, 1.27913922071456909180e-01) (153, 7.73216843605041503906e-01) (154, 3.44646841287612915039e-01) (155, 4.72239881753921508789e-01) (156, 1.92638784646987915039e-01) (157, -6.08575604856014251709e-02) (158, 1.68745636940002441406e-01) (159, 3.51919502019882202148e-01) (160, 7.62698575854301452637e-02) (161, 4.80886757373809814453e-01) (162, 9.72126007080078125000e-01) (163, 8.47821056842803955078e-01) (164, -3.38407695293426513672e-01) (165, -9.17924046516418457031e-01) (166, 4.93397623300552368164e-01) (167, -1.00000000000000000000e+00) (168, 1.00000000000000000000e+00) (169, -1.00000000000000000000e+00) (170, -1.00000000000000000000e+00) (171, -8.43864738941192626953e-01) (172, 6.55979573726654052734e-01) (173, -6.70308232307434082031e-01) (174, 8.02493751049041748047e-01) (175, 7.79886603355407714844e-01) (176, -7.01392948627471923828e-01) (177, -9.34712767601013183594e-01) (178, 4.76251929998397827148e-01) (179, 4.12408173084259033203e-01) (180, 1.62418633699417114258e-01) (181, 8.75321328639984130859e-01) (182, 2.29060083627700805664e-01) (183, -1.64113029837608337402e-01) (184, 6.62618875503540039062e-01) (185, 2.06497870385646820068e-03) (186, 2.38998323678970336914e-01) (187, 2.18704029917716979980e-01) (188, 4.60274964570999145508e-01) (189, 3.57815414667129516602e-01) (190, 3.84454131126403808594e-01) (191, 1.86742469668388366699e-01) (192, -5.76299965381622314453e-01) (193, 1.00000000000000000000e+00) (194, 1.00000000000000000000e+00) (195, -7.66215324401855468750e-01) (196, -1.00000000000000000000e+00) (197, -1.00000000000000000000e+00) (198, -2.05659374594688415527e-01) (199, -1.00000000000000000000e+00) (200, 9.15218591690063476562e-01) (201, 5.86985170841217041016e-01) (202, -4.35805246233940124512e-02) (203, -9.82334371656179428101e-03) (204, -4.03472363948822021484e-01) (205, 1.28230482339859008789e-01) (206, 3.01353514194488525391e-01) (207, -1.89217150211334228516e-01) (208, -1.44088983535766601562e-01) (209, 4.97223317623138427734e-01) (210, 7.62680947780609130859e-01) (211, 1.82308539748191833496e-01) (212, 5.39159514009952545166e-02) (213, 3.95092606544494628906e-01) (214, 3.32667857408523559570e-01) (215, 8.83982598781585693359e-01) (216, 1.37768290005624294281e-03) (217, 2.02746346592903137207e-01) (218, -2.71057844161987304688e-01) (219, -7.29731440544128417969e-01) (220, 9.37463462352752685547e-01) (221, 1.00000000000000000000e+00) (222, 1.00000000000000000000e+00) (223, 9.49088275432586669922e-01) (224, -1.00000000000000000000e+00) (225, -1.00000000000000000000e+00) (226, -3.35929661989212036133e-01) (227, 2.87272095680236816406e-01) (228, -7.61684358119964599609e-01) (229, 3.88149499893188476562e-01) (230, 1.86631038784980773926e-01) (231, -8.66000413894653320312e-01) (232, 5.37163466215133666992e-02) (233, -4.02677327394485473633e-01) (234, -5.39676547050476074219e-01) (235, -6.75121024250984191895e-02) (236, -4.95047979056835174561e-02) (237, -3.45648854970932006836e-01) (238, 5.22782802581787109375e-01) (239, 6.34399056434631347656e-01) (240, 3.93260084092617034912e-02) (241, 6.58925473690032958984e-01) (242, 7.79725492000579833984e-01) (243, 1.87146335840225219727e-01) (244, 2.82787710428237915039e-01) (245, 3.13411742448806762695e-01) (246, -7.28812396526336669922e-01) (247, -4.31127488613128662109e-01) (248, 8.90082657337188720703e-01) (249, 1.00000000000000000000e+00) (250, 1.00000000000000000000e+00) (251, 1.00000000000000000000e+00) (252, -1.00000000000000000000e+00) (253, 1.00000000000000000000e+00) (254, -1.00000000000000000000e+00) (255, -9.78442013263702392578e-01) (256, -4.07576173543930053711e-01) (257, 3.03801268339157104492e-01) (258, -7.63672813773155212402e-02) (259, 6.96254447102546691895e-02) (260, -2.57627099752426147461e-01) (261, -6.55298531055450439453e-01) (262, -8.38723063468933105469e-01) (263, -1.15843020379543304443e-01) (264, 2.23155207931995391846e-02) (265, -2.37986281514167785645e-01) (266, 3.28796714544296264648e-01) (267, 7.91833102703094482422e-01) (268, 6.92716896533966064453e-01) (269, 4.58915680646896362305e-01) (270, 3.91806989908218383789e-01) (271, 6.24031536281108856201e-02) (272, 6.13679111003875732422e-01) (273, 1.09046706929802894592e-02) (274, -7.62923240661621093750e-01) (275, -6.15500807762145996094e-01) (276, 1.00000000000000000000e+00) (277, 1.00000000000000000000e+00) (278, 1.00000000000000000000e+00) (279, 8.49298477172851562500e-01) (280, -1.00000000000000000000e+00) (281, 1.00000000000000000000e+00) (282, -1.00000000000000000000e+00) (283, 4.16118185967206954956e-03) (284, -7.63815224170684814453e-01) (285, 1.91324561834335327148e-01) (286, -9.57712769508361816406e-01) (287, -6.30738854408264160156e-01) (288, -4.38556700944900512695e-01) (289, -7.93935954570770263672e-01) (290, -6.98467135429382324219e-01) (291, -9.07863855361938476562e-01) (292, -4.58605349063873291016e-01) (293, 3.65123935043811798096e-02) (294, 9.82084035873413085938e-01) (295, 1.36986613273620605469e-01) (296, 7.44646430015563964844e-01) (297, -3.31887036561965942383e-01) (298, 1.56655207276344299316e-01) (299, 1.59661933779716491699e-01) (300, -3.43241542577743530273e-01) (301, -8.52878034114837646484e-01) (302, -3.33253532648086547852e-01) (303, -6.06969833374023437500e-01) (304, -8.39925646781921386719e-01) (305, 9.94737565517425537109e-01) (306, 6.81851744651794433594e-01) (307, 1.00000000000000000000e+00) (308, -1.00000000000000000000e+00) (309, -1.00000000000000000000e+00) (310, -1.00000000000000000000e+00) (311, -1.00000000000000000000e+00) (312, -9.85811829566955566406e-01) (313, -7.92323887348175048828e-01) (314, -8.70066285133361816406e-01) (315, -3.44646513462066650391e-01) (316, -8.22128176689147949219e-01) (317, -3.13223481178283691406e-01) (318, -5.73948144912719726562e-01) (319, -8.57505857944488525391e-01) (320, -1.00000000000000000000e+00) (321, -9.47511732578277587891e-01) (322, 4.21987026929855346680e-01) (323, -1.01145513355731964111e-01) (324, -3.80662173032760620117e-01) (325, 1.47939294576644897461e-01) (326, -5.29748141765594482422e-01) (327, -5.15369772911071777344e-01) (328, -1.81221172213554382324e-01) (329, -6.15620195865631103516e-01) (330, 5.94295933842658996582e-02) (331, -2.44337663054466247559e-01) (332, -3.26360613107681274414e-01) (333, 9.90547895431518554688e-01) (334, 2.90498316287994384766e-01) (335, 5.17614483833312988281e-01) (336, -1.00000000000000000000e+00) (337, -1.00000000000000000000e+00) (338, -1.00000000000000000000e+00) (339, 1.74501240253448486328e-01) (340, -4.51375186443328857422e-01) (341, -6.25076472759246826172e-01) (342, -2.24859833717346191406e-01) (343, -2.59536534547805786133e-01) (344, -2.16329053044319152832e-01) (345, -7.77951836585998535156e-01) (346, 1.87084227800369262695e-01) (347, -6.40687167644500732422e-01) (348, -8.57536911964416503906e-01) (349, -3.00469636917114257812e-01) (350, 6.86934351921081542969e-01) (351, 2.33546406030654907227e-01) (352, -7.08042263984680175781e-01) (353, -6.43023550510406494141e-01) (354, -2.70261764526367187500e-01) (355, -6.45251989364624023438e-01) (356, -7.60337337851524353027e-02) (357, 2.05715313553810119629e-01) (358, -2.02792614698410034180e-01) (359, -3.40694576501846313477e-01) (360, 8.69236707687377929688e-01) (361, 1.00000000000000000000e+00) (362, -1.00000000000000000000e+00) (363, 8.01009654998779296875e-01) (364, 1.00000000000000000000e+00) (365, -1.00000000000000000000e+00) (366, -1.00000000000000000000e+00) (367, -7.48641729354858398438e-01) (368, 5.88045239448547363281e-01) (369, -2.13782578706741333008e-01) (370, -1.25721648335456848145e-01) (371, -5.76637238264083862305e-02) (372, -9.57918316125869750977e-02) (373, -8.84560793638229370117e-02) (374, 1.61151856184005737305e-01) (375, -3.28810840845108032227e-01) (376, -7.38328099250793457031e-01) (377, 1.52568072080612182617e-01) (378, 1.59382689744234085083e-02) (379, -8.14755976200103759766e-01) (380, -4.08096849918365478516e-01) (381, -4.39148813486099243164e-01) (382, -6.05480261147022247314e-02) (383, -4.59336377680301666260e-02) (384, -4.04173105955123901367e-01) (385, -8.55517327785491943359e-01) (386, -5.25078773498535156250e-01) (387, 4.50901299715042114258e-01) (388, 2.07140237092971801758e-01) (389, 8.31351518630981445312e-01) (390, 4.59551632404327392578e-01) (391, 1.00000000000000000000e+00) (392, 5.64421772956848144531e-01) (393, -1.00000000000000000000e+00) (394, -1.00000000000000000000e+00) (395, -1.00000000000000000000e+00) (396, 5.98915159702301025391e-01) (397, -6.43857344985008239746e-02) (398, 5.39224632084369659424e-02) (399, -2.78550922870635986328e-01) (400, 2.00072556734085083008e-01) (401, 6.27232551574707031250e-01) (402, 3.58934104442596435547e-01) (403, -4.67375934123992919922e-01) (404, 2.22524479031562805176e-01) (405, 1.30438879132270812988e-01) (406, -2.56515681743621826172e-01) (407, -8.86233672499656677246e-02) (408, -2.10309088230133056641e-01) (409, -6.83435559272766113281e-01) (410, 2.61572927236557006836e-01) (411, -2.16240491718053817749e-02) (412, 1.24087095260620117188e-01) (413, 7.00660705566406250000e-01) (414, -5.22293448448181152344e-01) (415, -1.19888549670577049255e-02) (416, -1.78401008248329162598e-01) (417, -8.38553249835968017578e-01) (418, 1.00000000000000000000e+00) (419, 1.00000000000000000000e+00) (420, -1.00000000000000000000e+00) (421, -1.00000000000000000000e+00) (422, -1.00000000000000000000e+00) (423, -1.00000000000000000000e+00) (424, -5.73654659092426300049e-02) (425, -1.91727653145790100098e-01) (426, -3.32967787981033325195e-01) (427, -3.40941458940505981445e-01) (428, 1.98899090290069580078e-01) (429, 5.59276103973388671875e-01) (430, -1.04598224163055419922e-01) (431, -3.32866936922073364258e-01) (432, -4.46880370378494262695e-01) (433, 1.40113374218344688416e-02) (434, 1.19828842580318450928e-02) (435, -3.41796189546585083008e-01) (436, -9.98466372489929199219e-01) (437, -6.77963137626647949219e-01) (438, -1.76277726888656616211e-01) (439, 1.76758557558059692383e-01) (440, 4.55736778676509857178e-02) (441, -4.95988547801971435547e-01) (442, -4.24722790718078613281e-01) (443, -7.21619844436645507812e-01) (444, -1.00000000000000000000e+00) (445, -6.25136196613311767578e-01) (446, 1.00000000000000000000e+00) (447, 1.00000000000000000000e+00) (448, -1.00000000000000000000e+00) (449, -1.00000000000000000000e+00) (450, 1.00000000000000000000e+00) (451, -6.43985569477081298828e-01) (452, -1.66443407535552978516e-01) (453, 3.82001787424087524414e-01) (454, -1.51767820119857788086e-01) (455, 1.69287458062171936035e-01) (456, -7.25260496139526367188e-01) (457, 8.33725091069936752319e-03) (458, -1.76062270998954772949e-01) (459, -8.00740838050842285156e-01) (460, -7.60062515735626220703e-01) (461, -6.27880841493606567383e-02) (462, -2.80800133943557739258e-01) (463, -5.87894201278686523438e-01) (464, -1.00000000000000000000e+00) (465, -2.93317198753356933594e-01) (466, 3.59610170125961303711e-01) (467, 5.07992625236511230469e-01) (468, 1.37022659182548522949e-01) (469, 3.58922481536865234375e-01) (470, 5.37985801696777343750e-01) (471, 5.98004162311553955078e-01) (472, 3.05957049131393432617e-01) (473, 1.00000000000000000000e+00) (474, 1.00000000000000000000e+00) (475, 1.00000000000000000000e+00) (476, 1.00000000000000000000e+00) (477, -1.00000000000000000000e+00) (478, 1.00000000000000000000e+00) (479, 6.51243865489959716797e-01) (480, 1.00000000000000000000e+00) (481, 9.78015422821044921875e-01) (482, 5.31601727008819580078e-01) (483, 