FANN_FLO_2.1
num_layers=4
learning_rate=0.010000
connection_rate=1.000000
network_type=0
learning_momentum=0.400000
training_algorithm=0
train_error_function=1
train_stop_function=0
cascade_output_change_fraction=0.010000
quickprop_decay=-0.000100
quickprop_mu=1.750000
rprop_increase_factor=1.200000
rprop_decrease_factor=0.500000
rprop_delta_min=0.000000
rprop_delta_max=50.000000
rprop_delta_zero=0.100000
cascade_output_stagnation_epochs=12
cascade_candidate_change_fraction=0.010000
cascade_candidate_stagnation_epochs=12
cascade_max_out_epochs=150
cascade_min_out_epochs=50
cascade_max_cand_epochs=150
cascade_min_cand_epochs=50
cascade_num_candidate_groups=2
bit_fail_limit=3.49999994039535522461e-01
cascade_candidate_limit=1.00000000000000000000e+03
cascade_weight_multiplier=4.00000005960464477539e-01
cascade_activation_functions_count=10
cascade_activation_functions=3 5 7 8 10 11 14 15 16 17 
cascade_activation_steepnesses_count=4
cascade_activation_steepnesses=2.50000000000000000000e-01 5.00000000000000000000e-01 7.50000000000000000000e-01 1.00000000000000000000e+00 
layer_sizes=785 20 16 11 
scale_included=0
neurons (num_inputs, activation_function, activation_steepness)=(0, 0, 0.00000000000000000000e+00) (0, 0, 0.00000000000000000000e+00) (0, 0, 0.00000000000000000000e+00) (0, 0, 0.00000000000000000000e+00) (0, 0, 0.00000000000000000000e+00) (0, 0, 0.00000000000000000000e+00) (0, 0, 0.00000000000000000000e+00) (0, 0, 0.00000000000000000000e+00) (0, 0, 0.00000000000000000000e+00) (0, 0, 0.00000000000000000000e+00) (0, 0, 0.00000000000000000000e+00) (0, 0, 0.00000000000000000000e+00) (0, 0, 0.00000000000000000000e+00) (0, 0, 0.00000000000000000000e+00) (0, 0, 0.00000000000000000000e+00) (0, 0, 0.00000000000000000000e+00) (0, 0, 0.00000000000000000000e+00) (0, 0, 0.00000000000000000000e+00) (0, 0, 0.00000000000000000000e+00) (0, 0, 0.00000000000000000000e+00) (0, 0, 0.00000000000000000000e+00) (0, 0, 0.00000000000000000000e+00) (0, 0, 0.00000000000000000000e+00) (0, 0, 0.00000000000000000000e+00) (0, 0, 0.00000000000000000000e+00) (0, 0, 0.00000000000000000000e+00) (0, 0, 0.00000000000000000000e+00) (0, 0, 0.00000000000000000000e+00) (0, 0, 0.00000000000000000000e+00) (0, 0, 0.00000000000000000000e+00) (0, 0, 0.00000000000000000000e+00) (0, 0, 0.00000000000000000000e+00) (0, 0, 0.00000000000000000000e+00) (0, 0, 0.00000000000000000000e+00) (0, 0, 0.00000000000000000000e+00) (0, 0, 0.00000000000000000000e+00) (0, 0, 0.00000000000000000000e+00) (0, 0, 0.00000000000000000000e+00) (0, 0, 0.00000000000000000000e+00) (0, 0, 0.00000000000000000000e+00) (0, 0, 0.00000000000000000000e+00) (0, 0, 0.00000000000000000000e+00) (0, 0, 0.00000000000000000000e+00) (0, 0, 0.00000000000000000000e+00) (0, 0, 0.00000000000000000000e+00) (0, 0, 0.00000000000000000000e+00) (0, 0, 0.00000000000000000000e+00) (0, 0, 0.00000000000000000000e+00) (0, 0, 0.00000000000000000000e+00) (0, 0, 0.00000000000000000000e+00) (0, 0, 0.00000000000000000000e+00) (0, 0, 0.00000000000000000000e+00) (0, 0, 0.00000000000000000000e+00) (0, 0, 0.00000000000000000000e+00) (0, 0, 0.00000000000000000000e+00) (0, 0, 0.00000000000000000000e+00) (0, 0, 0.00000000000000000000e+00) (0, 0, 0.00000000000000000000e+00) (0, 0, 0.00000000000000000000e+00) (0, 0, 0.00000000000000000000e+00) (0, 0, 0.00000000000000000000e+00) (0, 0, 0.00000000000000000000e+00) (0, 0, 0.00000000000000000000e+00) (0, 0, 0.00000000000000000000e+00) (0, 0, 0.00000000000000000000e+00) (0, 0, 0.00000000000000000000e+00) (0, 0, 0.00000000000000000000e+00) (0, 0, 0.00000000000000000000e+00) (0, 0, 0.00000000000000000000e+00) (0, 0, 0.00000000000000000000e+00) (0, 0, 0.00000000000000000000e+00) (0, 0, 0.00000000000000000000e+00) (0, 0, 0.00000000000000000000e+00) (0, 0, 0.00000000000000000000e+00) (0, 0, 0.00000000000000000000e+00) (0, 0, 0.00000000000000000000e+00) (0, 0, 0.00000000000000000000e+00) (0, 0, 0.00000000000000000000e+00) (0, 0, 0.00000000000000000000e+00) (0, 0, 0.00000000000000000000e+00) (0, 0, 0.00000000000000000000e+00) (0, 0, 0.00000000000000000000e+00) (0, 0, 0.00000000000000000000e+00) (0, 0, 0.00000000000000000000e+00) (0, 0, 0.00000000000000000000e+00) (0, 0, 0.00000000000000000000e+00) (0, 0, 0.00000000000000000000e+00) (0, 0, 0.00000000000000000000e+00) (0, 0, 0.00000000000000000000e+00) (0, 0, 0.00000000000000000000e+00) (0, 0, 0.00000000000000000000e+00) (0, 0, 0.00000000000000000000e+00) (0, 0, 0.00000000000000000000e+00) (0, 0, 0.00000000000000000000e+00) (0, 0, 0.00000000000000000000e+00) (0, 0, 0.00000000000000000000e+00) (0, 0, 0.00000000000000000000e+00) (0, 0, 0.00000000000000000000e+00) (0, 0, 0.00000000000000000000e+00) (0, 0, 0.00000000000000000000e+00) (0, 0, 0.00000000000000000000e+00) (0, 0, 0.00000000000000000000e+00) (0, 0, 0.00000000000000000000e+00) (0, 0, 0.00000000000000000000e+00) (0, 0, 0.00000000000000000000e+00) (0, 0, 0.00000000000000000000e+00) (0, 0, 0.00000000000000000000e+00) (0, 0, 0.00000000000000000000e+00) (0, 0, 0.00000000000000000000e+00) (0, 0, 0.00000000000000000000e+00) (0, 0, 0.00000000000000000000e+00) (0, 0, 0.00000000000000000000e+00) (0, 0, 0.00000000000000000000e+00) (0, 0, 0.00000000000000000000e+00) (0, 0, 0.00000000000000000000e+00) (0, 0, 0.00000000000000000000e+00) (0, 0, 0.00000000000000000000e+00) (0, 0, 0.00000000000000000000e+00) (0, 0, 0.00000000000000000000e+00) (0, 0, 0.00000000000000000000e+00) (0, 0, 0.00000000000000000000e+00) (0, 0, 0.00000000000000000000e+00) (0, 0, 0.00000000000000000000e+00) (0, 0, 0.00000000000000000000e+00) (0, 0, 0.00000000000000000000e+00) (0, 0, 0.00000000000000000000e+00) (0, 0, 0.00000000000000000000e+00) (0, 0, 0.00000000000000000000e+00) (0, 0, 0.00000000000000000000e+00) (0, 0, 0.00000000000000000000e+00) (0, 0, 0.00000000000000000000e+00) (0, 0, 0.00000000000000000000e+00) (0, 0, 0.00000000000000000000e+00) (0, 0, 0.00000000000000000000e+00) (0, 0, 0.00000000000000000000e+00) (0, 0, 0.00000000000000000000e+00) (0, 0, 0.00000000000000000000e+00) (0, 0, 0.00000000000000000000e+00) (0, 0, 0.00000000000000000000e+00) (0, 0, 0.00000000000000000000e+00) (0, 0, 0.00000000000000000000e+00) (0, 0, 0.00000000000000000000e+00) (0, 0, 0.00000000000000000000e+00) (0, 0, 0.00000000000000000000e+00) (0, 0, 0.00000000000000000000e+00) (0, 0, 0.00000000000000000000e+00) (0, 0, 0.00000000000000000000e+00) (0, 0, 0.00000000000000000000e+00) (0, 0, 0.00000000000000000000e+00) (0, 0, 0.00000000000000000000e+00) (0, 0, 0.00000000000000000000e+00) (0, 0, 0.00000000000000000000e+00) (0, 0, 0.00000000000000000000e+00) (0, 0, 0.00000000000000000000e+00) (0, 0, 0.00000000000000000000e+00) (0, 0, 0.00000000000000000000e+00) (0, 0, 0.00000000000000000000e+00) (0, 0, 0.00000000000000000000e+00) (0, 0, 0.00000000000000000000e+00) (0, 0, 0.00000000000000000000e+00) (0, 0, 0.00000000000000000000e+00) (0, 0, 0.00000000000000000000e+00) (0, 0, 0.00000000000000000000e+00) (0, 0, 0.00000000000000000000e+00) (0, 0, 0.00000000000000000000e+00) (0, 0, 0.00000000000000000000e+00) (0, 0, 0.00000000000000000000e+00) (0, 0, 0.00000000000000000000e+00) (0, 0, 0.00000000000000000000e+00) (0, 0, 0.00000000000000000000e+00) (0, 0, 0.00000000000000000000e+00) (0, 0, 0.00000000000000000000e+00) (0, 0, 0.00000000000000000000e+00) (0, 0, 0.00000000000000000000e+00) (0, 0, 0.00000000000000000000e+00) (0, 0, 0.00000000000000000000e+00) (0, 0, 0.00000000000000000000e+00) (0, 0, 0.00000000000000000000e+00) (0, 0, 0.00000000000000000000e+00) (0, 0, 0.00000000000000000000e+00) (0, 0, 0.00000000000000000000e+00) (0, 0, 0.00000000000000000000e+00) (0, 0, 0.00000000000000000000e+00) (0, 0, 0.00000000000000000000e+00) (0, 0, 0.00000000000000000000e+00) (0, 0, 0.00000000000000000000e+00) (0, 0, 0.00000000000000000000e+00) (0, 0, 0.00000000000000000000e+00) (0, 0, 0.00000000000000000000e+00) (0, 0, 0.00000000000000000000e+00) (0, 0, 0.00000000000000000000e+00) (0, 0, 0.00000000000000000000e+00) (0, 0, 0.00000000000000000000e+00) (0, 0, 0.00000000000000000000e+00) (0, 0, 0.00000000000000000000e+00) (0, 0, 0.00000000000000000000e+00) (0, 0, 0.00000000000000000000e+00) (0, 0, 0.00000000000000000000e+00) (0, 0, 0.00000000000000000000e+00) (0, 0, 0.00000000000000000000e+00) (0, 0, 0.00000000000000000000e+00) (0, 0, 0.00000000000000000000e+00) (0, 0, 0.00000000000000000000e+00) (0, 0, 0.00000000000000000000e+00) (0, 0, 0.00000000000000000000e+00) (0, 0, 0.00000000000000000000e+00) (0, 0, 0.00000000000000000000e+00) (0, 0, 0.00000000000000000000e+00) (0, 0, 0.00000000000000000000e+00) (0, 0, 0.00000000000000000000e+00) (0, 0, 0.00000000000000000000e+00) (0, 0, 0.00000000000000000000e+00) (0, 0, 0.00000000000000000000e+00) (0, 0, 0.00000000000000000000e+00) (0, 0, 0.00000000000000000000e+00) (0, 0, 0.00000000000000000000e+00) (0, 0, 0.00000000000000000000e+00) (0, 0, 0.00000000000000000000e+00) (0, 0, 0.00000000000000000000e+00) (0, 0, 0.00000000000000000000e+00) (0, 0, 0.00000000000000000000e+00) (0, 0, 0.00000000000000000000e+00) (0, 0, 0.00000000000000000000e+00) (0, 0, 0.00000000000000000000e+00) (0, 0, 0.00000000000000000000e+00) (0, 0, 0.00000000000000000000e+00) (0, 0, 0.00000000000000000000e+00) (0, 0, 0.00000000000000000000e+00) (0, 0, 0.00000000000000000000e+00) (0, 0, 0.00000000000000000000e+00) (0, 0, 0.00000000000000000000e+00) (0, 0, 0.00000000000000000000e+00) (0, 0, 0.00000000000000000000e+00) (0, 0, 0.00000000000000000000e+00) (0, 0, 0.00000000000000000000e+00) (0, 0, 0.00000000000000000000e+00) (0, 0, 0.00000000000000000000e+00) (0, 0, 0.00000000000000000000e+00) (0, 0, 0.00000000000000000000e+00) (0, 0, 0.00000000000000000000e+00) (0, 0, 0.00000000000000000000e+00) (0, 0, 0.00000000000000000000e+00) (0, 0, 0.00000000000000000000e+00) (0, 0, 0.00000000000000000000e+00) (0, 0, 0.00000000000000000000e+00) (0, 0, 0.00000000000000000000e+00) (0, 0, 0.00000000000000000000e+00) (0, 0, 0.00000000000000000000e+00) (0, 0, 0.00000000000000000000e+00) (0, 0, 0.00000000000000000000e+00) (0, 0, 0.00000000000000000000e+00) (0, 0, 0.00000000000000000000e+00) (0, 0, 0.00000000000000000000e+00) (0, 0, 0.00000000000000000000e+00) (0, 0, 0.00000000000000000000e+00) (0, 0, 0.00000000000000000000e+00) (0, 0, 0.00000000000000000000e+00) (0, 0, 0.00000000000000000000e+00) (0, 0, 0.00000000000000000000e+00) (0, 0, 0.00000000000000000000e+00) (0, 0, 0.00000000000000000000e+00) (0, 0, 0.00000000000000000000e+00) (0, 0, 0.00000000000000000000e+00) (0, 0, 0.00000000000000000000e+00) (0, 0, 0.00000000000000000000e+00) (0, 0, 0.00000000000000000000e+00) (0, 0, 0.00000000000000000000e+00) (0, 0, 0.00000000000000000000e+00) (0, 0, 0.00000000000000000000e+00) (0, 0, 0.00000000000000000000e+00) (0, 0, 0.00000000000000000000e+00) (0, 0, 0.00000000000000000000e+00) (0, 0, 0.00000000000000000000e+00) (0, 0, 0.00000000000000000000e+00) (0, 0, 0.00000000000000000000e+00) (0, 0, 0.00000000000000000000e+00) (0, 0, 0.00000000000000000000e+00) (0, 0, 0.00000000000000000000e+00) (0, 0, 0.00000000000000000000e+00) (0, 0, 0.00000000000000000000e+00) (0, 0, 0.00000000000000000000e+00) (0, 0, 0.00000000000000000000e+00) (0, 0, 0.00000000000000000000e+00) (0, 0, 0.00000000000000000000e+00) (0, 0, 0.00000000000000000000e+00) (0, 0, 0.00000000000000000000e+00) (0, 0, 0.00000000000000000000e+00) (0, 0, 0.00000000000000000000e+00) (0, 0, 0.00000000000000000000e+00) (0, 0, 0.00000000000000000000e+00) (0, 0, 0.00000000000000000000e+00) (0, 0, 0.00000000000000000000e+00) (0, 0, 0.00000000000000000000e+00) (0, 0, 0.00000000000000000000e+00) (0, 0, 0.00000000000000000000e+00) (0, 0, 0.00000000000000000000e+00) (0, 0, 0.00000000000000000000e+00) (0, 0, 0.00000000000000000000e+00) (0, 0, 0.00000000000000000000e+00) (0, 0, 0.00000000000000000000e+00) (0, 0, 0.00000000000000000000e+00) (0, 0, 0.00000000000000000000e+00) (0, 0, 0.00000000000000000000e+00) (0, 0, 0.00000000000000000000e+00) (0, 0, 0.00000000000000000000e+00) (0, 0, 0.00000000000000000000e+00) (0, 0, 0.00000000000000000000e+00) (0, 0, 0.00000000000000000000e+00) (0, 0, 0.00000000000000000000e+00) (0, 0, 0.00000000000000000000e+00) (0, 0, 0.00000000000000000000e+00) (0, 0, 0.00000000000000000000e+00) (0, 0, 0.00000000000000000000e+00) (0, 0, 0.00000000000000000000e+00) (0, 0, 0.00000000000000000000e+00) (0, 0, 0.00000000000000000000e+00) (0, 0, 0.00000000000000000000e+00) (0, 0, 0.00000000000000000000e+00) (0, 0, 0.00000000000000000000e+00) (0, 0, 0.00000000000000000000e+00) (0, 0, 0.00000000000000000000e+00) (0, 0, 0.00000000000000000000e+00) (0, 0, 0.00000000000000000000e+00) (0, 0, 0.00000000000000000000e+00) (0, 0, 0.00000000000000000000e+00) (0, 0, 0.00000000000000000000e+00) (0, 0, 0.00000000000000000000e+00) (0, 0, 0.00000000000000000000e+00) (0, 0, 0.00000000000000000000e+00) (0, 0, 0.00000000000000000000e+00) (0, 0, 0.00000000000000000000e+00) (0, 0, 0.00000000000000000000e+00) (0, 0, 0.00000000000000000000e+00) (0, 0, 0.00000000000000000000e+00) (0, 0, 0.00000000000000000000e+00) (0, 0, 0.00000000000000000000e+00) (0, 0, 0.00000000000000000000e+00) (0, 0, 0.00000000000000000000e+00) (0, 0, 0.00000000000000000000e+00) (0, 0, 0.00000000000000000000e+00) (0, 0, 0.00000000000000000000e+00) (0, 0, 0.00000000000000000000e+00) (0, 0, 0.00000000000000000000e+00) (0, 0, 0.00000000000000000000e+00) (0, 0, 0.00000000000000000000e+00) (0, 0, 0.00000000000000000000e+00) (0, 0, 0.00000000000000000000e+00) (0, 0, 0.00000000000000000000e+00) (0, 0, 0.00000000000000000000e+00) (0, 0, 0.00000000000000000000e+00) (0, 0, 0.00000000000000000000e+00) (0, 0, 0.00000000000000000000e+00) (0, 0, 0.00000000000000000000e+00) (0, 0, 0.00000000000000000000e+00) (0, 0, 0.00000000000000000000e+00) (0, 0, 0.00000000000000000000e+00) (0, 0, 0.00000000000000000000e+00) (0, 0, 0.00000000000000000000e+00) (0, 0, 0.00000000000000000000e+00) (0, 0, 0.00000000000000000000e+00) (0, 0, 0.00000000000000000000e+00) (0, 0, 0.00000000000000000000e+00) (0, 0, 0.00000000000000000000e+00) (0, 0, 0.00000000000000000000e+00) (0, 0, 0.00000000000000000000e+00) (0, 0, 0.00000000000000000000e+00) (0, 0, 0.00000000000000000000e+00) (0, 0, 0.00000000000000000000e+00) (0, 0, 0.00000000000000000000e+00) (0, 0, 0.00000000000000000000e+00) (0, 0, 0.00000000000000000000e+00) (0, 0, 0.00000000000000000000e+00) (0, 0, 0.00000000000000000000e+00) (0, 0, 0.00000000000000000000e+00) (0, 0, 0.00000000000000000000e+00) (0, 0, 0.00000000000000000000e+00) (0, 0, 0.00000000000000000000e+00) (0, 0, 0.00000000000000000000e+00) (0, 0, 0.00000000000000000000e+00) (0, 0, 0.00000000000000000000e+00) (0, 0, 0.00000000000000000000e+00) (0, 0, 0.00000000000000000000e+00) (0, 0, 0.00000000000000000000e+00) (0, 0, 0.00000000000000000000e+00) (0, 0, 0.00000000000000000000e+00) (0, 0, 0.00000000000000000000e+00) (0, 0, 0.00000000000000000000e+00) (0, 0, 0.00000000000000000000e+00) (0, 0, 0.00000000000000000000e+00) (0, 0, 0.00000000000000000000e+00) (0, 0, 0.00000000000000000000e+00) (0, 0, 0.00000000000000000000e+00) (0, 0, 0.00000000000000000000e+00) (0, 0, 0.00000000000000000000e+00) (0, 0, 0.00000000000000000000e+00) (0, 0, 0.00000000000000000000e+00) (0, 0, 0.00000000000000000000e+00) (0, 0, 0.00000000000000000000e+00) (0, 0, 0.00000000000000000000e+00) (0, 0, 0.00000000000000000000e+00) (0, 0, 0.00000000000000000000e+00) (0, 0, 0.00000000000000000000e+00) (0, 0, 0.00000000000000000000e+00) (0, 0, 0.00000000000000000000e+00) (0, 0, 0.00000000000000000000e+00) (0, 0, 0.00000000000000000000e+00) (0, 0, 0.00000000000000000000e+00) (0, 0, 0.00000000000000000000e+00) (0, 0, 0.00000000000000000000e+00) (0, 0, 0.00000000000000000000e+00) (0, 0, 0.00000000000000000000e+00) (0, 0, 0.00000000000000000000e+00) (0, 0, 0.00000000000000000000e+00) (0, 0, 0.00000000000000000000e+00) (0, 0, 0.00000000000000000000e+00) (0, 0, 0.00000000000000000000e+00) (0, 0, 0.00000000000000000000e+00) (0, 0, 0.00000000000000000000e+00) (0, 0, 0.00000000000000000000e+00) (0, 0, 0.00000000000000000000e+00) (0, 0, 0.00000000000000000000e+00) (0, 0, 0.00000000000000000000e+00) (0, 0, 0.00000000000000000000e+00) (0, 0, 0.00000000000000000000e+00) (0, 0, 0.00000000000000000000e+00) (0, 0, 0.00000000000000000000e+00) (0, 0, 0.00000000000000000000e+00) (0, 0, 0.00000000000000000000e+00) (0, 0, 0.00000000000000000000e+00) (0, 0, 0.00000000000000000000e+00) (0, 0, 0.00000000000000000000e+00) (0, 0, 0.00000000000000000000e+00) (0, 0, 0.00000000000000000000e+00) (0, 0, 0.00000000000000000000e+00) (0, 0, 0.00000000000000000000e+00) (0, 0, 0.00000000000000000000e+00) (0, 0, 0.00000000000000000000e+00) (0, 0, 0.00000000000000000000e+00) (0, 0, 0.00000000000000000000e+00) (0, 0, 0.00000000000000000000e+00) (0, 0, 0.00000000000000000000e+00) (0, 0, 0.00000000000000000000e+00) (0, 0, 0.00000000000000000000e+00) (0, 0, 0.00000000000000000000e+00) (0, 0, 0.00000000000000000000e+00) (0, 0, 0.00000000000000000000e+00) (0, 0, 0.00000000000000000000e+00) (0, 0, 0.00000000000000000000e+00) (0, 0, 0.00000000000000000000e+00) (0, 0, 0.00000000000000000000e+00) (0, 0, 0.00000000000000000000e+00) (0, 0, 0.00000000000000000000e+00) (0, 0, 0.00000000000000000000e+00) (0, 0, 0.00000000000000000000e+00) (0, 0, 0.00000000000000000000e+00) (0, 0, 0.00000000000000000000e+00) (0, 0, 0.00000000000000000000e+00) (0, 0, 0.00000000000000000000e+00) (0, 0, 0.00000000000000000000e+00) (0, 0, 0.00000000000000000000e+00) (0, 0, 0.00000000000000000000e+00) (0, 0, 0.00000000000000000000e+00) (0, 0, 0.00000000000000000000e+00) (0, 0, 0.00000000000000000000e+00) (0, 0, 0.00000000000000000000e+00) (0, 0, 0.00000000000000000000e+00) (0, 0, 0.00000000000000000000e+00) (0, 0, 0.00000000000000000000e+00) (0, 0, 0.00000000000000000000e+00) (0, 0, 0.00000000000000000000e+00) (0, 0, 0.00000000000000000000e+00) (0, 0, 0.00000000000000000000e+00) (0, 0, 0.00000000000000000000e+00) (0, 0, 0.00000000000000000000e+00) (0, 0, 0.00000000000000000000e+00) (0, 0, 0.00000000000000000000e+00) (0, 0, 0.00000000000000000000e+00) (0, 0, 0.00000000000000000000e+00) (0, 0, 0.00000000000000000000e+00) (0, 0, 0.00000000000000000000e+00) (0, 0, 0.00000000000000000000e+00) (0, 0, 0.00000000000000000000e+00) (0, 0, 0.00000000000000000000e+00) (0, 0, 0.00000000000000000000e+00) (0, 0, 0.00000000000000000000e+00) (0, 0, 0.00000000000000000000e+00) (0, 0, 0.00000000000000000000e+00) (0, 0, 0.00000000000000000000e+00) (0, 0, 0.00000000000000000000e+00) (0, 0, 0.00000000000000000000e+00) (0, 0, 0.00000000000000000000e+00) (0, 0, 0.00000000000000000000e+00) (0, 0, 0.00000000000000000000e+00) (0, 0, 0.00000000000000000000e+00) (0, 0, 0.00000000000000000000e+00) (0, 0, 0.00000000000000000000e+00) (0, 0, 0.00000000000000000000e+00) (0, 0, 0.00000000000000000000e+00) (0, 0, 0.00000000000000000000e+00) (0, 0, 0.00000000000000000000e+00) (0, 0, 0.00000000000000000000e+00) (0, 0, 0.00000000000000000000e+00) (0, 0, 0.00000000000000000000e+00) (0, 0, 0.00000000000000000000e+00) (0, 0, 0.00000000000000000000e+00) (0, 0, 0.00000000000000000000e+00) (0, 0, 0.00000000000000000000e+00) (0, 0, 0.00000000000000000000e+00) (0, 0, 0.00000000000000000000e+00) (0, 0, 0.00000000000000000000e+00) (0, 0, 0.00000000000000000000e+00) (0, 0, 0.00000000000000000000e+00) (0, 0, 0.00000000000000000000e+00) (0, 0, 0.00000000000000000000e+00) (0, 0, 0.00000000000000000000e+00) (0, 0, 0.00000000000000000000e+00) (0, 0, 0.00000000000000000000e+00) (0, 0, 0.00000000000000000000e+00) (0, 0, 0.00000000000000000000e+00) (0, 0, 0.00000000000000000000e+00) (0, 0, 0.00000000000000000000e+00) (0, 0, 0.00000000000000000000e+00) (0, 0, 0.00000000000000000000e+00) (0, 0, 0.00000000000000000000e+00) (0, 0, 0.00000000000000000000e+00) (0, 0, 0.00000000000000000000e+00) (0, 0, 0.00000000000000000000e+00) (0, 0, 0.00000000000000000000e+00) (0, 0, 0.00000000000000000000e+00) (0, 0, 0.00000000000000000000e+00) (0, 0, 0.00000000000000000000e+00) (0, 0, 0.00000000000000000000e+00) (0, 0, 0.00000000000000000000e+00) (0, 0, 0.00000000000000000000e+00) (0, 0, 0.00000000000000000000e+00) (0, 0, 0.00000000000000000000e+00) (0, 0, 0.00000000000000000000e+00) (0, 0, 0.00000000000000000000e+00) (0, 0, 0.00000000000000000000e+00) (0, 0, 0.00000000000000000000e+00) (0, 0, 0.00000000000000000000e+00) (0, 0, 0.00000000000000000000e+00) (0, 0, 0.00000000000000000000e+00) (0, 0, 0.00000000000000000000e+00) (0, 0, 0.00000000000000000000e+00) (0, 0, 0.00000000000000000000e+00) (0, 0, 0.00000000000000000000e+00) (0, 0, 0.00000000000000000000e+00) (0, 0, 0.00000000000000000000e+00) (0, 0, 0.00000000000000000000e+00) (0, 0, 0.00000000000000000000e+00) (0, 0, 0.00000000000000000000e+00) (0, 0, 0.00000000000000000000e+00) (0, 0, 0.00000000000000000000e+00) (0, 0, 0.00000000000000000000e+00) (0, 0, 0.00000000000000000000e+00) (0, 0, 0.00000000000000000000e+00) (0, 0, 0.00000000000000000000e+00) (0, 0, 0.00000000000000000000e+00) (0, 0, 0.00000000000000000000e+00) (0, 0, 0.00000000000000000000e+00) (0, 0, 0.00000000000000000000e+00) (0, 0, 0.00000000000000000000e+00) (0, 0, 0.00000000000000000000e+00) (0, 0, 0.00000000000000000000e+00) (0, 0, 0.00000000000000000000e+00) (0, 0, 0.00000000000000000000e+00) (0, 0, 0.00000000000000000000e+00) (0, 0, 0.00000000000000000000e+00) (0, 0, 0.00000000000000000000e+00) (0, 0, 0.00000000000000000000e+00) (0, 0, 0.00000000000000000000e+00) (0, 0, 0.00000000000000000000e+00) (0, 0, 0.00000000000000000000e+00) (0, 0, 0.00000000000000000000e+00) (0, 0, 0.00000000000000000000e+00) (0, 0, 0.00000000000000000000e+00) (0, 0, 0.00000000000000000000e+00) (0, 0, 0.00000000000000000000e+00) (0, 0, 0.00000000000000000000e+00) (0, 0, 0.00000000000000000000e+00) (0, 0, 0.00000000000000000000e+00) (0, 0, 0.00000000000000000000e+00) (0, 0, 0.00000000000000000000e+00) (0, 0, 0.00000000000000000000e+00) (0, 0, 0.00000000000000000000e+00) (0, 0, 0.00000000000000000000e+00) (0, 0, 0.00000000000000000000e+00) (0, 0, 0.00000000000000000000e+00) (0, 0, 0.00000000000000000000e+00) (0, 0, 0.00000000000000000000e+00) (0, 0, 0.00000000000000000000e+00) (0, 0, 0.00000000000000000000e+00) (0, 0, 0.00000000000000000000e+00) (0, 0, 0.00000000000000000000e+00) (0, 0, 0.00000000000000000000e+00) (0, 0, 0.00000000000000000000e+00) (0, 0, 0.00000000000000000000e+00) (0, 0, 0.00000000000000000000e+00) (0, 0, 0.00000000000000000000e+00) (0, 0, 0.00000000000000000000e+00) (0, 0, 0.00000000000000000000e+00) (0, 0, 0.00000000000000000000e+00) (0, 0, 0.00000000000000000000e+00) (0, 0, 0.00000000000000000000e+00) (0, 0, 0.00000000000000000000e+00) (0, 0, 0.00000000000000000000e+00) (0, 0, 0.00000000000000000000e+00) (0, 0, 0.00000000000000000000e+00) (0, 0, 0.00000000000000000000e+00) (0, 0, 0.00000000000000000000e+00) (0, 0, 0.00000000000000000000e+00) (0, 0, 0.00000000000000000000e+00) (0, 0, 0.00000000000000000000e+00) (0, 0, 0.00000000000000000000e+00) (0, 0, 0.00000000000000000000e+00) (0, 0, 0.00000000000000000000e+00) (0, 0, 0.00000000000000000000e+00) (0, 0, 0.00000000000000000000e+00) (0, 0, 0.00000000000000000000e+00) (0, 0, 0.00000000000000000000e+00) (0, 0, 0.00000000000000000000e+00) (0, 0, 0.00000000000000000000e+00) (0, 0, 0.00000000000000000000e+00) (0, 0, 0.00000000000000000000e+00) (0, 0, 0.00000000000000000000e+00) (0, 0, 0.00000000000000000000e+00) (0, 0, 0.00000000000000000000e+00) (0, 0, 0.00000000000000000000e+00) (0, 0, 0.00000000000000000000e+00) (0, 0, 0.00000000000000000000e+00) (0, 0, 0.00000000000000000000e+00) (0, 0, 0.00000000000000000000e+00) (0, 0, 0.00000000000000000000e+00) (0, 0, 0.00000000000000000000e+00) (0, 0, 0.00000000000000000000e+00) (0, 0, 0.00000000000000000000e+00) (0, 0, 0.00000000000000000000e+00) (0, 0, 0.00000000000000000000e+00) (0, 0, 0.00000000000000000000e+00) (0, 0, 0.00000000000000000000e+00) (0, 0, 0.00000000000000000000e+00) (0, 0, 0.00000000000000000000e+00) (0, 0, 0.00000000000000000000e+00) (0, 0, 0.00000000000000000000e+00) (0, 0, 0.00000000000000000000e+00) (0, 0, 0.00000000000000000000e+00) (0, 0, 0.00000000000000000000e+00) (0, 0, 0.00000000000000000000e+00) (0, 0, 0.00000000000000000000e+00) (0, 0, 0.00000000000000000000e+00) (0, 0, 0.00000000000000000000e+00) (0, 0, 0.00000000000000000000e+00) (0, 0, 0.00000000000000000000e+00) (0, 0, 0.00000000000000000000e+00) (0, 0, 0.00000000000000000000e+00) (0, 0, 0.00000000000000000000e+00) (0, 0, 0.00000000000000000000e+00) (0, 0, 0.00000000000000000000e+00) (0, 0, 0.00000000000000000000e+00) (0, 0, 0.00000000000000000000e+00) (0, 0, 0.00000000000000000000e+00) (0, 0, 0.00000000000000000000e+00) (0, 0, 0.00000000000000000000e+00) (0, 0, 0.00000000000000000000e+00) (0, 0, 0.00000000000000000000e+00) (0, 0, 0.00000000000000000000e+00) (0, 0, 0.00000000000000000000e+00) (0, 0, 0.00000000000000000000e+00) (0, 0, 0.00000000000000000000e+00) (0, 0, 0.00000000000000000000e+00) (0, 0, 0.00000000000000000000e+00) (0, 0, 0.00000000000000000000e+00) (0, 0, 0.00000000000000000000e+00) (0, 0, 0.00000000000000000000e+00) (0, 0, 0.00000000000000000000e+00) (0, 0, 0.00000000000000000000e+00) (0, 0, 0.00000000000000000000e+00) (0, 0, 0.00000000000000000000e+00) (0, 0, 0.00000000000000000000e+00) (0, 0, 0.00000000000000000000e+00) (0, 0, 0.00000000000000000000e+00) (0, 0, 0.00000000000000000000e+00) (0, 0, 0.00000000000000000000e+00) (0, 0, 0.00000000000000000000e+00) (0, 0, 0.00000000000000000000e+00) (0, 0, 0.00000000000000000000e+00) (0, 0, 0.00000000000000000000e+00) (0, 0, 0.00000000000000000000e+00) (0, 0, 0.00000000000000000000e+00) (0, 0, 0.00000000000000000000e+00) (0, 0, 0.00000000000000000000e+00) (0, 0, 0.00000000000000000000e+00) (0, 0, 0.00000000000000000000e+00) (0, 0, 0.00000000000000000000e+00) (0, 0, 0.00000000000000000000e+00) (0, 0, 0.00000000000000000000e+00) (0, 0, 0.00000000000000000000e+00) (0, 0, 0.00000000000000000000e+00) (0, 0, 0.00000000000000000000e+00) (0, 0, 0.00000000000000000000e+00) (0, 0, 0.00000000000000000000e+00) (0, 0, 0.00000000000000000000e+00) (0, 0, 0.00000000000000000000e+00) (0, 0, 0.00000000000000000000e+00) (0, 0, 0.00000000000000000000e+00) (0, 0, 0.00000000000000000000e+00) (0, 0, 0.00000000000000000000e+00) (0, 0, 0.00000000000000000000e+00) (0, 0, 0.00000000000000000000e+00) (0, 0, 0.00000000000000000000e+00) (0, 0, 0.00000000000000000000e+00) (0, 0, 0.00000000000000000000e+00) (0, 0, 0.00000000000000000000e+00) (0, 0, 0.00000000000000000000e+00) (0, 0, 0.00000000000000000000e+00) (0, 0, 0.00000000000000000000e+00) (0, 0, 0.00000000000000000000e+00) (0, 0, 0.00000000000000000000e+00) (0, 0, 0.00000000000000000000e+00) (0, 0, 0.00000000000000000000e+00) (0, 0, 0.00000000000000000000e+00) (0, 0, 0.00000000000000000000e+00) (0, 0, 0.00000000000000000000e+00) (0, 0, 0.00000000000000000000e+00) (0, 0, 0.00000000000000000000e+00) (0, 0, 0.00000000000000000000e+00) (0, 0, 0.00000000000000000000e+00) (0, 0, 0.00000000000000000000e+00) (0, 0, 0.00000000000000000000e+00) (0, 0, 0.00000000000000000000e+00) (0, 0, 0.00000000000000000000e+00) (0, 0, 0.00000000000000000000e+00) (0, 0, 0.00000000000000000000e+00) (0, 0, 0.00000000000000000000e+00) (0, 0, 0.00000000000000000000e+00) (0, 0, 0.00000000000000000000e+00) (0, 0, 0.00000000000000000000e+00) (0, 0, 0.00000000000000000000e+00) (0, 0, 0.00000000000000000000e+00) (0, 0, 0.00000000000000000000e+00) (0, 0, 0.00000000000000000000e+00) (0, 0, 0.00000000000000000000e+00) (0, 0, 0.00000000000000000000e+00) (0, 0, 0.00000000000000000000e+00) (0, 0, 0.00000000000000000000e+00) (0, 0, 0.00000000000000000000e+00) (0, 0, 0.00000000000000000000e+00) (0, 0, 0.00000000000000000000e+00) (0, 0, 0.00000000000000000000e+00) (0, 0, 0.00000000000000000000e+00) (0, 0, 0.00000000000000000000e+00) (0, 0, 0.00000000000000000000e+00) (0, 0, 0.00000000000000000000e+00) (0, 0, 0.00000000000000000000e+00) (0, 0, 0.00000000000000000000e+00) (0, 0, 0.00000000000000000000e+00) (0, 0, 0.00000000000000000000e+00) (0, 0, 0.00000000000000000000e+00) (0, 0, 0.00000000000000000000e+00) (0, 0, 0.00000000000000000000e+00) (0, 0, 0.00000000000000000000e+00) (0, 0, 0.00000000000000000000e+00) (0, 0, 0.00000000000000000000e+00) (0, 0, 0.00000000000000000000e+00) (0, 0, 0.00000000000000000000e+00) (0, 0, 0.00000000000000000000e+00) (0, 0, 0.00000000000000000000e+00) (0, 0, 0.00000000000000000000e+00) (0, 0, 0.00000000000000000000e+00) (0, 0, 0.00000000000000000000e+00) (0, 0, 0.00000000000000000000e+00) (0, 0, 0.00000000000000000000e+00) (0, 0, 0.00000000000000000000e+00) (0, 0, 0.00000000000000000000e+00) (0, 0, 0.00000000000000000000e+00) (0, 0, 0.00000000000000000000e+00) (0, 0, 0.00000000000000000000e+00) (0, 0, 0.00000000000000000000e+00) (0, 0, 0.00000000000000000000e+00) (0, 0, 0.00000000000000000000e+00) (0, 0, 0.00000000000000000000e+00) (0, 0, 0.00000000000000000000e+00) (0, 0, 0.00000000000000000000e+00) (0, 0, 0.00000000000000000000e+00) (785, 5, 5.00000000000000000000e-01) (785, 5, 5.00000000000000000000e-01) (785, 5, 5.00000000000000000000e-01) (785, 5, 5.00000000000000000000e-01) (785, 5, 5.00000000000000000000e-01) (785, 5, 5.00000000000000000000e-01) (785, 5, 5.00000000000000000000e-01) (785, 5, 5.00000000000000000000e-01) (785, 5, 5.00000000000000000000e-01) (785, 5, 5.00000000000000000000e-01) (785, 5, 5.00000000000000000000e-01) (785, 5, 5.00000000000000000000e-01) (785, 5, 5.00000000000000000000e-01) (785, 5, 5.00000000000000000000e-01) (785, 5, 5.00000000000000000000e-01) (785, 5, 5.00000000000000000000e-01) (785, 5, 5.00000000000000000000e-01) (785, 5, 5.00000000000000000000e-01) (785, 5, 5.00000000000000000000e-01) (0, 5, 5.00000000000000000000e-01) (20, 5, 5.00000000000000000000e-01) (20, 5, 5.00000000000000000000e-01) (20, 5, 5.00000000000000000000e-01) (20, 5, 5.00000000000000000000e-01) (20, 5, 5.00000000000000000000e-01) (20, 5, 5.00000000000000000000e-01) (20, 5, 5.00000000000000000000e-01) (20, 5, 5.00000000000000000000e-01) (20, 5, 5.00000000000000000000e-01) (20, 5, 5.00000000000000000000e-01) (20, 5, 5.00000000000000000000e-01) (20, 5, 5.00000000000000000000e-01) (20, 5, 5.00000000000000000000e-01) (20, 5, 5.00000000000000000000e-01) (20, 5, 5.00000000000000000000e-01) (0, 5, 5.00000000000000000000e-01) (16, 5, 5.00000000000000000000e-01) (16, 5, 5.00000000000000000000e-01) (16, 5, 5.00000000000000000000e-01) (16, 5, 5.00000000000000000000e-01) (16, 5, 5.00000000000000000000e-01) (16, 5, 5.00000000000000000000e-01) (16, 5, 5.00000000000000000000e-01) (16, 5, 5.00000000000000000000e-01) (16, 5, 5.00000000000000000000e-01) (16, 5, 5.00000000000000000000e-01) (0, 5, 5.00000000000000000000e-01) 
connections (connected_to_neuron, weight)=(0, -1.77566949278116226196e-02) (1, -5.49153834581375122070e-02) (2, 4.07157614827156066895e-02) (3, 8.21866989135742187500e-02) (4, 7.13113695383071899414e-02) (5, 4.07111048698425292969e-02) (6, 3.57375517487525939941e-02) (7, -4.80474494397640228271e-02) (8, 9.51275676488876342773e-02) (9, -6.58215284347534179688e-02) (10, 3.81528399884700775146e-02) (11, 3.24814543128013610840e-02) (12, -2.64189727604389190674e-02) (13, -2.06113383173942565918e-02) (14, 9.14616510272026062012e-02) (15, 7.73409307003021240234e-02) (16, 6.31945878267288208008e-02) (17, -1.52480201795697212219e-02) (18, 4.71484772861003875732e-02) (19, -5.61717562377452850342e-02) (20, 3.70210967957973480225e-04) (21, 1.98170333169400691986e-03) (22, 1.26799419522285461426e-02) (23, -4.58647049963474273682e-02) (24, 2.26986557245254516602e-02) (25, 9.67156663537025451660e-02) (26, 5.18618598580360412598e-02) (27, 3.03956493735313415527e-02) (28, -1.19912782683968544006e-02) (29, -8.53255987167358398438e-02) (30, -1.85873843729496002197e-02) (31, 4.29385937750339508057e-02) (32, -6.86973035335540771484e-02) (33, -9.64566022157669067383e-02) (34, 2.83629782497882843018e-02) (35, 1.07474647462368011475e-01) (36, 3.98359522223472595215e-02) (37, -3.41548584401607513428e-02) (38, -1.21060758829116821289e-02) (39, 7.72553756833076477051e-02) (40, -7.65556050464510917664e-03) (41, 6.37468323111534118652e-02) (42, -4.60762605071067810059e-02) (43, 4.23872061073780059814e-02) (44, -1.09001975506544113159e-02) (45, -2.86122709512710571289e-02) (46, 4.47949245572090148926e-02) (47, -6.97591677308082580566e-02) (48, 5.37362396717071533203e-02) (49, -5.68489730358123779297e-03) (50, -3.51417660713195800781e-02) (51, -5.70316016674041748047e-02) (52, 8.73467400670051574707e-02) (53, 6.69706538319587707520e-02) (54, -8.00721347332000732422e-03) (55, 7.21459090709686279297e-03) (56, 7.66571015119552612305e-02) (57, -4.33136560022830963135e-02) (58, -5.67689910531044006348e-02) (59, -5.91998212039470672607e-02) (60, -5.43293468654155731201e-02) (61, 2.40162536501884460449e-02) (62, 1.05360016226768493652e-01) (63, -7.57419364526867866516e-03) (64, 2.92874705046415328979e-02) (65, 5.86776621639728546143e-02) (66, -6.64979498833417892456e-03) (67, -2.77930144220590591431e-02) (68, 4.72161658108234405518e-02) (69, -2.63310279697179794312e-02) (70, 3.21821607649326324463e-02) (71, -8.21299627423286437988e-02) (72, 1.68818198144435882568e-02) (73, -2.17459853738546371460e-02) (74, 8.69429036974906921387e-02) (75, 7.31999427080154418945e-02) (76, 2.27479971945285797119e-02) (77, 4.37731482088565826416e-02) (78, 8.78449603915214538574e-02) (79, -4.42693382501602172852e-02) (80, -7.69155919551849365234e-02) (81, -6.23162090778350830078e-02) (82, -1.15428008139133453369e-02) (83, -9.36629772186279296875e-02) (84, -8.95795673131942749023e-02) (85, 8.87051150202751159668e-02) (86, 1.78897269070148468018e-02) (87, 6.84226602315902709961e-02) (88, -7.26721882820129394531e-02) (89, 6.32550567388534545898e-02) (90, -6.50567263364791870117e-02) (91, 7.62913981452584266663e-03) (92, 2.31761075556278228760e-02) (93, 1.28562852740287780762e-01) (94, 5.98070509731769561768e-02) (95, 5.81978224217891693115e-02) (96, -3.49004194140434265137e-02) (97, -1.06826208531856536865e-01) (98, -8.61431136727333068848e-02) (99, -5.11060729622840881348e-02) (100, 2.07383744418621063232e-02) (101, -5.27826957404613494873e-02) (102, -9.05706919729709625244e-03) (103, 1.36471930891275405884e-02) (104, -1.75599697977304458618e-02) (105, -3.06264311075210571289e-02) (106, -8.05823951959609985352e-02) (107, 8.35567340254783630371e-02) (108, 9.04778987169265747070e-02) (109, 8.80940556526184082031e-02) (110, -7.41765573620796203613e-02) (111, -9.26725640892982482910e-02) (112, -7.23590478301048278809e-02) (113, 1.80942676961421966553e-02) (114, -8.47617611289024353027e-02) (115, -7.11863189935684204102e-02) (116, -3.29091819003224372864e-03) (117, 4.95141707360744476318e-02) (118, 1.44623950123786926270e-01) (119, 7.24995359778404235840e-02) (120, 1.06748240068554878235e-02) (121, 1.30859181284904479980e-01) (122, 5.53957466036081314087e-03) (123, -6.06530904769897460938e-02) (124, -4.12705726921558380127e-02) (125, -5.11568188667297363281e-02) (126, -4.97526489198207855225e-02) (127, -3.75536344945430755615e-02) (128, 7.95362815260887145996e-02) (129, 7.77291357517242431641e-02) (130, 5.01362793147563934326e-02) (131, 1.46641135215759277344e-02) (132, 1.12003318965435028076e-01) (133, 7.19226598739624023438e-02) (134, 6.33229985833168029785e-02) (135, -3.80647554993629455566e-02) (136, -7.82640203833580017090e-02) (137, 4.39278781414031982422e-02) (138, -8.30145999789237976074e-02) (139, 9.80018153786659240723e-02) (140, 3.21661308407783508301e-02) (141, -5.79260885715484619141e-02) (142, -9.40589457750320434570e-02) (143, 5.31653910875320434570e-02) (144, 5.89103624224662780762e-02) (145, -4.59859333932399749756e-02) (146, 1.41567990183830261230e-01) (147, -3.23956902138888835907e-03) (148, 4.19098660349845886230e-02) (149, -3.54777323082089424133e-03) (150, -3.36720347404479980469e-02) (151, -1.44551783800125122070e-01) (152, -6.41830116510391235352e-02) (153, -3.62782403826713562012e-02) (154, 7.33084529638290405273e-02) (155, 4.27183434367179870605e-02) (156, 5.58833777904510498047e-02) (157, 1.23630771413445472717e-02) (158, -6.29176795482635498047e-02) (159, 6.42922967672348022461e-02) (160, 2.07246206700801849365e-02) (161, 5.12135811150074005127e-02) (162, 5.10937161743640899658e-02) (163, 1.10164679586887359619e-01) (164, -1.75305586308240890503e-02) (165, -3.27063649892807006836e-02) (166, -6.35286793112754821777e-02) (167, -3.05144842714071273804e-02) (168, -8.92761945724487304688e-02) (169, -4.94349747896194458008e-02) (170, -3.27156037092208862305e-02) (171, 4.73740994930267333984e-02) (172, 1.54368411749601364136e-02) (173, 3.49561758339405059814e-02) (174, 9.23181921243667602539e-02) (175, 1.02038010954856872559e-01) (176, 5.10062370449304580688e-03) (177, -2.09347624331712722778e-02) (178, -8.06223824620246887207e-02) (179, -5.21410927176475524902e-02) (180, -1.00785702466964721680e-01) (181, -7.82060325145721435547e-02) (182, -2.75201518088579177856e-02) (183, 1.05117440223693847656e-01) (184, 1.38402044773101806641e-01) (185, -3.45466434955596923828e-02) (186, 1.08078151941299438477e-01) (187, 5.12237548828125000000e-02) (188, 1.10688887536525726318e-01) (189, 1.03584028780460357666e-01) (190, 6.12806379795074462891e-02) (191, 7.97178447246551513672e-02) (192, -3.99867594242095947266e-02) (193, -4.35874648392200469971e-02) (194, 2.70255617797374725342e-02) (195, 8.85242968797683715820e-03) (196, 2.02704202383756637573e-02) (197, 6.64912536740303039551e-02) (198, 8.78568440675735473633e-02) (199, 5.18651530146598815918e-02) (200, -1.42635786905884742737e-02) (201, 6.67367503046989440918e-02) (202, 8.70643854141235351562e-02) (203, 1.43549561500549316406e-01) (204, 7.14521333575248718262e-02) (205, -6.82835057377815246582e-02) (206, -2.61082197539508342743e-03) (207, -1.90563842654228210449e-01) (208, -1.15716904401779174805e-01) (209, -1.35647684335708618164e-01) (210, -1.44586982205510139465e-02) (211, 1.65081813931465148926e-01) (212, 6.18266202509403228760e-02) (213, 8.93084853887557983398e-02) (214, 1.40286743640899658203e-01) (215, 1.15800306200981140137e-01) (216, 1.23452201485633850098e-01) (217, 6.55390694737434387207e-02) (218, 1.05023361742496490479e-01) (219, -1.64903197437524795532e-02) (220, 2.16194111853837966919e-02) (221, -4.41413447260856628418e-02) (222, 5.25297671556472778320e-02) (223, 4.72265928983688354492e-02) (224, -8.75182449817657470703e-04) (225, -1.55226737260818481445e-02) (226, -3.07134613394737243652e-02) (227, -1.30653502419590950012e-02) (228, 5.19367605447769165039e-02) (229, -9.50065813958644866943e-03) (230, 1.51597172021865844727e-01) (231, 5.76724186539649963379e-02) (232, 1.14545814692974090576e-01) (233, -3.10163833200931549072e-02) (234, -1.73271283507347106934e-01) (235, -1.24543406069278717041e-01) (236, -2.02107012271881103516e-01) (237, -1.66764795780181884766e-01) (238, -2.06582136452198028564e-02) (239, 1.24433152377605438232e-01) (240, 1.31786003708839416504e-01) (241, 8.24548751115798950195e-02) (242, 1.52236565947532653809e-01) (243, 1.52570709586143493652e-01) (244, 1.63340449333190917969e-01) (245, 1.81792408227920532227e-01) (246, 1.29094459116458892822e-02) (247, 1.04248523712158203125e-02) (248, 3.37832607328891754150e-02) (249, 6.60066157579421997070e-02) (250, -2.93201170861721038818e-02) (251, -7.49798193573951721191e-02) (252, -9.12776663899421691895e-02) (253, -6.51579797267913818359e-02) (254, 9.57447290420532226562e-02) (255, 7.43951946496963500977e-02) (256, 1.39173492789268493652e-01) (257, 1.36058270931243896484e-01) (258, 2.13345184922218322754e-01) (259, 9.70884114503860473633e-02) (260, -5.00855781137943267822e-02) (261, -1.33950650691986083984e-01) (262, -2.60932296514511108398e-01) (263, -1.68626368045806884766e-01) (264, -1.54373213648796081543e-01) (265, -1.38843283057212829590e-01) (266, -7.47170373797416687012e-02) (267, 1.97245180606842041016e-01) (268, 1.36961683630943298340e-01) (269, 2.01659932732582092285e-01) (270, 1.89626887440681457520e-01) (271, 1.78029313683509826660e-01) (272, 2.13251680135726928711e-01) (273, 2.30671241879463195801e-01) (274, 2.17870131134986877441e-01) (275, 8.71530845761299133301e-02) (276, 6.70598819851875305176e-05) (277, 1.00303061306476593018e-01) (278, 2.69366949796676635742e-02) (279, -1.00259445607662200928e-01) (280, 5.91270402073860168457e-02) (281, -8.98459330201148986816e-02) (282, -2.48472038656473159790e-02) (283, 1.74356043338775634766e-01) (284, 1.36685356497764587402e-01) (285, 1.64921924471855163574e-01) (286, 1.84918299317359924316e-01) (287, 1.29042312502861022949e-01) (288, -1.60822838544845581055e-01) (289, -1.48599356412887573242e-01) (290, -1.53987824916839599609e-01) (291, -2.70900756120681762695e-01) (292, -2.38528445363044738770e-01) (293, -9.48773548007011413574e-02) (294, -3.95320802927017211914e-02) (295, 1.46827787160873413086e-01) (296, 2.28186905384063720703e-01) (297, 2.49752953648567199707e-01) (298, 2.23885327577590942383e-01) (299, 2.20117852091789245605e-01) (300, 2.29298144578933715820e-01) (301, 2.44020760059356689453e-01) (302, 2.45909601449966430664e-01) (303, 5.29275946319103240967e-02) (304, 8.46710205078125000000e-02) (305, 6.75804466009140014648e-02) (306, -1.35001624585129320621e-04) (307, -8.88134539127349853516e-02) (308, 6.11701384186744689941e-02) (309, -6.76360279321670532227e-02) (310, -4.74198088049888610840e-02) (311, 1.40615612268447875977e-01) (312, 1.73040494322776794434e-01) (313, 1.47158503532409667969e-01) (314, 1.54742673039436340332e-01) (315, -1.35565071832388639450e-03) (316, -1.47946640849113464355e-01) (317, -2.13516071438789367676e-01) (318, -1.93303823471069335938e-01) (319, -3.00661504268646240234e-01) (320, -2.72767275571823120117e-01) (321, -1.74833491444587707520e-01) (322, 3.62684577703475952148e-02) (323, 8.13420563936233520508e-02) (324, 2.41899698972702026367e-01) (325, 2.72032886743545532227e-01) (326, 2.25766777992248535156e-01) (327, 2.40164324641227722168e-01) (328, 3.36442470550537109375e-01) (329, 3.01910609006881713867e-01) (330, 3.17035496234893798828e-01) (331, 7.36138969659805297852e-02) (332, 7.21209198236465454102e-02) (333, 2.35511418431997299194e-02) (334, -7.18150362372398376465e-02) (335, -7.13209211826324462891e-02) (336, -3.53588610887527465820e-02) (337, 2.18267310410737991333e-02) (338, -3.34228128194808959961e-02) (339, 4.16152030229568481445e-02) (340, 3.13455730676651000977e-01) (341, 1.04025572538375854492e-01) (342, 1.24405667185783386230e-01) (343, -2.32518054544925689697e-02) (344, -1.38795673847198486328e-01) (345, -2.22237929701805114746e-01) (346, -3.04382771253585815430e-01) (347, -3.83464246988296508789e-01) (348, -3.97815853357315063477e-01) (349, -1.93827569484710693359e-01) (350, -6.58914074301719665527e-02) (351, 1.48203954100608825684e-01) (352, 2.82767564058303833008e-01) (353, 2.49594911932945251465e-01) (354, 3.60261589288711547852e-01) (355, 4.02138173580169677734e-01) (356, 3.99519920349121093750e-01) (357, 3.78314077854156494141e-01) (358, 2.72661834955215454102e-01) (359, 1.96104228496551513672e-01) (360, 1.54754400253295898438e-01) (361, 1.18705727159976959229e-01) (362, 7.39147588610649108887e-02) (363, -3.28617766499519348145e-02) (364, -7.36321962904185056686e-04) (365, 8.81347730755805969238e-02) (366, 3.82824540138244628906e-02) (367, 1.97590738534927368164e-01) (368, 1.99648886919021606445e-01) (369, 1.88969641923904418945e-01) (370, 1.02728411555290222168e-01) (371, 3.77124920487403869629e-02) (372, -1.17211885750293731689e-01) (373, -2.35462486743927001953e-01) (374, -3.17098379135131835938e-01) (375, -3.14113527536392211914e-01) (376, -3.45362544059753417969e-01) (377, -1.64411589503288269043e-01) (378, -2.36926432698965072632e-02) (379, 1.80840402841567993164e-01) (380, 2.03330576419830322266e-01) (381, 2.15398266911506652832e-01) (382, 3.17970484495162963867e-01) (383, 3.61098736524581909180e-01) (384, 3.70970726013183593750e-01) (385, 3.37273508310317993164e-01) (386, 2.33952820301055908203e-01) (387, 1.58836677670478820801e-01) (388, 1.39333261176943778992e-02) (389, 4.60530631244182586670e-02) (390, -3.70929501950740814209e-02) (391, -9.16972458362579345703e-02) (392, 1.20922655332833528519e-03) (393, -8.64737555384635925293e-02) (394, -4.17106028180569410324e-04) (395, 2.11669102311134338379e-01) (396, 1.70048072934150695801e-01) (397, 2.59645134210586547852e-01) (398, 8.92580002546310424805e-02) (399, -5.15550710260868072510e-02) (400, -1.51550740003585815430e-01) (401, -2.00975626707077026367e-01) (402, -2.76456892490386962891e-01) (403, -2.77148962020874023438e-01) (404, -2.44379192590713500977e-01) (405, -1.94142147898674011230e-01) (406, 5.15474490821361541748e-02) (407, 9.34031754732131958008e-02) (408, 1.29665121436119079590e-01) (409, 1.92310646176338195801e-01) (410, 2.79102087020874023438e-01) (411, 2.01118350028991699219e-01) (412, 1.79109156131744384766e-01) (413, 1.92006871104240417480e-01) (414, 2.27420583367347717285e-01) (415, 5.27639463543891906738e-02) (416, 2.26021893322467803955e-02) (417, 1.51645511388778686523e-01) (418, 2.35855020582675933838e-02) (419, -2.67596207559108734131e-02) (420, -5.48957556020468473434e-04) (421, 6.76793977618217468262e-02) (422, 7.11057044100016355515e-04) (423, 2.07252338528633117676e-01) (424, 2.17262029647827148438e-01) (425, 1.63576245307922363281e-01) (426, 1.91283479332923889160e-01) (427, 2.76662744581699371338e-02) (428, -7.70470649003982543945e-02) (429, -1.43920302391052246094e-01) (430, -1.74001708626747131348e-01) (431, -1.75790339708328247070e-01) (432, -2.06997260451316833496e-01) (433, -1.47942408919334411621e-01) (434, 9.53399762511253356934e-02) (435, 2.01071560382843017578e-01) (436, 2.08657294511795043945e-01) (437, 1.96412608027458190918e-01) (438, 1.70209273695945739746e-01) (439, 1.25795125961303710938e-01) (440, 1.58906489610671997070e-01) (441, 1.89921960234642028809e-01) (442, 2.17028051614761352539e-01) (443, 1.95446442812681198120e-02) (444, 9.70798954367637634277e-02) (445, 1.11922726035118103027e-01) (446, -5.46109117567539215088e-02) (447, 6.43507093191146850586e-02) (448, 6.74451887607574462891e-02) (449, 5.80141767859458923340e-02) (450, -3.03971953690052032471e-02) (451, 9.75108444690704345703e-02) (452, 1.46966069936752319336e-01) (453, 1.04971993714570999146e-02) (454, 8.95086582750082015991e-03) (455, -6.02509602904319763184e-02) (456, -7.31996074318885803223e-02) (457, -7.57706612348556518555e-02) (458, -1.38572499155998229980e-01) (459, -6.32801875472068786621e-02) (460, -1.25014424324035644531e-01) (461, -7.10209924727678298950e-03) (462, 1.04967676103115081787e-01) (463, 9.06551629304885864258e-02) (464, 1.52433738112449645996e-01) (465, 5.42279928922653198242e-02) (466, 6.65724948048591613770e-02) (467, 2.54967454820871353149e-02) (468, -1.56702485401183366776e-03) (469, -1.65588129311800003052e-02) (470, 1.96859203279018402100e-02) (471, -5.73082501068711280823e-03) (472, 8.00511520355939865112e-03) (473, -4.61279042065143585205e-02) (474, -2.35378555953502655029e-02) (475, 7.52869099378585815430e-02) (476, 8.11760574579238891602e-02) (477, 6.41186023131012916565e-03) (478, 4.53794598579406738281e-02) (479, 1.54590979218482971191e-01) (480, 3.10404431074857711792e-02) (481, 5.49728572368621826172e-02) (482, -1.25611275434494018555e-01) (483, -6.74682483077049255371e-02) (484, -6.29476234316825866699e-02) (485, 1.43284946680068969727e-02) (486, -2.90437545627355575562e-02) (487, -2.45941653847694396973e-02) (488, 3.85306179523468017578e-02) (489, 4.42465059459209442139e-02) (490, 1.28049999475479125977e-01) (491, 1.55635744333267211914e-01) (492, 5.48751838505268096924e-02) (493, 7.42374435067176818848e-02) (494, 8.65364726632833480835e-03) (495, -5.60231916606426239014e-02) (496, 4.16892860084772109985e-03) (497, 4.66542430222034454346e-02) (498, 4.69941347837448120117e-02) (499, 6.92670326679944992065e-03) (500, 1.05516545474529266357e-01) (501, 8.30342769622802734375e-02) (502, 4.25561182200908660889e-02) (503, 9.76665914058685302734e-02) (504, 4.30771969258785247803e-02) (505, 7.33101665973663330078e-02) (506, 9.90757569670677185059e-02) (507, 9.40367877483367919922e-02) (508, 2.89409793913364410400e-02) (509, 3.68750537745654582977e-03) (510, -8.32967981696128845215e-02) (511, -1.77270080894231796265e-02) (512, -1.41459330916404724121e-01) (513, -1.99747886508703231812e-02) (514, -7.64602273702621459961e-02) (515, 4.64859195053577423096e-02) (516, 4.39828112721443176270e-02) (517, 1.18195764720439910889e-01) (518, 1.03408999741077423096e-01) (519, 1.04551404714584350586e-01) (520, 2.75361835956573486328e-02) (521, -2.47863237746059894562e-03) (522, -5.46386837959289550781e-02) (523, -2.51436531543731689453e-02) (524, -5.13516813516616821289e-02) (525, -5.59314787387847900391e-02) (526, -5.67282736301422119141e-02) (527, -1.16488505154848098755e-02) (528, 6.20086118578910827637e-02) (529, 4.07749712467193603516e-02) (530, 3.30316349864006042480e-02) (531, -2.92637050151824951172e-02) (532, -2.66289226710796356201e-02) (533, -5.04899099469184875488e-02) (534, -2.35507152974605560303e-02) (535, -5.07768131792545318604e-02) (536, 7.84031953662633895874e-03) (537, -7.05591887235641479492e-02) (538, 1.69416647404432296753e-02) (539, -1.17412991821765899658e-01) (540, -5.74470758438110351562e-02) (541, -3.94477173686027526855e-02) (542, -9.51194856315851211548e-03) (543, 8.96899204235523939133e-04) (544, 5.82586526870727539062e-02) (545, 7.44754970073699951172e-02) (546, 1.00499868392944335938e-01) (547, 8.16831663250923156738e-02) (548, -2.57129706442356109619e-02) (549, 2.61657647788524627686e-02) (550, -7.46229439973831176758e-02) (551, -4.94167469441890716553e-02) (552, -1.07798464596271514893e-01) (553, -1.43765297252684831619e-04) (554, -1.39704784378409385681e-02) (555, -6.61742165684700012207e-02) (556, 3.10568530112504959106e-02) (557, 1.16425737738609313965e-01) (558, -2.43502948433160781860e-02) (559, 9.84079092741012573242e-02) (560, 2.05892026424407958984e-02) (561, -1.05685316026210784912e-01) (562, -3.55376191437244415283e-02) (563, -6.54521659016609191895e-02) (564, -1.32732838392257690430e-02) (565, 6.50402251631021499634e-03) (566, -4.44208011031150817871e-02) (567, -1.83933582156896591187e-02) (568, 1.76462382078170776367e-02) (569, -2.93163256719708442688e-03) (570, -2.05139592289924621582e-02) (571, 7.26231606677174568176e-04) (572, 1.57756298780441284180e-01) (573, 8.31728354096412658691e-02) (574, 7.79658183455467224121e-02) (575, -2.40727178752422332764e-02) (576, 1.50882350280880928040e-02) (577, -5.01939235255122184753e-03) (578, 5.11141754686832427979e-02) (579, -3.29167619347572326660e-02) (580, -1.11588276922702789307e-02) (581, -8.89010354876518249512e-02) (582, -2.88229789584875106812e-02) (583, 4.11531403660774230957e-02) (584, 1.06601275503635406494e-01) (585, -3.16233411431312561035e-02) (586, -7.88790956139564514160e-02) (587, -1.43156936392188072205e-02) (588, -4.59589101374149322510e-02) (589, -2.92264502495527267456e-02) (590, -3.28676886856555938721e-02) (591, 9.92231667041778564453e-02) (592, -4.54508252441883087158e-02) (593, 5.39349066093564033508e-03) (594, -3.34284119307994842529e-02) (595, -4.71789762377738952637e-03) (596, -8.94486010074615478516e-02) (597, -4.49229031801223754883e-03) (598, -5.93039467930793762207e-02) (599, -5.06164133548736572266e-03) (600, 6.06227815151214599609e-02) (601, 1.34497821331024169922e-01) (602, 1.17865376174449920654e-01) (603, 5.04388697445392608643e-02) (604, 1.76835041493177413940e-02) (605, 1.41425086185336112976e-02) (606, 1.55350137501955032349e-02) (607, -1.22241089120507240295e-02) (608, -6.05001486837863922119e-02) (609, -4.95571605861186981201e-02) (610, -6.74484968185424804688e-02) (611, 9.25939381122589111328e-02) (612, -9.21547114849090576172e-02) (613, 1.30919190123677253723e-02) (614, 4.97557371854782104492e-02) (615, -9.25778448581695556641e-02) (616, 9.42442938685417175293e-02) (617, 5.25715872645378112793e-02) (618, -1.52388429269194602966e-02) (619, -2.89985761046409606934e-02) (620, -5.98690845072269439697e-02) (621, 3.79703901708126068115e-02) (622, -1.08034804463386535645e-01) (623, -4.37838472425937652588e-02) (624, 1.81421115994453430176e-02) (625, -2.36263833940029144287e-02) (626, 1.39002231881022453308e-02) (627, 4.98080328106880187988e-02) (628, 3.72339300811290740967e-02) (629, 1.85343958437442779541e-02) (630, 1.43990486860275268555e-01) (631, -2.20141075551509857178e-02) (632, 5.47271333634853363037e-02) (633, 6.74140602350234985352e-02) (634, 5.01438528299331665039e-02) (635, 1.68303307145833969116e-02) (636, -1.90587323158979415894e-02) (637, 3.63442301750183105469e-02) (638, 4.21183370053768157959e-02) (639, 9.34699922800064086914e-02) (640, 2.46532130986452102661e-02) (641, 1.03723173961043357849e-02) (642, 5.38305416703224182129e-02) (643, 1.90405081957578659058e-02) (644, -7.67072737216949462891e-02) (645, -1.34210502728819847107e-02) (646, 2.31100730597972869873e-02) (647, -6.95568919181823730469e-02) (648, -4.98326532542705535889e-02) (649, -7.20948576927185058594e-02) (650, -8.57600197196006774902e-02) (651, -4.55723702907562255859e-02) (652, -3.05278096348047256470e-02) (653, -2.34273821115493774414e-02) (654, 2.50467248260974884033e-02) (655, -5.27570582926273345947e-03) (656, -2.53036655485630035400e-02) (657, 7.55964890122413635254e-02) (658, 1.00346662104129791260e-01) (659, 1.05249509215354919434e-02) (660, -8.65875557065010070801e-02) (661, 1.76686830818653106689e-02) (662, -1.48572335019707679749e-02) (663, -7.63105507940053939819e-03) (664, -2.23168656229972839355e-02) (665, 9.23006534576416015625e-02) (666, 4.18900400400161743164e-02) (667, -3.32096554338932037354e-02) (668, 8.74940827488899230957e-02) (669, 2.83917151391506195068e-02) (670, 9.61327180266380310059e-02) (671, -9.31768771260976791382e-03) (672, -8.10430571436882019043e-02) (673, 3.91916446387767791748e-02) (674, -9.82989892363548278809e-02) (675, -5.32454922795295715332e-02) (676, -6.46976679563522338867e-02) (677, 3.61542291939258575439e-02) (678, 1.39265852048993110657e-02) (679, 1.98263302445411682129e-02) (680, 3.59243638813495635986e-02) (681, 6.05823956429958343506e-02) (682, 1.11495442688465118408e-02) (683, 2.28390451520681381226e-02) (684, 1.29766520112752914429e-02) (685, 6.04628995060920715332e-02) (686, 2.14322339743375778198e-02) (687, 8.04865583777427673340e-02) (688, -2.36100256443023681641e-02) (689, -2.28653196245431900024e-02) (690, 4.62862476706504821777e-03) (691, 1.40537142753601074219e-01) (692, 5.14592863619327545166e-02) (693, -4.36357967555522918701e-03) (694, 4.04111891984939575195e-02) (695, -4.73101809620857238770e-02) (696, -8.31952244043350219727e-02) (697, 6.75657317042350769043e-02) (698, -4.74831014871597290039e-02) (699, 8.10082033276557922363e-02) (700, -8.86832177639007568359e-03) (701, -5.33526241779327392578e-02) (702, -3.28561700880527496338e-02) (703, 5.79781830310821533203e-03) (704, 8.39345455169677734375e-02) (705, -3.23830614797770977020e-03) (706, 8.76222699880599975586e-02) (707, -8.60957719851285219193e-04) (708, -1.62381343543529510498e-02) (709, -5.06269466131925582886e-03) (710, 4.46931924670934677124e-03) (711, 8.70052278041839599609e-02) (712, 7.22742229700088500977e-02) (713, 7.08558782935142517090e-02) (714, 7.38834217190742492676e-02) (715, 6.22144080698490142822e-02) (716, 2.88276933133602142334e-02) (717, 1.57971270382404327393e-02) (718, 6.26668855547904968262e-02) (719, 9.53078866004943847656e-02) (720, 5.01081794500350952148e-02) (721, 8.21439698338508605957e-02) (722, 2.86804744973778724670e-03) (723, -6.73744678497314453125e-02) (724, -7.84202292561531066895e-02) (725, 7.72696509957313537598e-02) (726, -6.78696706891059875488e-02) (727, -8.16086307168006896973e-02) (728, 3.79278883337974548340e-02) (729, -1.75941754132509231567e-02) (730, 9.89960432052612304688e-02) (731, -6.80868923664093017578e-02) (732, 4.16274406015872955322e-02) (733, -1.64462365210056304932e-02) (734, 8.01209807395935058594e-02) (735, 4.80853840708732604980e-02) (736, 8.74794274568557739258e-02) (737, 8.78218114376068115234e-02) (738, 1.00442551076412200928e-01) (739, 9.84624251723289489746e-02) (740, -7.82142393290996551514e-03) (741, 6.21661134064197540283e-02) (742, 2.00558993965387344360e-02) (743, 7.08827888593077659607e-03) (744, 2.36168745905160903931e-02) (745, 6.96840733289718627930e-02) (746, -9.04398877173662185669e-03) (747, 5.74927516281604766846e-02) (748, 7.20946267247200012207e-02) (749, 2.72380262613296508789e-02) (750, 1.18509270250797271729e-01) (751, -8.51391777396202087402e-02) (752, -5.58822490274906158447e-02) (753, -3.32538858056068420410e-02) (754, -7.66363441944122314453e-02) (755, -5.49469627439975738525e-02) (756, -6.36297687888145446777e-02) (757, -4.42251339554786682129e-02) (758, -4.05081436038017272949e-02) (759, 7.39012733101844787598e-02) (760, 4.88860569894313812256e-02) (761, -3.56248170137405395508e-02) (762, -7.44883939623832702637e-02) (763, -1.15692531690001487732e-02) (764, 6.87690079212188720703e-02) (765, 1.12974025309085845947e-01) (766, 5.56751713156700134277e-03) (767, 1.01434811949729919434e-01) (768, 3.72637901455163955688e-03) (769, 1.27314180135726928711e-01) (770, -1.48458057083189487457e-05) (771, 3.11532728374004364014e-02) (772, -4.43778932094573974609e-02) (773, 1.16893857717514038086e-01) (774, 1.28822937607765197754e-01) (775, 9.04913619160652160645e-02) (776, 2.19870004802942276001e-02) (777, 8.52009952068328857422e-02) (778, -2.92382929474115371704e-02) (779, -7.17278644442558288574e-02) (780, -2.74920295923948287964e-02) (781, -3.11296097934246063232e-02) (782, -7.08727464079856872559e-02) (783, -1.70825421810150146484e-03) (784, 5.41932702064514160156e-01) (0, -1.99928451329469680786e-02) (1, 6.70890957117080688477e-02) (2, 7.85533860325813293457e-02) (3, 8.39262921363115310669e-03) (4, -9.11276042461395263672e-02) (5, 4.71039414405822753906e-02) (6, -4.86959852278232574463e-02) (7, -2.74705383926630020142e-02) (8, 5.02730272710323333740e-02) (9, 3.18817459046840667725e-02) (10, -1.06264688074588775635e-01) (11, -8.87874141335487365723e-03) (12, 5.00620864331722259521e-02) (13, -3.12266144901514053345e-02) (14, 1.97074543684720993042e-02) (15, 6.85890112072229385376e-03) (16, 3.85189540684223175049e-02) (17, -5.34878335893154144287e-02) (18, 2.35827900469303131104e-02) (19, -2.90738604962825775146e-03) (20, -5.24717792868614196777e-02) (21, 9.96051356196403503418e-03) (22, -8.42638909816741943359e-02) (23, -7.55577459931373596191e-02) (24, 7.88353085517883300781e-02) (25, -6.03509843349456787109e-02) (26, -7.77642428874969482422e-03) (27, -5.22748231887817382812e-02) (28, -1.61152631044387817383e-02) (29, 1.01102918386459350586e-01) (30, 8.87141898274421691895e-02) (31, 2.24984604865312576294e-02) (32, 3.57048362493515014648e-02) (33, 5.51101341843605041504e-02) (34, -7.04379454255104064941e-02) (35, 4.23550084233283996582e-02) (36, -1.32647119462490081787e-02) (37, -3.17466929554939270020e-02) (38, -9.65424403548240661621e-02) (39, -2.86515187472105026245e-02) (40, -7.31254518032073974609e-02) (41, -8.39096382260322570801e-02) (42, 3.09623740613460540771e-02) (43, 4.88078817725181579590e-02) (44, 3.96338067948818206787e-02) (45, -1.94667503237724304199e-02) (46, -7.23669603466987609863e-02) (47, -6.84852749109268188477e-02) (48, 1.04875219985842704773e-02) (49, 8.79808664321899414062e-02) (50, 3.38164567947387695312e-02) (51, 4.89900074899196624756e-02) (52, 3.38883185759186744690e-03) (53, 8.02173390984535217285e-02) (54, 9.56213548779487609863e-02) (55, -1.49407535791397094727e-02) (56, -6.77207633852958679199e-02) (57, -6.86644518282264471054e-04) (58, 3.77166755497455596924e-02) (59, -1.00332815200090408325e-02) (60, -2.16397419571876525879e-02) (61, 1.65560841560363769531e-02) (62, -9.95270237326622009277e-02) (63, -9.81740206480026245117e-02) (64, -3.21299843490123748779e-02) (65, -6.98994472622871398926e-02) (66, 3.58179099857807159424e-02) (67, 7.45734199881553649902e-02) (68, -3.58986146748065948486e-02) (69, -2.05424036830663681030e-02) (70, -5.54523989558219909668e-02) (71, -2.65256054699420928955e-02) (72, 4.13575395941734313965e-02) (73, 1.37042952701449394226e-02) (74, -5.02101108431816101074e-02) (75, 8.57984423637390136719e-02) (76, -7.46028348803520202637e-02) (77, -1.23497582972049713135e-02) (78, -5.27791958302259445190e-03) (79, 5.35651342943310737610e-03) (80, -1.35014150291681289673e-02) (81, -7.97731522470712661743e-03) (82, 8.20560008287429809570e-03) (83, -9.30308923125267028809e-02) (84, -1.74427535384893417358e-02) (85, 9.88034345209598541260e-03) (86, -5.50919445231556892395e-03) (87, -3.09380725957453250885e-03) (88, 9.26725417375564575195e-02) (89, -6.82722032070159912109e-02) (90, 8.14203619956970214844e-02) (91, -2.34895274043083190918e-02) (92, 4.56073507666587829590e-02) (93, 1.12670302391052246094e-01) (94, -3.09395994991064071655e-02) (95, -9.45407152175903320312e-02) (96, -1.13821633160114288330e-01) (97, -5.00917732715606689453e-02) (98, -5.96891604363918304443e-02) (99, -5.97250908613204956055e-02) (100, 4.18016240000724792480e-02) (101, 6.77625238895416259766e-02) (102, -1.14032037556171417236e-01) (103, -1.79314371198415756226e-02) (104, -9.10685509443283081055e-02) (105, 5.52034303545951843262e-02) (106, -3.50949093699455261230e-02) (107, 1.78221259266138076782e-02) (108, -1.14483729004859924316e-01) (109, 6.51868432760238647461e-02) (110, -1.48317664861679077148e-02) (111, 1.29166413098573684692e-02) (112, -3.00339725799858570099e-03) (113, 1.02446995675563812256e-01) (114, 2.28279400616884231567e-02) (115, 6.67360574007034301758e-02) (116, 2.65746633522212505341e-03) (117, -8.11958163976669311523e-02) (118, -2.99450773745775222778e-02) (119, -1.09980516135692596436e-02) (120, -3.11948843300342559814e-02) (121, -7.50594660639762878418e-02) (122, -3.51081192493438720703e-02) (123, -1.46583812311291694641e-02) (124, -3.20880003273487091064e-02) (125, -1.33954808115959167480e-01) (126, -6.11723624169826507568e-02) (127, -1.27526119351387023926e-01) (128, 3.82160069420933723450e-03) (129, -4.71918210387229919434e-02) (130, 2.52564623951911926270e-02) (131, -4.02904152870178222656e-02) (132, 4.89631528034806251526e-03) (133, -4.49641793966293334961e-02) (134, -7.00088515877723693848e-02) (135, -2.64766998589038848877e-02) (136, -4.73119691014289855957e-03) (137, -2.97063123434782028198e-02) (138, -6.26547709107398986816e-02) (139, 6.45097419619560241699e-02) (140, 1.54225034639239311218e-02) (141, 2.66293864697217941284e-02) (142, -1.61205045878887176514e-02) (143, 1.01159967482089996338e-01) (144, 2.23145652562379837036e-02) (145, -9.94565263390541076660e-02) (146, 5.33877871930599212646e-02) (147, -8.76069590449333190918e-02) (148, -1.54640689492225646973e-01) (149, 3.20349894464015960693e-02) (150, -3.61178591847419738770e-02) (151, -1.64931938052177429199e-02) (152, -2.83726956695318222046e-02) (153, -7.37712755799293518066e-02) (154, -8.36617201566696166992e-02) (155, -6.75266757607460021973e-02) (156, 1.21560636907815933228e-02) (157, -1.63120701909065246582e-01) (158, -2.87870131433010101318e-02) (159, -3.25736287049949169159e-03) (160, -1.91748316865414381027e-03) (161, -6.43727779388427734375e-02) (162, -8.97776857018470764160e-02) (163, -5.14710173010826110840e-02) (164, -1.09313555061817169189e-01) (165, 3.07360081933438777924e-03) (166, -1.05840906500816345215e-01) (167, 4.94542121887207031250e-02) (168, -3.52491959929466247559e-02) (169, -5.39916269481182098389e-02) (170, 3.75573486089706420898e-02) (171, 7.39880949258804321289e-02) (172, 6.95569962263107299805e-02) (173, -9.44808945059776306152e-02) (174, 7.54826664924621582031e-02) (175, -9.05853137373924255371e-03) (176, -1.42461046576499938965e-01) (177, -2.75787692517042160034e-02) (178, 6.57586902379989624023e-02) (179, -7.73331448435783386230e-02) (180, -7.05954432487487792969e-02) (181, -1.47591516375541687012e-01) (182, -1.71132862567901611328e-01) (183, -8.39461162686347961426e-02) (184, -3.37629653513431549072e-02) (185, -6.98633715510368347168e-02) (186, -2.51817423850297927856e-02) (187, -1.05346485972404479980e-01) (188, 4.89081069827079772949e-03) (189, -6.38376027345657348633e-02) (190, -1.37131541967391967773e-01) (191, -7.18901827931404113770e-02) (192, -1.01651474833488464355e-01) (193, -3.44115979969501495361e-02) (194, -8.29773694276809692383e-02) (195, -2.20721866935491561890e-02) (196, -1.67731270194053649902e-02) (197, -3.54727692902088165283e-02) (198, -3.91965024173259735107e-02) (199, 4.55414578318595886230e-02) (200, 9.99272055923938751221e-03) (201, 8.59583988785743713379e-02) (202, -2.03023254871368408203e-02) (203, 4.80591654777526855469e-02) (204, -7.98615589737892150879e-02) (205, -1.31772905588150024414e-01) (206, -2.76640206575393676758e-02) (207, -1.38371169567108154297e-01) (208, -6.34515434503555297852e-02) (209, -1.76678933203220367432e-02) (210, -4.45617921650409698486e-02) (211, -4.58259657025337219238e-02) (212, -5.70479743182659149170e-02) (213, -4.05581714585423469543e-03) (214, -7.80585259199142456055e-02) (215, -6.30109757184982299805e-02) (216, -1.40332773327827453613e-01) (217, -1.37124195694923400879e-01) (218, -6.55880644917488098145e-02) (219, -4.31846380233764648438e-02) (220, 2.67546594841405749321e-04) (221, -1.81149579584598541260e-02) (222, 5.02276793122291564941e-02) (223, 2.90282908827066421509e-02) (224, -7.04691261053085327148e-02) (225, -7.08026885986328125000e-02) (226, -6.94909766316413879395e-02) (227, 1.41135603189468383789e-02) (228, -5.10428939014673233032e-03) (229, -2.73976325988769531250e-02) (230, -6.00086301565170288086e-02) (231, 8.29129293560981750488e-02) (232, -3.77549082040786743164e-02) (233, -1.34910279884934425354e-02) (234, -6.28706961870193481445e-02) (235, 7.38962814211845397949e-02) (236, 4.83071096241474151611e-02) (237, 5.49336448311805725098e-02) (238, 4.92039918899536132812e-02) (239, 3.99491712450981140137e-02) (240, -2.41671130061149597168e-02) (241, -7.54593387246131896973e-02) (242, -4.60984073579311370850e-02) (243, -5.78046552836894989014e-02) (244, 7.57174938917160034180e-02) (245, -7.14845508337020874023e-02) (246, -1.38049945235252380371e-01) (247, 3.25782457366585731506e-04) (248, -1.45177781581878662109e-01) (249, -5.10852634906768798828e-02) (250, -5.08727412670850753784e-03) (251, -5.24167865514755249023e-02) (252, 6.93057253956794738770e-02) (253, 1.36877615004777908325e-02) (254, -7.20454528927803039551e-02) (255, 1.03979952633380889893e-01) (256, 5.48164658248424530029e-02) (257, -8.12613056041300296783e-04) (258, 2.14633662253618240356e-02) (259, -1.99550446122884750366e-02) (260, 7.63592943549156188965e-02) (261, -2.01349649578332901001e-02) (262, 1.25480513088405132294e-03) (263, -2.93746646493673324585e-02) (264, -5.65951578319072723389e-02) (265, -7.12378248572349548340e-02) (266, -5.13874366879463195801e-02) (267, -3.31472121179103851318e-02) (268, -2.58337538689374923706e-02) (269, -6.66688941419124603271e-03) (270, 4.13009859621524810791e-02) (271, -3.84136140346527099609e-02) (272, -1.41045227646827697754e-01) (273, -1.07654854655265808105e-01) (274, -5.97716644406318664551e-02) (275, -2.85926498472690582275e-02) (276, 5.18026724457740783691e-02) (277, -5.84022551774978637695e-02) (278, -2.72673647850751876831e-02) (279, 5.57033754885196685791e-02) (280, 6.16487935185432434082e-02) (281, -1.34786870330572128296e-02) (282, -1.53465308248996734619e-02) (283, 3.87927368283271789551e-02) (284, 1.27221286296844482422e-01) (285, 4.98700998723506927490e-02) (286, 1.06305889785289764404e-01) (287, 7.42582976818084716797e-02) (288, 1.09272181987762451172e-01) (289, 5.06333485245704650879e-02) (290, -3.83654646575450897217e-02) (291, -2.14960854500532150269e-02) (292, -5.83233460783958435059e-02) (293, -2.12462961673736572266e-01) (294, -1.27317517995834350586e-01) (295, -1.28026768565177917480e-01) (296, -1.39136016368865966797e-01) (297, -6.03127330541610717773e-02) (298, 9.87740010023117065430e-02) (299, 8.48838239908218383789e-02) (300, 8.67654662579298019409e-03) (301, -5.74120692908763885498e-02) (302, -1.66691541671752929688e-02) (303, 3.79463247954845428467e-02) (304, -6.56412169337272644043e-02) (305, -4.12866706028580665588e-03) (306, -9.56678986549377441406e-02) (307, -1.20496258139610290527e-01) (308, -5.52808046340942382812e-02) (309, -8.52150917053222656250e-02) (310, -8.35611745715141296387e-02) (311, -7.76889249682426452637e-02) (312, 3.62690463662147521973e-02) (313, 4.78982217609882354736e-02) (314, 1.27636939287185668945e-01) (315, 4.79772463440895080566e-02) (316, 5.43999001383781433105e-02) (317, 6.65169209241867065430e-04) (318, -4.38306219875812530518e-02) (319, 4.35937680304050445557e-02) (320, -5.31512349843978881836e-02) (321, -7.79292285442352294922e-02) (322, -1.30549535155296325684e-01) (323, -6.88477754592895507812e-02) (324, -9.92393773049116134644e-03) (325, 2.54872068762779235840e-02) (326, 9.71011742949485778809e-02) (327, 1.24902509152889251709e-01) (328, -1.24486051499843597412e-02) (329, 2.63322680257260799408e-03) (330, 1.79850053973495960236e-03) (331, 8.71071740984916687012e-02) (332, -1.05132237076759338379e-02) (333, -5.58394901454448699951e-02) (334, 5.67721389234066009521e-02) (335, 2.46411729604005813599e-02) (336, -7.87108317017555236816e-02) (337, -6.93724751472473144531e-02) (338, 6.90606683492660522461e-02) (339, -1.12517029047012329102e-02) (340, -3.12915518879890441895e-02) (341, 1.18120737373828887939e-01) (342, 9.36154201626777648926e-02) (343, 1.43526896834373474121e-01) (344, 5.98519220948219299316e-02) (345, 6.48330524563789367676e-02) (346, 3.22262607514858245850e-02) (347, 1.49835973978042602539e-01) (348, 7.88655951619148254395e-02) (349, 1.94219738245010375977e-01) (350, -2.66652517020702362061e-02) (351, -1.72417268157005310059e-01) (352, -1.14099912345409393311e-01) (353, -6.82165101170539855957e-02) (354, 4.22652587294578552246e-02) (355, 1.54683431610465049744e-02) (356, 2.08053551614284515381e-02) (357, 6.17976393550634384155e-03) (358, 2.25869249552488327026e-02) (359, -1.11583108082413673401e-02) (360, 8.33064783364534378052e-03) (361, 5.93001656234264373779e-02) (362, -3.45082655549049377441e-02) (363, 7.29890689253807067871e-02) (364, -8.09010192751884460449e-02) (365, -8.65318179130554199219e-02) (366, -1.49204221088439226151e-03) (367, -3.70490215718746185303e-02) (368, -5.24268485605716705322e-02) (369, -1.97289060452021658421e-04) (370, 1.31611853837966918945e-01) (371, 1.46374046802520751953e-01) (372, 8.55646952986717224121e-02) (373, 2.03340187668800354004e-01) (374, 1.70079872012138366699e-01) (375, 1.67550161480903625488e-01) (376, 4.19201254844665527344e-01) (377, 3.36961477994918823242e-01) (378, 1.56167656183242797852e-01) (379, -7.12213367223739624023e-02) (380, -2.16019436717033386230e-01) (381, -7.63383656740188598633e-02) (382, -4.23264354467391967773e-02) (383, -7.93020501732826232910e-02) (384, -4.44547040387988090515e-03) (385, -1.08271218836307525635e-01) (386, -3.26179303228855133057e-02) (387, 2.31053248047828674316e-01) (388, 2.20952555537223815918e-02) (389, 1.36526420712471008301e-01) (390, -1.59077458083629608154e-02) (391, 3.86818647384643554688e-02) (392, -7.00551550835371017456e-03) (393, 2.04721726477146148682e-02) (394, -2.49971672892570495605e-02) (395, 3.73639129102230072021e-02) (396, 6.38557821512222290039e-02) (397, 1.12808488309383392334e-01) (398, 2.06789806485176086426e-01) (399, 2.21388816833496093750e-01) (400, 3.23253035545349121094e-01) (401, 1.78611382842063903809e-01) (402, 2.84506678581237792969e-01) (403, 3.86961609125137329102e-01) (404, 4.10051465034484863281e-01) (405, 4.78314667940139770508e-01) (406, 3.64113807678222656250e-01) (407, 2.13483422994613647461e-01) (408, -4.94596771895885467529e-02) (409, -1.31107568740844726562e-01) (410, -2.17571541666984558105e-01) (411, -9.41411405801773071289e-02) (412, -3.73648852109909057617e-02) (413, -6.73280581831932067871e-02) (414, 1.01189166307449340820e-02) (415, 3.94814796745777130127e-02) (416, 1.10191732645034790039e-01) (417, 5.80042228102684020996e-02) (418, -1.35034695267677307129e-02) (419, -2.11942708119750022888e-03) (420, -7.91614800691604614258e-02) (421, 1.65405068546533584595e-02) (422, 9.88212674856185913086e-02) (423, 3.56563702225685119629e-02) (424, -2.85793449729681015015e-02) (425, 2.45699137449264526367e-02) (426, 3.88457849621772766113e-02) (427, 2.37836539745330810547e-01) (428, 3.01255017518997192383e-01) (429, 3.23124200105667114258e-01) (430, 5.15800893306732177734e-01) (431, 6.67095839977264404297e-01) (432, 6.66064918041229248047e-01) (433, 6.09990179538726806641e-01) (434, 6.51533663272857666016e-01) (435, 5.85761427879333496094e-01) (436, 2.94138252735137939453e-01) (437, 1.17707781493663787842e-01) (438, 4.43452522158622741699e-02) (439, 4.94634732604026794434e-02) (440, 2.53947339951992034912e-02) (441, -9.79697983711957931519e-03) (442, -2.61188969016075134277e-02) (443, 7.33626112341880798340e-02) (444, 2.57739186286926269531e-01) (445, 1.72782808542251586914e-01) (446, 1.17747582495212554932e-01) (447, 6.97524175047874450684e-02) (448, -5.07746487855911254883e-02) (449, -7.24047720432281494141e-02) (450, -6.41311183571815490723e-02) (451, -7.87517521530389785767e-03) (452, 6.90938979387283325195e-02) (453, 1.60922065377235412598e-01) (454, 1.24388299882411956787e-01) (455, 1.03326223790645599365e-01) (456, 7.32399970293045043945e-02) (457, 2.31815829873085021973e-01) (458, 2.98943638801574707031e-01) (459, 5.23829102516174316406e-01) (460, 7.45749413967132568359e-01) (461, 7.95094251632690429688e-01) (462, 9.10337328910827636719e-01) (463, 7.45217740535736083984e-01) (464, 5.53788661956787109375e-01) (465, 3.66888701915740966797e-01) (466, 2.08946451544761657715e-01) (467, -3.08933444321155548096e-02) (468, -6.78279846906661987305e-02) (469, 3.90049181878566741943e-02) (470, 6.40572682023048400879e-02) (471, 1.56273413449525833130e-02) (472, 1.13517701625823974609e-01) (473, 1.35101035237312316895e-01) (474, 1.39504373073577880859e-01) (475, -4.39591258764266967773e-02) (476, -2.16600764542818069458e-03) (477, 8.50396305322647094727e-02) (478, 9.00543779134750366211e-02) (479, 5.62984049320220947266e-02) (480, 1.15568913519382476807e-01) (481, 1.71653807163238525391e-01) (482, 2.01034605503082275391e-01) (483, 6.40062093734741210938e-02) (484, 9.68428626656532287598e-02) (485, -3.15266437828540802002e-02) (486, -3.41416075825691223145e-02) (487, -2.27443017065525054932e-02) (488, 1.00244060158729553223e-01) (489, 4.10326868295669555664e-01) (490, 3.39230597019195556641e-01) (491, 4.16750013828277587891e-01) (492, 2.09077551960945129395e-01) (493, 3.65483850240707397461e-01) (494, 3.15604209899902343750e-01) (495, 7.49066844582557678223e-02) (496, -6.33249506354331970215e-02) (497, 1.26996055245399475098e-01) (498, 7.60375708341598510742e-02) (499, 9.48067009449005126953e-02) (500, 2.62884259223937988281e-01) (501, 1.47500276565551757812e-01) (502, 3.32714170217514038086e-02) (503, -4.39749397337436676025e-02) (504, 3.20444873068481683731e-04) (505, 1.62527710199356079102e-02) (506, -2.08590552210807800293e-02) (507, 1.14690341055393218994e-01) (508, 1.63764804601669311523e-02) (509, -7.27263372391462326050e-03) (510, 2.91007310152053833008e-02) (511, 5.31212612986564636230e-02) (512, -1.01168975234031677246e-01) (513, -4.65088374912738800049e-02) (514, -5.32205738127231597900e-02) (515, -1.71103924512863159180e-01) (516, -1.14986300468444824219e-01) (517, -4.33696918189525604248e-02) (518, -1.03236101567745208740e-02) (519, 1.91614985466003417969e-01) (520, 1.20613455772399902344e-01) (521, 2.72818237543106079102e-01) (522, 3.58626842498779296875e-01) (523, 1.53615102171897888184e-01) (524, 1.69976383447647094727e-01) (525, 3.73236760497093200684e-02) (526, 7.23432898521423339844e-02) (527, 1.43610894680023193359e-01) (528, 9.72893387079238891602e-02) (529, 1.37145385146141052246e-01) (530, -3.07700093835592269897e-02) (531, 8.76676440238952636719e-02) (532, -3.13277430832386016846e-02) (533, 2.85023991018533706665e-02) (534, -8.66172984242439270020e-02) (535, 8.87173563241958618164e-02) (536, -2.20106132328510284424e-02) (537, 9.92478895932435989380e-03) (538, 9.13152620196342468262e-02) (539, 9.39066186547279357910e-02) (540, -3.66011336445808410645e-02) (541, -1.06145709753036499023e-01) (542, -1.13645650446414947510e-01) (543, -1.10136494040489196777e-01) (544, 3.82441766560077667236e-02) (545, 6.11216295510530471802e-03) (546, 1.13173082470893859863e-01) (547, 4.63648214936256408691e-02) (548, 2.36408904194831848145e-01) (549, 2.59909242391586303711e-01) (550, 1.56517460942268371582e-01) (551, 1.24263636767864227295e-01) (552, 2.21163071691989898682e-02) (553, 3.53215709328651428223e-02) (554, 4.08837280701845884323e-04) (555, 1.61950021982192993164e-01) (556, 1.65437519550323486328e-01) (557, 9.56708267331123352051e-02) (558, 5.25176264345645904541e-02) (559, 6.14607892930507659912e-02) (560, 4.95808087289333343506e-02) (561, 2.44208960793912410736e-03) (562, 2.41976790130138397217e-02) (563, -6.67725354433059692383e-02) (564, -3.53968925774097442627e-02) (565, 9.29565876722335815430e-02) (566, 1.59604281187057495117e-01) (567, 2.52404548227787017822e-02) (568, 1.20734408497810363770e-01) (569, 1.20648801326751708984e-01) (570, 4.45222593843936920166e-02) (571, -1.11352935433387756348e-01) (572, 3.27695161104202270508e-02) (573, 1.45395593717694282532e-02) (574, 3.57795953750610351562e-02) (575, 1.27417340874671936035e-01) (576, 1.93720147013664245605e-01) (577, 1.75982341170310974121e-01) (578, 1.15435734391212463379e-01) (579, 1.53340846300125122070e-01) (580, 2.31662079691886901855e-01) (581, -2.13695690035820007324e-02) (582, 5.59643357992172241211e-02) (583, 6.97137638926506042480e-02) (584, 1.58382192254066467285e-01) (585, 1.33926719427108764648e-01) (586, 7.89070576429367065430e-02) (587, 1.13715603947639465332e-01) (588, -8.05225819349288940430e-02) (589, -6.36175349354743957520e-02) (590, 4.04366478323936462402e-02) (591, 7.69051685929298400879e-02) (592, 6.97034373879432678223e-02) (593, -5.73627697303891181946e-03) (594, 1.16549924015998840332e-01) (595, 1.57935425639152526855e-01) (596, 1.80777505040168762207e-01) (597, 3.64955626428127288818e-02) (598, 2.65336595475673675537e-02) (599, 8.16792547702789306641e-02) (600, -8.24089571833610534668e-02) (601, 6.58689960837364196777e-02) (602, 5.41829504072666168213e-02) (603, 1.20128095149993896484e-01) (604, 2.31876313686370849609e-01) (605, 1.71192288398742675781e-01) (606, 2.32554554939270019531e-01) (607, 1.36755317449569702148e-01) (608, 5.55504746735095977783e-02) (609, 2.17089831829071044922e-01) (610, 1.22314698994159698486e-01) (611, 2.96748932451009750366e-02) (612, 1.71168550848960876465e-01) (613, 3.71637232601642608643e-02) (614, -4.61546927690505981445e-02) (615, 1.49752385914325714111e-02) (616, -4.19837683439254760742e-02) (617, 5.98875284194946289062e-02) (618, -4.36966726556420326233e-03) (619, -1.64469312876462936401e-02) (620, 1.08311519026756286621e-01) (621, -4.08056117594242095947e-02) (622, 1.47706773132085800171e-02) (623, 1.17775991559028625488e-01) (624, 1.29088103771209716797e-01) (625, 1.21337205171585083008e-01) (626, 1.53214067220687866211e-01) (627, 8.00495818257331848145e-02) (628, 1.25847727060317993164e-01) (629, 9.24453511834144592285e-02) (630, 9.06139239668846130371e-02) (631, 5.80457784235477447510e-02) (632, 1.96742355823516845703e-01) (633, 2.28929340839385986328e-01) (634, 1.24478884041309356689e-01) (635, 2.50149875879287719727e-01) (636, 1.70095965266227722168e-01) (637, 9.80976372957229614258e-02) (638, -3.70135642588138580322e-02) (639, 1.46645158529281616211e-01) (640, 1.44862741231918334961e-01) (641, 9.96123775839805603027e-02) (642, 5.47360219061374664307e-02) (643, 9.22429636120796203613e-02) (644, -3.82915847003459930420e-02) (645, 5.63966594636440277100e-02) (646, -1.19079835712909698486e-02) (647, 2.74246651679277420044e-02) (648, 2.72988416254520416260e-02) (649, 9.96624380350112915039e-02) (650, 1.31279751658439636230e-01) (651, 1.03946641087532043457e-01) (652, 2.20444709062576293945e-01) (653, 1.56219348311424255371e-01) (654, 2.11473912000656127930e-01) (655, 2.63112217187881469727e-01) (656, 1.47781923413276672363e-01) (657, 1.34025454521179199219e-01) (658, 2.22651183605194091797e-01) (659, 9.60810780525207519531e-02) (660, 1.66448235511779785156e-01) (661, 2.04803004860877990723e-01) (662, 1.84029906988143920898e-01) (663, 1.36544555425643920898e-01) (664, 1.00195638835430145264e-01) (665, 8.51252973079681396484e-02) (666, 1.75692245364189147949e-01) (667, 7.26970434188842773438e-02) (668, 2.75858733803033828735e-02) (669, -9.07544419169425964355e-02) (670, -5.36334365606307983398e-02) (671, -5.85709372535347938538e-03) (672, 7.27624669671058654785e-02) (673, 8.07408094406127929688e-02) (674, -1.69939305633306503296e-02) (675, -6.17741607129573822021e-02) (676, 4.45760190486907958984e-02) (677, 8.30082595348358154297e-02) (678, 8.41024443507194519043e-02) (679, 1.59695763140916824341e-02) (680, 1.11374638974666595459e-01) (681, 2.13064551353454589844e-01) (682, 2.91055977344512939453e-01) (683, 2.87059098482131958008e-01) (684, 2.81934499740600585938e-01) (685, 2.99331575632095336914e-01) (686, 2.82962843775749206543e-02) (687, 1.49729564785957336426e-01) (688, 1.87031880021095275879e-01) (689, 9.46996882557868957520e-02) (690, 1.16659641265869140625e-01) (691, 2.74472236633300781250e-01) (692, 2.16469064354896545410e-01) (693, 4.65007759630680084229e-02) (694, 8.01853910088539123535e-02) (695, 8.17055106163024902344e-02) (696, 2.24375408142805099487e-02) (697, 3.33067700266838073730e-02) (698, -4.15188185870647430420e-02) (699, -9.80774313211441040039e-02) (700, 3.02227512001991271973e-02) (701, -2.20137252472341060638e-03) (702, -4.61529055610299110413e-03) (703, 4.06320206820964813232e-03) (704, -1.80210880935192108154e-02) (705, 8.68725702166557312012e-02) (706, 5.49034699797630310059e-02) (707, -4.45630252361297607422e-02) (708, 1.15027479827404022217e-01) (709, 8.87618437409400939941e-02) (710, 9.65693593025207519531e-02) (711, 1.59081712365150451660e-01) (712, 1.06900684535503387451e-01) (713, 1.06412194669246673584e-01) (714, 9.52998623251914978027e-02) (715, 1.17399491369724273682e-01) (716, 2.77819782495498657227e-01) (717, 8.95863324403762817383e-02) (718, 1.39530539512634277344e-01) (719, 8.60464796423912048340e-02) (720, 1.15171015262603759766e-01) (721, 5.59489801526069641113e-02) (722, -2.32927631586790084839e-02) (723, -2.07246933132410049438e-02) (724, 2.53012012690305709839e-02) (725, 7.45872706174850463867e-02) (726, 9.59321931004524230957e-02) (727, -7.52252638339996337891e-02) (728, -2.83167511224746704102e-03) (729, -4.89200912415981292725e-02) (730, -7.32314661145210266113e-02) (731, -7.24370777606964111328e-02) (732, 4.95402924716472625732e-02) (733, 2.91457120329141616821e-02) (734, 3.77622544765472412109e-02) (735, -4.05834130942821502686e-02) (736, 6.38791620731353759766e-02) (737, 3.69523838162422180176e-02) (738, 2.49434243887662887573e-02) (739, 4.68736775219440460205e-02) (740, 1.78317487239837646484e-01) (741, 1.28114223480224609375e-01) (742, 1.61148637533187866211e-01) (743, 2.16509640216827392578e-01) (744, 1.51563003659248352051e-01) (745, 1.80856361985206604004e-01) (746, 6.28141760826110839844e-02) (747, 9.78050306439399719238e-02) (748, 1.24463647603988647461e-01) (749, 6.18369411677122116089e-03) (750, 5.60958236455917358398e-02) (751, -4.63529443368315696716e-03) (752, 3.69604565203189849854e-02) (753, 7.93106853961944580078e-02) (754, 3.91226932406425476074e-02) (755, -5.65741248428821563721e-02) (756, 4.41804006695747375488e-02) (757, 3.02750542759895324707e-02) (758, -3.11496555805206298828e-02) (759, -5.80121576786041259766e-02) (760, 8.06922614574432373047e-02) (761, -2.16099317185580730438e-03) (762, -2.35557127743959426880e-02) (763, 4.55806665122509002686e-02) (764, -4.41367961466312408447e-02) (765, 1.38947054743766784668e-01) (766, 1.24103821814060211182e-01) (767, 8.89472886919975280762e-02) (768, 4.54615168273448944092e-02) (769, 1.47287920117378234863e-01) (770, 1.26014173030853271484e-01) (771, 2.63974890112876892090e-02) (772, 8.57217535376548767090e-02) (773, 2.44919322431087493896e-02) (774, -3.01653170026838779449e-03) (775, -2.75822989642620086670e-02) (776, -3.55906784534454345703e-02) (777, -4.48372662067413330078e-02) (778, 1.18678631260991096497e-02) (779, -9.55891162157058715820e-02) (780, -1.04431621730327606201e-02) (781, -6.07244521379470825195e-02) (782, -8.84502381086349487305e-03) (783, -8.37674215435981750488e-02) (784, -3.84424984455108642578e-01) (0, -8.93442556262016296387e-02) (1, -4.42267209291458129883e-02) (2, 5.57652041316032409668e-02) (3, 4.76289540529251098633e-02) (4, 2.29154583066701889038e-02) (5, 9.45239812135696411133e-02) (6, 3.53126712143421173096e-02) (7, -8.02855193614959716797e-02) (8, -3.35992313921451568604e-02) (9, -3.04479878395795822144e-02) (10, -7.22379460930824279785e-02) (11, -4.27521206438541412354e-02) (12, -9.20667946338653564453e-02) (13, 3.31731177866458892822e-02) (14, 2.20678914338350296021e-02) (15, -8.91768559813499450684e-02) (16, 1.68563444167375564575e-02) (17, 6.74446448683738708496e-02) (18, 5.25280553847551345825e-03) (19, 1.03953644633293151855e-01) (20, 8.36223810911178588867e-02) (21, 5.06936572492122650146e-03) (22, -8.23808759450912475586e-02) (23, -8.26699063181877136230e-02) (24, 9.69572588801383972168e-02) (25, -8.06539207696914672852e-02) (26, 2.30979919433593750000e-03) (27, -6.95177987217903137207e-02) (28, 3.77789814956486225128e-03) (29, 1.60521380603313446045e-02) (30, -5.72355985641479492188e-02) (31, 2.78086215257644653320e-02) (32, 7.28086829185485839844e-02) (33, -1.01448349654674530029e-01) (34, -6.11995393410325050354e-03) (35, 1.19452541694045066833e-02) (36, 1.03944383561611175537e-01) (37, -7.35170319676399230957e-02) (38, 2.76531185954809188843e-02) (39, -3.94473187625408172607e-02) (40, -4.94370833039283752441e-02) (41, 1.01393098011612892151e-02) (42, -1.01416232064366340637e-02) (43, -1.64958164095878601074e-02) (44, 1.88159067183732986450e-02) (45, -3.76566126942634582520e-02) (46, -1.23742949217557907104e-02) (47, -8.92838090658187866211e-02) (48, -8.32179337739944458008e-02) (49, -9.57609564065933227539e-02) (50, -8.22341218590736389160e-02) (51, -8.09127762913703918457e-02) (52, 5.04331383854150772095e-03) (53, -7.19208717346191406250e-02) (54, -8.23925584554672241211e-02) (55, -1.82650238275527954102e-03) (56, -5.85514120757579803467e-02) (57, 1.75300091505050659180e-02) (58, 2.93757040053606033325e-02) (59, 5.62942139804363250732e-02) (60, -6.15403875708580017090e-02) (61, 8.04859101772308349609e-02) (62, 4.06614679377526044846e-04) (63, -7.30404406785964965820e-02) (64, 6.40420094132423400879e-02) (65, 5.50929233431816101074e-02) (66, -6.94355787709355354309e-03) (67, 1.51138082146644592285e-02) (68, 3.37782204151153564453e-02) (69, -1.34057626128196716309e-01) (70, -1.50020480155944824219e-01) (71, -7.39005655050277709961e-02) (72, -1.60220265388488769531e-01) (73, -2.06858664751052856445e-02) (74, -1.38641726225614547729e-02) (75, -1.19526116177439689636e-02) (76, -1.03668987751007080078e-01) (77, -3.06668840348720550537e-02) (78, 4.34422381222248077393e-02) (79, -3.79497744143009185791e-02) (80, 5.86180714890360832214e-03) (81, 7.58332461118698120117e-02) (82, -3.58268357813358306885e-02) (83, -8.79689976572990417480e-02) (84, -1.01110041141510009766e-01) (85, -1.93522162735462188721e-02) (86, 5.16519928351044654846e-03) (87, -5.12884408235549926758e-02) (88, -9.48624461889266967773e-02) (89, -5.35792261362075805664e-02) (90, -7.67157673835754394531e-02) (91, -4.02485430240631103516e-02) (92, -9.25610437989234924316e-02) (93, -7.42870615795254707336e-03) (94, -7.15162232518196105957e-02) (95, 6.04652315378189086914e-02) (96, -6.73259720206260681152e-02) (97, -4.26122583448886871338e-02) (98, -7.70649984478950500488e-02) (99, -6.50685206055641174316e-02) (100, -2.20918983221054077148e-01) (101, -7.61700719594955444336e-02) (102, -8.60698893666267395020e-02) (103, -1.38487637042999267578e-01) (104, -2.07674670964479446411e-02) (105, -5.34094646573066711426e-02) (106, 4.11477088928222656250e-02) (107, -1.04639075696468353271e-01) (108, -6.38800859451293945312e-02) (109, 5.16895875334739685059e-02) (110, -3.86278145015239715576e-02) (111, 4.67174723744392395020e-02) (112, 2.40742769092321395874e-02) (113, 3.02986986935138702393e-02) (114, 5.72251118719577789307e-02) (115, 3.37052643299102783203e-02) (116, -8.11967179179191589355e-02) (117, -1.34667642414569854736e-02) (118, 8.83623212575912475586e-02) (119, -5.76179735362529754639e-02) (120, 2.16690022498369216919e-02) (121, 8.98387953639030456543e-02) (122, -3.83643582463264465332e-02) (123, 3.21539789438247680664e-02) (124, 2.63457838445901870728e-02) (125, -6.56200647354125976562e-02) (126, -1.45037457346916198730e-01) (127, -8.89578834176063537598e-02) (128, -1.40898510813713073730e-01) (129, -1.13984234631061553955e-01) (130, -7.08368346095085144043e-02) (131, -6.62153512239456176758e-02) (132, -1.71362340450286865234e-01) (133, -6.91548809409141540527e-02) (134, 7.80264055356383323669e-03) (135, -8.41811150312423706055e-02) (136, 6.56152889132499694824e-03) (137, 7.38635510206222534180e-02) (138, -8.07897150516510009766e-02) (139, 4.75662723183631896973e-02) (140, 3.39608900249004364014e-02) (141, -1.17739774286746978760e-02) (142, 2.80866748653352260590e-03) (143, -2.66819149255752563477e-02) (144, -6.46171718835830688477e-02) (145, -1.75457242876291275024e-02) (146, -8.52848812937736511230e-02) (147, -9.72369406372308731079e-03) (148, 1.04670599102973937988e-01) (149, 1.85906499624252319336e-01) (150, 6.82705864310264587402e-02) (151, -1.86047367751598358154e-02) (152, 4.07785363495349884033e-02) (153, -7.36533924937248229980e-02) (154, -5.03722354769706726074e-02) (155, -1.25089839100837707520e-01) (156, -4.26389649510383605957e-02) (157, -8.76746475696563720703e-02) (158, -1.15178413689136505127e-01) (159, -5.27712181210517883301e-02) (160, -8.17541405558586120605e-02) (161, -1.17306292057037353516e-01) (162, -6.97737485170364379883e-02) (163, 4.32987399399280548096e-02) (164, -8.27741920948028564453e-02) (165, -3.19500430487096309662e-03) (166, -9.80655401945114135742e-02) (167, 2.35450975596904754639e-02) (168, -1.77303478121757507324e-02) (169, -6.27630650997161865234e-02) (170, -8.20992141962051391602e-03) (171, -7.33940005302429199219e-02) (172, 4.71306182444095611572e-02) (173, 1.22111022472381591797e-01) (174, 3.97322364151477813721e-02) (175, 1.02554678916931152344e-01) (176, 3.54315191507339477539e-02) (177, 8.81112888455390930176e-02) (178, 1.49773195385932922363e-01) (179, 6.35268539190292358398e-02) (180, 9.12647508084774017334e-03) (181, -5.32638952136039733887e-02) (182, 3.95702160894870758057e-02) (183, -2.11588852107524871826e-02) (184, -3.73795926570892333984e-02) (185, -1.49339705705642700195e-01) (186, -2.66403723508119583130e-02) (187, -1.40043273568153381348e-01) (188, -6.26736059784889221191e-02) (189, 2.14287545531988143921e-02) (190, -1.25859886407852172852e-01) (191, -9.46917533874511718750e-02) (192, -8.20211619138717651367e-02) (193, -5.46289002522826194763e-03) (194, -9.87026244401931762695e-02) (195, -6.26968741416931152344e-02) (196, -9.54398959875106811523e-02) (197, -7.32267275452613830566e-02) (198, 8.43729078769683837891e-02) (199, -8.05175397545099258423e-03) (200, -2.80449595302343368530e-02) (201, -1.37806020211428403854e-03) (202, 4.61582578718662261963e-02) (203, 1.05868220329284667969e-01) (204, 1.14070121198892593384e-02) (205, 4.46824468672275543213e-02) (206, 1.16281315684318542480e-01) (207, 4.35701273381710052490e-02) (208, -2.21364460885524749756e-02) (209, 1.23763233423233032227e-01) (210, 4.72937375307083129883e-02) (211, -5.90919703245162963867e-02) (212, -5.59423379600048065186e-02) (213, -1.65857560932636260986e-02) (214, 5.38832992315292358398e-02) (215, 5.50191625952720642090e-02) (216, 1.18403390049934387207e-01) (217, -1.04694060981273651123e-01) (218, -1.02259285748004913330e-01) (219, -5.35298548638820648193e-02) (220, -8.15303623676300048828e-02) (221, -8.98133218288421630859e-02) (222, -1.15181514993309974670e-02) (223, -7.19053074717521667480e-02) (224, 2.42828503251075744629e-02) (225, 2.42506638169288635254e-02) (226, -1.54364043846726417542e-02) (227, 3.65818925201892852783e-02) (228, 8.51493403315544128418e-02) (229, 4.76989382877945899963e-03) (230, 4.85812174156308174133e-03) (231, 3.33310151472687721252e-03) (232, 1.56204059720039367676e-01) (233, 1.34766250848770141602e-01) (234, -2.00489405542612075806e-02) (235, 2.49461159110069274902e-02) (236, 1.04543000459671020508e-01) (237, -3.28253116458654403687e-03) (238, 1.07444830238819122314e-01) (239, 2.53452062606811523438e-02) (240, 6.82805702090263366699e-02) (241, 7.65855982899665832520e-02) (242, -6.78122565150260925293e-02) (243, 1.43807996064424514771e-02) (244, -2.03047841787338256836e-02) (245, 2.39443462342023849487e-02) (246, -2.19082068651914596558e-02) (247, -1.07729062438011169434e-01) (248, -3.27514251694083213806e-03) (249, -6.37447386980056762695e-02) (250, 2.57411245256662368774e-02) (251, 4.83879633247852325439e-02) (252, -2.44846418499946594238e-02) (253, -4.98171038925647735596e-02) (254, 9.68463495373725891113e-02) (255, 9.25428718328475952148e-02) (256, 5.30275665223598480225e-02) (257, 1.15392832085490226746e-02) (258, 1.76172122359275817871e-01) (259, 1.76772266626358032227e-01) (260, 1.98012024164199829102e-01) (261, 1.43227949738502502441e-01) (262, 7.40730464458465576172e-02) (263, 1.25891342759132385254e-01) (264, 1.98122709989547729492e-02) (265, 8.67811497300863265991e-03) (266, 8.85196030139923095703e-02) (267, 1.58601537346839904785e-01) (268, 9.83816683292388916016e-02) (269, 1.22038595378398895264e-01) (270, 1.84864193201065063477e-01) (271, 1.28590181469917297363e-01) (272, 6.95652663707733154297e-02) (273, 3.73488888144493103027e-02) (274, -9.36331897974014282227e-02) (275, 3.13855148851871490479e-02) (276, -1.49965398013591766357e-02) (277, -9.03672873973846435547e-02) (278, -8.46503973007202148438e-02) (279, -5.97645714879035949707e-03) (280, 7.10864365100860595703e-03) (281, 7.05075189471244812012e-02) (282, -4.57576140761375427246e-02) (283, 6.01555109024047851562e-02) (284, -1.04578174650669097900e-01) (285, -2.97755450010299682617e-02) (286, 1.37781888246536254883e-01) (287, 2.07753434777259826660e-01) (288, 2.01646789908409118652e-01) (289, 1.54101133346557617188e-01) (290, 4.07142005860805511475e-02) (291, 8.72819572687149047852e-02) (292, 9.64479222893714904785e-02) (293, 8.29398855566978454590e-02) (294, 2.44002655148506164551e-01) (295, 2.35079720616340637207e-01) (296, 3.06340217590332031250e-01) (297, 3.31519365310668945312e-01) (298, 2.52630233764648437500e-01) (299, 1.49607583880424499512e-01) (300, 1.78007066249847412109e-01) (301, 1.18897356092929840088e-01) (302, -5.86646459996700286865e-02) (303, -1.32148474454879760742e-01) (304, -6.22459501028060913086e-02) (305, -1.15460984408855438232e-01) (306, -1.14447519183158874512e-01) (307, -2.34039779752492904663e-02) (308, -3.08313816785812377930e-02) (309, -6.73924833536148071289e-02) (310, 7.62019678950309753418e-02) (311, 4.68194484710693359375e-02) (312, -1.15438707172870635986e-01) (313, -2.51705646514892578125e-02) (314, 1.68681085109710693359e-01) (315, 1.12149462103843688965e-01) (316, 2.08501175045967102051e-01) (317, 1.33782058954238891602e-01) (318, 7.91649967432022094727e-02) (319, 1.42469815909862518311e-02) (320, -5.78895993530750274658e-02) (321, -1.63122694939374923706e-02) (322, 3.11017870903015136719e-01) (323, 3.94640982151031494141e-01) (324, 3.78399878740310668945e-01) (325, 3.17839384078979492188e-01) (326, 2.56409585475921630859e-01) (327, 2.89486944675445556641e-01) (328, 2.94418901205062866211e-01) (329, 2.28666305541992187500e-01) (330, 1.01066306233406066895e-01) (331, -9.50597319751977920532e-03) (332, 3.93264405429363250732e-02) (333, -6.19196631014347076416e-02) (334, -3.05014103651046752930e-02) (335, -1.98184675537049770355e-03) (336, -5.87955676019191741943e-02) (337, -1.42425922676920890808e-02) (338, 6.91212415695190429688e-02) (339, -1.70055590569972991943e-02) (340, 1.74137149006128311157e-02) (341, 7.84077718853950500488e-02) (342, 9.98836830258369445801e-02) (343, 2.17093497514724731445e-01) (344, 1.00821092724800109863e-01) (345, 1.28325864672660827637e-01) (346, 2.60526426136493682861e-02) (347, -8.75070020556449890137e-02) (348, -2.26785093545913696289e-01) (349, -1.70977219939231872559e-01) (350, 1.18615187704563140869e-01) (351, 3.57006102800369262695e-01) (352, 2.82962828874588012695e-01) (353, 2.35581681132316589355e-01) (354, 1.71950593590736389160e-01) (355, 1.53722137212753295898e-01) (356, 1.26184582710266113281e-01) (357, 1.43608927726745605469e-01) (358, -1.41865825280547142029e-02) (359, 1.67192763183265924454e-03) (360, -9.42291617393493652344e-02) (361, -1.77887473255395889282e-02) (362, 6.58575072884559631348e-02) (363, 8.57776552438735961914e-02) (364, -3.37592810392379760742e-02) (365, -6.81942999362945556641e-02) (366, -4.41329069435596466064e-02) (367, -2.27971281856298446655e-02) (368, -1.39647834002971649170e-02) (369, -6.30019651725888252258e-03) (370, 3.93775962293148040771e-02) (371, 2.01602026820182800293e-01) (372, -2.35924720764160156250e-02) (373, -5.33708706498146057129e-02) (374, -2.37641260027885437012e-01) (375, -3.01859974861145019531e-01) (376, -2.32291802763938903809e-01) (377, -1.48322850465774536133e-01) (378, 2.40765675902366638184e-01) (379, 1.85933738946914672852e-01) (380, 2.87689000368118286133e-01) (381, 8.29346999526023864746e-02) (382, 1.30844905972480773926e-01) (383, 1.90573737025260925293e-01) (384, 8.21353308856487274170e-03) (385, -8.54809582233428955078e-03) (386, 4.75951544940471649170e-02) (387, -2.24687755107879638672e-02) (388, -2.44556851685047149658e-02) (389, 1.67771428823471069336e-02) (390, 9.99744385480880737305e-02) (391, -5.63788004219532012939e-02) (392, 8.78377817571163177490e-03) (393, 2.36063543707132339478e-02) (394, -1.07318349182605743408e-01) (395, 2.35927514731884002686e-02) (396, 3.73628847301006317139e-02) (397, -3.23331244289875030518e-02) (398, 6.23633190989494323730e-02) (399, 8.56064036488533020020e-02) (400, -8.57190787792205810547e-02) (401, -2.47730299830436706543e-01) (402, -2.72361814975738525391e-01) (403, -2.45766028761863708496e-01) (404, -2.22862333059310913086e-01) (405, -1.50855734944343566895e-01) (406, 2.13784947991371154785e-01) (407, 2.48160034418106079102e-01) (408, 1.82420775294303894043e-01) (409, 1.33700385689735412598e-01) (410, 9.35296565294265747070e-02) (411, -8.62314850091934204102e-02) (412, -4.54662181437015533447e-02) (413, -3.86192873120307922363e-02) (414, -3.23433615267276763916e-02) (415, 3.66144850850105285645e-02) (416, 6.92037940025329589844e-02) (417, 1.09566561877727508545e-01) (418, 1.36198475956916809082e-01) (419, 5.26618883013725280762e-02) (420, -7.75594040751457214355e-02) (421, 8.06381329894065856934e-02) (422, 7.98303633928298950195e-02) (423, -9.09149367362260818481e-03) (424, -1.86639782041311264038e-02) (425, 9.23102870583534240723e-02) (426, -3.20651829242706298828e-02) (427, -2.72780414670705795288e-02) (428, -1.26610934734344482422e-01) (429, -2.32286378741264343262e-01) (430, -2.43686720728874206543e-01) (431, -3.20755213499069213867e-01) (432, -2.99806386232376098633e-01) (433, -1.65773048996925354004e-01) (434, 1.59350499510765075684e-01) (435, 1.04904808104038238525e-01) (436, 1.44649490714073181152e-01) (437, -1.48328607901930809021e-02) (438, 1.32511034607887268066e-02) (439, -7.54030942916870117188e-02) (440, -1.31679877638816833496e-01) (441, -8.43745768070220947266e-02) (442, 2.55463575012981891632e-03) (443, -6.12418651580810546875e-02) (444, 2.07710936665534973145e-01) (445, 9.08285677433013916016e-02) (446, 3.92293483018875122070e-02) (447, 1.30242323502898216248e-02) (448, -6.15655742585659027100e-02) (449, 2.35627554357051849365e-02) (450, -5.01235164701938629150e-02) (451, -2.81157158315181732178e-02) (452, -3.92545461654663085938e-02) (453, -1.05054549872875213623e-01) (454, -1.40137784183025360107e-02) (455, -3.60578373074531555176e-02) (456, -2.13803693652153015137e-01) (457, -2.19351842999458312988e-01) (458, -1.82871684432029724121e-01) (459, 